{"Layer0":{},"Layer1":{"b":[[0.30192921709369197],[0.37084221364966025],[0.09806668553920826],[0.10060535336134953],[-0.3812981854660061],[0.09797670018624614],[0.029314283394818164],[0.10146870340223889],[-0.0253960507706883],[-0.39534539063266355],[0.38261253970776066],[-0.1259615746937233],[0.2381458488265138],[-0.4219437647228436],[0.28721646410440593],[0.38584744566444584],[-0.28867341050884376],[-0.22372684074224072],[0.21829150829479527],[0.1512271857404759],[-0.13018409926839883],[-0.15419499840691342],[0.040308644410449596],[0.041279092193536156],[-0.30873701260329584],[-0.23660141697376097],[-0.381882563416934],[-0.2773231068036967],[0.4507689381912752],[-0.3566914272196686],[0.373504370612399],[-0.11521538311565678],[-0.3015161275645482],[-0.0910999975097645],[0.334468251267458],[-0.40640547602856053],[0.41823327728439413],[-0.13035078398740135],[-0.06970007026375931],[-0.35730986728744607],[0.22097355588134646],[0.16839693141743406],[0.42569081010945936],[-0.38324249584122405],[-0.14686440231138828],[0.3761877741838533],[-0.05845840650194179],[0.4934434734464533],[0.12507090679382207],[-0.22306194539304758],[0.20226512032982571],[-0.4885292670599649],[0.19491913696438246],[-0.439089220525406],[0.43966760147857725],[-0.11857671529836815],[-0.08386627781159212],[0.49353617529468513],[0.42886438963891704],[0.0671870219878702],[0.3541998743058685],[0.487321193765404],[0.19826537900915084],[0.2858183292651636],[0.27921866191112177],[-0.3489300839910246],[-0.22668857630647138],[-0.3319459873071511],[-0.06351054442548972],[-0.3606743796011248],[-0.26678423124626066],[-0.16237291840555532],[-0.12807321171578942],[-0.0820945496489657],[-0.24838879742345601],[0.10872240771039322],[-0.07765873696987924],[0.3748936669532408],[-0.1539405746221618],[0.3121014626577647],[-0.2668115151780698],[-0.10479548759179125],[-0.22248331914514513],[0.21856259807376724],[0.040111837145499415],[-0.29460593452456535],[-0.3601368045727926],[-0.35680608117325524],[0.30111084806141714],[0.3145821944860292],[-0.42772844253794257],[-0.47204502593725717],[-0.4961465390581615],[0.30426327969502714],[-0.4470675456218015],[-0.4407615475688426],[-0.44737253755709167],[-0.43247759727311275],[-0.2538162388357132],[0.2549060441792347]],"w":[[-0.20599476077743817,-0.288801220864477,-0.47656821922437387,-0.40909877467512534,-0.025569143905501468,0.05677484669131805,0.4301943688684242,-0.30168233219616125,-0.3543885794825168,-0.2932040359567256,0.3781491168870219,-0.23885778683523462,0.14614024438387374,-0.4075323994826625,-0.4673207867361888,0.00002268975089347869,-0.065404171258725,0.44324040396203723,0.06739876348113771,-0.22788259886201034,-0.17402677318106008,-0.3862573861862151,-0.4689953616380136,-0.011515338810318188,-0.30065570724127477,-0.04661107432881573,0.06695110331101795,-0.03013714322550376,0.275705707553781,0.1428070828233896,-0.30164403606759294,0.3356398740363664,-0.02898050093872495,-0.39349171300313135,0.23014621932958385,0.3073117871977223,0.32472647978829133,0.16399611114691232,-0.10729864932751085,-0.2232333659080681,-0.07553281701225883,0.4086286672982259,-0.16871450216437123,0.25911976452973484,0.0047259962990755374,0.1655477814027087,-0.20401793859106335,-0.1931464424330062,0.4251636862117757,0.4759755563484851,0.3610002020204677,0.1929328663061225,0.051841344791559774,0.23074640206281427,-0.278390654608506,-0.047706845786888774,-0.4978940154542819,-0.05850933533796954,-0.07006192116898258,-0.11655552754097598,-0.33759328250222653,0.027331155448388024,0.16284495412394068,0.08716897294050087,-0.3444134007217438,0.2537902535995969,0.2820596274505758,0.3457347012488168,-0.33023748862561764,0.12629787407109816,0.43353348541660386,0.4747078729696733,-0.05330587216007302,-0.3417436720172937,0.0828535223255688,-0.36210515408375854,-0.30948157889431904,0.4642021497605731,-0.26253487079316323,-0.32832693411894254,-0.1536456976411315,0.1601325852716029,0.17730541417142853,-0.06384939195478312,0.0413699262501146,0.06295066746676037,-0.40016985428496565,-0.005749094438536995,0.4629058960075013,0.33843694397300966,0.358492361298871,-0.45240608666029963,0.1422948725665996,-0.2743491315747898,-0.4244794140211499,0.18443815403140018,-0.16404293017645333,0.33277094179807915,0.15788310277586304,-0.4216431424595134,-0.005444866011921746,-0.35463508366144825,-0.3999582662404656,0.33647869606650077,-0.3840367241206338,0.4506203070421418,-0.12663737188064364,-0.030409005753323348,0.3236414231978096,0.10218012375801439,0.3709881027878613,-0.3331026029988593,-0.29079473527277444,-0.38700759763653325,0.017541663727508316,-0.3370369088351076,-0.3116190885786646,-0.28803351363256163,-0.4497698298550351,-0.4820798074821084,0.06188357382379845,-0.2967807465705047,0.11965146607468796,0.06901458690568638,0.47248039568192923,0.41132385113762165,0.4000077562260645,-0.25727631908266146,-0.3442320840953369,0.1626848079290203,0.2260043053765946,0.49473799948786223,-0.05392548192362095,0.4049896465694383,-0.49744115751276424,-0.11385127118067415,0.19958942263096882,0.16246859637342187,0.24798014920896072,0.19570039337288025,0.39851999910213864,0.13395241146737152,-0.43225830340210286,-0.3886417454209218,0.2865880367689702,0.17318187658767178,0.42085387509216954,0.27200573801282063,0.04070708090559825,0.4688661667601743,-0.3261135544108478,-0.4180312193849702,-0.058670651645453424,0.2458810275689525,0.24987713433273523,0.08409000584807515,-0.28585283742757445,-0.41003919204394673,0.14914367773638917,0.0006826754328260893,0.32737091198902235,-0.26313699661355555,-0.23602207711669929,-0.43581904059952514,0.24478620196436104,-0.39325841862012045,-0.20066826692978862,-0.3413803715133199,-0.3128652764278028,-0.47940838236828265,0.4245011614601526,0.2093279224002079,0.2714900224275019,-0.05729542830522236,-0.4260767704800078,-0.03979665816710649,-0.39531117440247443,-0.34521738092974064,-0.21962332649652855,-0.06306404918812983,-0.08399700076127578,0.26930729115642493,-0.5046652062160986,-0.2916735264849993,0.45257859047985344,0.08980637769463,-0.11564748635793465,-0.42251933292190264,-0.051917648527883886,0.35488779678550175,0.11030503275607105,0.17654405519158695,0.203201608964785,0.4778010015477217,-0.46136449067128643,-0.34455697808729285,-0.053927712019874674,-0.3814427932768007,-0.4132263529779909,-0.24546382569295258,0.2832735994547916,0.007907696731377046,0.25487207995516786,0.18095186209910036,0.3626987761686601,-0.36296247863234943,-0.162296396998757,0.1532644187029944,0.05354861342831996,0.1989926003239869,-0.0713478233630508,0.2068838003392095,0.14104271809349206,-0.0686295176212645,0.3506177103653108,-0.08686442911402464,0.3564513812172435,-0.1353645971494367,0.3902750693720758,-0.456443242975821,-0.3208798248380182,-0.11542870416087177,-0.4319524892763778,-0.2594392242212066,0.4699706115498672,0.1449842688231787,-0.4548160183834929,-0.44038718536521687,0.20958198103879475,-0.20607652404136517,-0.29128591971238904,0.24017815179642035,0.046475076070483234,-0.3155105298114204,-0.3494719506802508,-0.1075198506336231,-0.25102300490001134,0.057818390926001,-0.3463504812509924,0.2030112920671504,-0.3882090682107873,-0.5014004283018183,0.37527589258634625,0.33316686964310804,0.4764589708621973,0.04644005776405842,-0.3741967522719707,-0.12535030060052244,-0.20757615406934893,0.39637829856096546,0.10308641968996224,-0.05594783929272396,0.37697555577526126,0.06434856680066381,0.3494345302311901,-0.4046294810351481,0.2663552035309307,-0.3747286695042931,-0.39495143194944604,-0.4074886017763586,-0.49853629152082146,0.44631260410574564,0.17371222004604076,0.2248458828749949,0.42884268916633966,0.3995807959137239,-0.32374525944897664,0.08341919323696725,-0.12188970649588966,0.4040085320962947,-0.2690650243261696,0.03480597785074926,0.4341300322622759,0.39995850878192624,-0.2971642531111995,-0.010798486499466544,-0.27214124270787465,-0.1087345613820659,-0.039462090131123374,-0.48492807675237865,0.0007875993434659002,0.3895674212683588,0.3958176761477878,0.15780827061331462,0.321424788945721,-0.47925460438057416,0.29252857427351886,-0.47972695668499227,0.25319561471224894,-0.28333940681796893,-0.13540977730302264,-0.04684711838575658,0.13239384184657454,0.36098118353621433,0.31425948114307267,-0.22893009256440042,-0.4064837456863413,0.08894340672180483,0.19741602100749178,-0.01419320565959992,0.4443662164010967,-0.1534724224225029,-0.36184028895432563,-0.4443031537889712,0.35482092454330394,-0.19617999133953526,0.3999344395068247,0.3454880629952383,-0.26889462025354294,0.4222344068551897,-0.09790804168227536,-0.4825847797662089,-0.21459281136239497,-0.19394142674799353,0.14682900232949372,-0.21112173403862758,-0.18059706810795803,-0.10689902009571504,0.2556436938043806,0.21543342659576661,0.4260829591122278,-0.22522304034172874,0.25562790395542107,-0.08421850071026975,-0.14048906533660888,-0.19134749485044325,-0.29803462977173245,0.4642979345834995,0.1443344874865908,-0.037549840673793876,0.11115399351615195,-0.14860508634103403,0.22170535837808364,0.0991050121779079,-0.08321812088436274,-0.3610566714684001,-0.1943094017639666,0.34040753239692584,-0.00038210417720429873,0.16661381398250913,0.07708804400617002,0.13149157000151424,0.34527856183267186,0.0994967182399932,0.43633032570974567,0.4335684621582951,-0.26465248708673306,0.2290729050537078,0.2944755004007399,0.3204230299051858,0.15115034965320917,-0.16614200867713363,0.4725179721546324,0.29611728093762424,-0.4509125718563844,-0.0793431658884425,0.17752636735517494,-0.26909777977308136,-0.23723470069908748,-0.14649507138310935,0.12163840207469713,-0.4696273595953199,0.35210242712917755,0.06982198344062951,-0.3103286560366334,-0.4107352217734766,0.12506567218909487,-0.03308604472994658,0.1771346823529383,0.1855146529161555,-0.3657193271964614,0.49364909829054954,0.2923231019079442,0.09092884235226825,-0.37345274625605807,-0.006365696635440039,-0.15046706438878776,0.5076181300070616,-0.023728578011785146,0.21174384480355785,-0.37914866072649234,-0.47274529904233087,0.25117830918877926,-0.2887434309932661,0.28891068405049253,-0.04303292095890755,0.4558462594903319,0.4810659968527935,0.3582185582379056,0.2694222461504041,0.14138109574051855,-0.016827776432711827,-0.16806357804124405,0.45489041083342063,0.31888494101281445,-0.4723987261133903,-0.07954962257667236,-0.4604185308034935,0.39078670178975367,0.21880073327679495,0.42341818507337603,-0.09196676381619945,-0.17393281205440508,0.4344478882902046,0.29811286246011987,0.14907734843058962,-0.3947122752558044,-0.45343336167136034,0.4426022117151109,0.04621071677314198,0.022390182743483082,0.1894395289921576,0.4565857603304479,-0.06863976192740975,-0.16445287366449415,-0.21901493148339524,0.4258805535784674,0.036902843114917386,-0.4685131632777193,0.38850422373322036,-0.0485315759644005,0.19955538198376122,-0.3858093562834788,-0.36764740813008673,-0.40914761140479416,0.1575616938262812,0.4976536400525158,-0.46961575581786313,-0.24194762773987288,0.04119372195030305,-0.4439344564110274,-0.46640655096758393,-0.1353783801847322,-0.1761616949488058,0.05675654725630101,0.5075401541936916,0.10722784119337335,0.2500417295499027,-0.07896291217227606,0.36730805290910584,0.41671333287781914,0.47489333633216146,0.019147291986322906,-0.2138075511149985,0.24806870357506763,-0.35819947373968797,0.4118920872848497,0.13964628979147908,-0.33544493863460345,-0.05690645874717619,0.17354730937858873,0.30243941409351544,0.33535024077552816,0.48595397054282224,0.22525559713551047,-0.2263761926478807,0.16586484319082448,0.40131388685233105,0.16452522261048516,0.22713995499219886,0.3229850590338266,-0.5163080268201413,0.47092869314915525,0.008679396902443015,-0.05824862456530541,-0.04256348269635344,0.3172959573403926,-0.46238917880918223,-0.3179347546376286,0.37139372724030306,-0.13208514338863242,0.3832389464677781,0.07659722450984963,-0.11276684868443587,-0.4832205418278816,0.28827387481568617,-0.2442690188464618,-0.49563229596541913,0.29675208975714196,0.3479070991219477,-0.20506912637203453,0.22521697009608246,0.30309005937413663,0.18176472957994755,-0.4752993377508112,0.3843390464922286,0.3990164509752237,0.17409949496922852,-0.2726718448214201,0.3190639132321717,-0.45084804215396374,0.16775240695665503,-0.21041865749216895,-0.3153713193990987,0.29545709661269987,0.18728621703507542,0.1569474449443759,-0.08962905895305827,-0.4211651979107914,0.43321985306988375,0.1832369016171455,0.001575320361084251,-0.4623314324309165,-0.3751934390586301,0.15705963162081682,-0.36711261236379206,0.10117269602481876,-0.2398202979889785,-0.14413302570057956,0.21543677266563166,-0.40509886700178943,-0.30920800583646585,0.36508813254199546,0.2874603865818655,0.2463853685055881,0.47711718398296427,-0.14098981761370727,0.43490878431139146,-0.004917997301254077,-0.39486320362837585,-0.020195096236427543,0.04151863766694799,-0.3853043478678531,0.003683049192320836,0.2872926032788478,-0.004879643539512723,0.25303252538294463,0.048223980647554836,0.1974743181967329,0.42582228885817086,-0.010376984501980987,0.3641097276050372,0.22152273740838258,0.1847333313710856,-0.004731210704859045,-0.33547013099620315,-0.1466391216152064,0.35208196527274593,-0.2628941371109403,-0.13450935146917903,-0.02162064916183502,0.0008242862094698977,-0.42586974257435506,-0.11886771443957168,-0.43583432607660766,0.32515227358371834,-0.11128726160528991,-0.22735197733301013,-0.052849879065957735,-0.2018715424132057,0.0014875954090906808,0.10924874348286298,0.10195481264685978,0.310399480643954,-0.1749319089908531,0.46708878209539895,-0.03055573128282326,0.48894163482225755,0.1845368241310527,0.22022314498775297,-0.31037057664996803,0.33082439519130685,0.004051888182176968,0.23210521738619136,0.11874299881996579,-0.36300529953873134,0.21337128313026024,-0.46734054473664327,0.009289906879401708,0.3757493471642154,0.44132183575134926,0.018701601618048305,0.1299421105418248,-0.18217012174537814,-0.23587667574512752,-0.018288325148908772,0.16085646298113485,0.30095087437991314,-0.07560735108625175,-0.34991901496377287,-0.46714622547397294,-0.45209312537682844,0.46251040217007205,-0.25392933371271104,0.05413526935377231,0.4573145750802191,-0.05200752705009714,0.23774740123496763,0.40541129285110755,0.4058266575037348,0.21779527405192667,-0.18655770828513815,0.42266960618309785,-0.30164046269901673,-0.3140477778987395,0.18634080432950342,-0.4704371830481616,0.23275387951835505,0.4903557437503824,0.36804720358888643,-0.38036822089626604,0.46157460121735755,-0.321376712515464,0.21911209053499062,0.37330256876051937,-0.08010808303598567,0.16946639286453696,-0.4849499919214071,-0.23286246254917642,-0.38169658316124444,-0.4986059519380266,0.39572456241757425,0.16561910338851635,0.34510275535373597,0.28673065126440017,-0.029309567960689842,0.49660511911306604,0.20725534410586244,-0.27198445348878925,-0.213621539324699,-0.15349020641048775,0.41823162576722256,-0.171046147120682,0.3784272348080016,0.34373132012183577,-0.1123285975576085,-0.10103746697669375,0.1821821851984689,-0.12063248794344866,0.0051956055111998444,0.3524523934761864,0.2833200447383392,-0.15394841067537446,-0.26672986399850246,-0.22325575166526695,-0.29720910506917886,-0.17283682025026076,0.4754391261387076,-0.45738827436929747,-0.47343557791455804,-0.40653706780036625,0.4954349609894793,-0.045402017101892615,0.1558711327525475,0.4565947382133757,-0.07667231183296515,0.2684926090596249,-0.1697784889785808,0.4885190654685255,0.45382586768684735,-0.4740960222408311,0.3031660584493179,-0.009854424701393945,-0.05049609882945865,-0.22837085232563692,-0.4514399372327006,-0.4168812649940846,-0.20243915193499756,-0.015814313866208306,0.07397258685839961,-0.08953821993984794,-0.3340741056982494,-0.0835692175048582,-0.3191597610272672,-0.5044913738210036,-0.18848372108619202,0.3270399899115788,0.21960466519853758,-0.32010318971731455,0.2909421689835111,0.24656290216840723,-0.27459642352345237,-0.3559618122880641,-0.006727140570115253,0.37358051817352167,0.45903068062668617,-0.33761024513380905,0.3493820348914239,-0.20960846697513377,0.4724096159753875,-0.44721219417226427,-0.47777440450586284,-0.01867305851298113,-0.1173637299029905,0.03434669932097587,-0.16541730125446039,-0.2937050418665877,0.342217888297374,-0.12473930389339229,-0.3543374084048656,0.2724755605207314,0.00011250572212382144,-0.3254847857486142,-0.39067476364985687,-0.44243368611989375,-0.3806929328836041,0.4178074267874545,-0.497257104193122,-0.06765373551870435,0.24435790388880285,-0.3218893858994456,0.28600171343004965,-0.22862341437506273,-0.3624461056529843,0.15217733221970292,0.3686353864228216,-0.415804338958693,0.276632441625698,0.4339789359083948,-0.0784001123351212,-0.36762254311241305,0.2223158197562114,-0.1772056201988087,0.4715994662668054,0.289373134148336,-0.48518171180274217,0.035908737326298804,-0.23894865087208944,0.39117366475440163,0.48652791599485296,0.43824277615698876,0.22929866402448493,0.3310808152949242,-0.32854775066420766,-0.3634188377513166,0.2747249597002968,0.07448255183643959,0.4705223474793987,-0.10408639728427804,0.11765311089149688,0.29223675366380775,-0.13268657914243187,-0.3637366661879191,-0.20354252564801023,-0.2596262932430636,0.14706198251937558,0.3949676858593527,-0.13143717600351493,-0.41442592048257487,0.30787095364710493,-0.2696104037673072,0.4581018132900926,-0.04777326123976909,-0.07520144228664,-0.28211505014730454,-0.4651844772504375,-0.3307657203575669,-0.02506247924579494,-0.013382594876849497,-0.22176371629879543,0.09965105307350607,-0.07068862528355692,-0.26393307796924886,0.3637292248941877,0.1313105813306259,-0.38410164035807237,0.40273700202044926,-0.43561491007261655,0.4776232636921891,-0.3899153224744627,0.024427013401892683,-0.21040414074207447,-0.25989906912259536,-0.0016105554768962534,0.3756768574918214,-0.40631031842773235,0.2856285361476053,0.4707358247633117,0.4964864506286338,-0.134608849151847,-0.2388477488016426,0.31843240210798157,-0.1934347266733101,-0.0652230554517526,0.07167546474096219,-0.14043549325269614,-0.3658197226799481,0.23050194112643962,-0.3903713841275389,0.3026624107899343,0.22612057064348012,-0.11871599680281775,0.01343987923466572,0.47165181882614715],[0.4632161305492579,0.4932146081821511,-0.4307307056857237,0.36493683412988465,-0.25403620903371493,-0.12120699637674415,-0.3991469096756044,-0.10365263544874503,-0.05443234955985998,-0.23738601437634244,0.14523509943185897,-0.3842453059129902,0.03638573440697912,-0.10653423831578634,0.04474123642922967,0.20678109825331115,0.49640225376686176,0.054492683196805114,0.29971660960605817,0.14739233698898913,0.2596629676115094,-0.48462967798090895,-0.17286587590439062,-0.3068281553819896,-0.3405514857518741,0.23032077876253698,0.3884553511683919,-0.39776324511748573,-0.3009529133555666,-0.08602958264391503,-0.3880926229664101,-0.33107513517296994,0.07368129509611365,-0.2666571582861219,0.00282387938299126,-0.28109990567036225,0.1771872391167594,-0.33094838914286356,-0.23868870958474495,-0.14647612491829523,-0.21633966643383531,-0.4285567077962712,0.4614841528779996,0.3423527301681089,-0.1060803154086297,0.13792892735229292,-0.27198294361316,0.36832934479881,0.08566112213530043,-0.49714806145526924,-0.3549329913144168,0.44293878122831476,-0.3608184376237673,-0.21944030067758558,0.24493797341062584,0.1560089967331144,0.13283624984008635,-0.48155844958566885,0.16694948330553938,0.174732099722694,-0.013502537601292719,0.19350154922737978,0.03580710114925121,0.3960842588068001,-0.048342115460583826,-0.28401158434645846,-0.3247413246604245,0.3595677993232274,0.09356066581880298,-0.0147879151652384,0.12735037145114808,-0.3384102276081255,-0.3176804769133878,-0.30213522481322785,-0.2566642636512443,0.29626410261276787,-0.1834511980048614,0.44118387345669763,-0.0021528444969695824,-0.26186338506998674,-0.05062237098034065,-0.4748370846894643,0.07912266276365187,0.14254082317662609,-0.4827179777946562,-0.054234509291187116,-0.4775419791051623,-0.1015896603390658,-0.3479445409405464,-0.1962970466668756,-0.12585069681161548,-0.1790368916315019,0.3108732889058777,-0.4458428428180796,0.08006229285558443,-0.3287819184846,-0.1371010736368129,0.08629974098711915,-0.4382209253887513,0.5267739558746304,-0.08307733618755969,0.1783676322599482,-0.4655364967560023,-0.3390069892570314,0.028904045129783562,-0.2995406437091876,0.39607009193722365,-0.25832231783499693,0.3181451951324276,0.4281533288437872,0.20285035188132577,0.20310151357251982,0.0016525385731582798,0.13997532785765898,0.3911243987840889,0.17002531314617914,-0.10197641062083947,0.3978474020649864,0.4205673713278378,0.14256359659141032,0.4150677865836321,0.14201982605458358,-0.3715294769248103,0.15999211423484852,0.41958901350596467,-0.434426679470237,0.4213628582378383,0.417027720320671,-0.12777339495185155,-0.4270831969134274,0.16888427223746663,-0.20692807619317963,0.07865921566839297,0.0658646610313051,-0.028658296305106877,-0.49859353672669315,-0.05749852554049835,-0.2759272131275405,0.1299901523133445,0.34599141166662717,-0.1247687155403494,0.44998922024081156,-0.31189057976020057,-0.20159358317504686,0.49897270291639206,-0.11571160210382037,-0.1250360946520776,0.16694318731915975,-0.33524888914363415,0.3357652731766315,0.3068249719713631,0.025555980416766058,0.4579932615299894,-0.01664317130731609,-0.20809754086642254,0.11148506773121929,-0.029705973443852646,0.45367804178778653,0.32180414177206235,-0.10826831433857348,-0.06503541146783828,-0.03254927695151021,0.1779400182446445,-0.1453230822559874,0.11150419642851944,0.09994347065706155,0.31969194592640565,-0.006168579241956129,0.16964829057034025,0.15442151220602107,0.3614116587775427,0.3464720216605981,0.37612120157853496,0.32540320242552123,0.09963013042829016,-0.34471396998954745,-0.3395569702867208,-0.12371092903626359,0.29267266382003265,0.00885486386973571,0.03555359431040264,0.30917040058162604,-0.3582015273279344,-0.04522583685222818,0.3465168764311483,0.4179841944151961,-0.16330230630806591,-0.3931633770313121,-0.3679104479343185,-0.5111915799805334,-0.36343499989069167,-0.04198384979934825,-0.5330017939638068,0.48543065768997024,0.03848922948735782,0.39075683924925875,0.4129546012792773,-0.041940532505779934,0.05569609413119134,-0.2625101403185236,-0.006947879316058518,-0.0006862602882723507,0.16663829641724562,-0.31842677107047374,0.2884494869857769,-0.3214920134011292,0.12338595127499513,-0.16084069899104764,-0.0740890265933217,0.005606109022796415,-0.18080668338107117,0.3427425794911807,-0.07247938204256442,-0.23761297839868606,-0.4641176255702537,0.0858459147557216,0.19849966235548494,-0.27356617548038714,-0.41338969920043317,0.03609733338623965,-0.3785719281121449,-0.2221401575724629,-0.3649346412544417,0.15482599572513078,0.09721673519469332,-0.44735075090776366,-0.302582743057759,-0.25709537533324733,0.08230818153488381,-0.21921454072389343,0.15397470271411282,-0.4413641821532499,-0.25314205164272263,0.5122414958950549,0.12373079434401442,-0.41773581536258075,-0.3267640910127923,0.13887050349558636,0.4857838027453088,0.4542022148704553,0.31272076470603316,-0.39081129228291844,-0.17622485609004848,0.45236104265838745,0.043369998698810974,-0.5162143516267466,0.2769178590172982,-0.07881455601558514,0.17081112646874982,-0.026982669127899563,0.19943121561481056,-0.29062947308984394,0.06215831462938508,-0.27086024159368927,0.48553826064496447,-0.12426471711024978,0.39091692195513855,-0.39383339959257063,-0.17868415566649382,0.12711810615839744,0.3907413940471121,0.025494515452673727,0.46567179854048246,-0.4679701671741256,-0.07794201388272952,0.13150983750125494,0.13263900021021244,0.026374424672059346,0.02342146075436141,0.2831998615409608,0.15234713145738701,-0.28524293743930207,0.16808141083852346,-0.06085103373718755,0.09086657131588832,-0.5242793456579947,-0.34955248269142153,0.08810182333792345,0.1465147102248267,-0.25186442708661166,0.2554738109308766,-0.3000411752732728,0.21017748331174602,0.06369206900610634,-0.20357147726188035,0.42238412262917857,-0.23713043063534175,-0.5061142965979971,0.44486792641204076,0.3717242528444995,-0.2853990290232599,-0.22013695192569446,0.1758805898645063,-0.11918588252761882,0.3761618257413194,-0.05367830295494918,0.2627340461205758,0.45929217371053294,-0.3189327473796051,0.17156350897977368,0.4533843528554006,-0.4760391305279408,-0.18964518998088584,0.03546069539928292,-0.24016079246388747,-0.21995202049247903,-0.434502701795695,0.2106883744759268,-0.04766263803121653,0.4115943806363419,0.3951586741473094,0.4401412228604509,0.26647799732150884,-0.4526190089477353,-0.03086305731527228,-0.14843793693388857,0.29160028272301897,0.05206298779761517,-0.15327982310660393,-0.426514960537842,-0.047432993592790344,-0.20921074964471828,-0.15178525828758574,0.5052375161303921,0.062384268914275516,0.30948947606396315,0.48037079381528436,0.09140125359644029,0.21372221935666816,0.08921190099896406,-0.2374845264429604,-0.10705798682932262,-0.2642551284060754,0.25180249091834245,-0.3704068295850406,0.22879013812340931,0.19816292539472524,0.10107446788063418,-0.2584878294654515,-0.2819981232035799,0.35793156840603974,0.03440673017915324,-0.02999247317498073,-0.200169544103064,-0.07062196792800315,-0.12481443765385018,0.3202742332322736,0.3660603565812933,-0.45126063610757544,-0.3215580902385553,-0.044274609252975494,-0.04085810457505157,-0.25304398001408557,-0.19739593902270036,-0.03342959636451084,0.4449230220397226,-0.20373468644094225,-0.0011824062008084471,-0.10132486351614224,0.36648701010308404,0.16819043819239934,-0.4861170399923362,-0.33209118707178925,-0.004143085919321221,-0.41030571270813176,0.08304143126389421,0.2013640746572732,-0.1947028138275974,-0.20687194201922607,-0.0654853619278767,0.0905579144206455,0.4752547152114937,0.28255081255471903,-0.2669915028991454,0.26075999126241367,-0.059652941741408255,-0.3216602854379334,0.3452941796831939,0.4371352812482467,0.33631680569849165,0.15073050339674718,0.042418267327855294,0.1245419090571864,-0.4213511635599649,-0.3210087141519828,0.19914109747024364,0.3060180344247526,-0.24909581381596058,0.31078048368260275,-0.13684983211715632,0.2021878791176564,0.36885160632880054,-0.019155775492861515,-0.06288065041407465,-0.3659842103418595,-0.4786481156834026,-0.0608019806757699,0.07306676291213042,0.032373455147756004,0.19740861713697375,-0.13716072496947673,-0.06397744362045509,-0.18666847235633158,-0.2246879201780206,0.12800423264792024,-0.19975278404487395,-0.4091193744585022,0.4451149833858655,-0.21843217141452648,0.2992939645441306,-0.27733841794681047,0.20641755411176346,-0.18453633257454471,0.09960005532379912,-0.055843295522117406,-0.06927818359396327,0.2685367997748216,-0.2964485952467238,-0.3561356498820107,0.49370025564329856,0.4222719540687323,0.13471117839691304,-0.4580424694880584,-0.1259926611966668,-0.2910170998405468,-0.15203496428870153,0.1856793361031774,0.48790721133064585,-0.28922678896365345,-0.35197597542300474,0.08393257875056204,-0.4096956742162041,-0.4024295423782337,-0.2467625558097477,-0.4569114697997657,0.16834034392660857,0.1827805953193787,-0.5278327412441238,-0.14235247815472246,-0.25908061338147037,0.256503970010386,-0.36189381946405275,-0.2633491203253553,0.19631150813977327,-0.3408994448177577,0.04356317567975656,0.4687520065719951,-0.067333156296072,-0.2171662677969013,0.47725589042363953,-0.4554052960062715,0.19580855005993308,-0.3875827898715056,0.0781633457728267,-0.26653129857037317,0.032221843308126406,0.10913736642043065,0.4451946730190364,0.4609956065017989,-0.49166012415025256,0.2703865860767902,-0.15360368923647882,-0.27983047985129256,0.009434458992342663,0.015864424216625247,-0.10578275031142849,0.18535090239302143,-0.3270408841927124,0.4394191041154381,0.26696067494685777,-0.013847496953567967,-0.07976490405157703,0.4616773208105014,0.409496701976196,-0.05864536280195519,0.3270892457199353,-0.42303555304605545,-0.20411778175720752,-0.003444591207976091,-0.22829581009137578,0.19014890267538856,-0.2362157721078872,-0.21247663504877498,0.09231781672459628,0.15080462739219003,-0.12452735217632607,0.013946163386842797,0.41544234037931344,-0.2572889674259454,0.18000227903555108,-0.26146033049421286,-0.46316640171784573,0.4310269128986019,0.35607665332840344,0.31301711455917,-0.042677688706741504,0.12870979709859337,0.38676221230746105,0.00022292482158410077,-0.03682663526395839,0.2007823446068993,-0.4824082065403935,0.2790932627562362,0.3410272622850562,0.08729376212209483,0.13219928319309396,-0.4745143512204454,-0.20326740131293133,0.012065504335561548,-0.24689414189467568,-0.21592847807078006,0.48718073318594785,-0.24521704102349215,0.48270680882727357,0.42158200679546376,0.01921707229159697,0.45621092394390494,-0.035005375085074425,-0.3979702163213895,-0.3761611104376772,0.12232832380600753,-0.4622356601115102,0.3174300694672864,-0.19449382600327955,-0.22589197275575817,0.10363980485727704,0.2079271161578771,0.055548244795138084,0.4477695446883344,0.01777712344237014,0.20614999326676958,0.13658141520703967,-0.4256951657026997,-0.18946790029042226,0.010613025408208502,-0.13502007240687128,0.2721693857740884,-0.10240024242446763,0.3398734867460706,0.4499846049071763,0.024079297574298275,-0.35128940155235766,-0.20487300620476612,0.36057072500141396,-0.4026525739925731,0.30200551102683487,0.4580214341315237,0.002093839936842395,0.11872661261304597,-0.12638446949921345,0.4242984524220647,0.008224956930320729,-0.1694307966076822,0.048364091173505645,0.46097245153918276,0.17483144913116064,-0.11132454137679873,-0.47125101486075,-0.2841623930508081,-0.27429232957433064,0.008811177028883899,-0.4200730580460599,0.21318439532914246,-0.37900540399687,-0.10365039853865067,0.13770391829600215,-0.5216847257277245,0.010415314629308623,-0.1634344896158556,-0.4111536549256617,0.09688983022911389,-0.44055714409415,-0.5052225041773741,0.5006489987155288,0.0009275672086326876,0.37265054934664266,0.37950921401409027,-0.1495937187448409,-0.033807448395666365,0.16463645854093148,-0.322937337789602,-0.33597729355879596,-0.4731757369647198,-0.3535622809936989,0.17627105540809396,0.001010339413654623,0.019086714985144655,0.132888031092113,0.4738127451846348,0.15426067359313977,0.16864247517944492,-0.3436949952803214,-0.4304786528811856,-0.28473060549886503,-0.27381683970406634,-0.14592769482380719,0.05498448988054244,-0.1313258209388391,0.20771986639152953,0.4417716329483732,0.054416774646853516,-0.3911400956991981,0.1466170656502569,-0.23883241117808027,0.20959166745292054,-0.35975272232017774,0.33137162039152307,0.18659642835657742,0.12132233414014418,-0.2699661429956924,0.05990966768403229,-0.03304000272803587,-0.11462157456886078,-0.0958930314176618,0.18050073191642418,-0.48140886404374106,-0.16361725257862858,-0.07439039849835782,-0.061705906672633364,-0.4142579272117716,0.33404016858853813,0.22524401446268327,-0.04594866882126143,-0.09223698589864808,-0.1321308838496301,0.09386302439966679,0.042878949872053276,-0.4338525379596675,0.1527716260061713,0.048597903258647275,0.11607581612332947,-0.01927757712378191,0.34652243676829986,0.2597970663780061,0.12503296763355679,-0.2812328346581954,-0.04555460448472768,-0.2965027036664607,-0.25465308375852674,0.4346457542148014,0.05998473375055146,0.11569021013479369,-0.2591366949948276,-0.018827427408500297,0.33091061674023026,0.02656114988996644,-0.19509891319420664,0.4667394871618688,0.18432619847533568,0.2107566450602308,-0.04930840703547191,-0.20790917015564145,0.430010662820552,-0.4818030991280167,-0.08489681008508539,0.42304984346341845,0.16259897966149642,-0.40968798864283296,0.17587913165130237,-0.48598389771822,0.2597758794185825,-0.25040708958435615,0.23016700620962532,-0.44492596505210535,-0.050612352084262034,0.20745784119278285,-0.416189659138951,-0.23232506230759636,-0.31412019868572516,-0.48951744833603383,0.2063082762746472,0.311577870676782,-0.11385305499518239,-0.25668922979175957,0.19308521357925912,-0.2086377115441268,0.2402209871430583,-0.03123783248563811,0.23805221350697622,0.23914995429549282,-0.20103189307344674,0.43553325911122504,0.2232937506577816,-0.16204060946957624,0.48886083717353473,0.16570764813215977,-0.26975258987607365,-0.3591946460408614,-0.1776014362003927,-0.18212004915921437,0.3885608137132971,-0.08106622587714386,0.010563030349516148,0.25023653322854045,-0.4934798566360149,-0.3712455015148116,-0.4152080658712717,0.1367537310792994,0.4848337856358831,0.2862348180497549,0.010883306999780906,-0.15934522649682403,0.44480742590481803,0.3032708783064174,-0.2811323916930222,0.020867490454438333,-0.4839617353144889,-0.26041274769123074,-0.11047207948414207,0.4441298372927811,-0.1307393288561791,-0.3861883850030125,0.46062265209842906,-0.4707628966489665,0.38324784687516866,0.1938844560482909,0.22461175344568166,-0.44819648051462857,0.01026368036562805,0.299937689547264,0.496519577935689,-0.48203767201891135,0.08933630730749116,0.24418508881264986,0.1951630560399597,0.49820196129714456,-0.2873538608142756,-0.1373947671117559,0.10285817144937281,-0.13952735728966736,-0.3862168379761075,0.3747437139986589,-0.3740355833821316,0.030060796847164277,0.062224606175909754,-0.0026852993010690294,-0.31226783925575685,0.30134232424281193,0.49355572676837994,0.5092422401790124,-0.10098720269053355,0.2252234758303226,-0.4215472836287969,-0.22076091053477293,0.29348466070100926,0.5054134033904438,0.06451321734120885,-0.13625629151398216,-0.4178232739654732,-0.2749447161778371,-0.4616370750226048,0.3843594621894238,0.2622922703721025,0.2457666550948323,0.05993472931177646,0.22303031170692744,0.23525093158407961,-0.10625736499303495,-0.15910504131012915,0.04495026013802095,0.023402011695015768,0.3331087953674863,-0.40257723188021066,-0.23720263233694527,0.2694575918467701,0.09714573296442465,0.01801348661644737,0.3140209063460033,0.13340030134838957,0.379833761189259,0.20641153688739367,-0.27159290893861604,-0.10204806345841627,0.17671857784174294,0.4882136637170908,-0.46603394065831316,-0.05777390394667794,-0.23141096374536788,0.13361998516434692,-0.4666995360765791,0.45324460287198653,-0.07874006132427147,-0.3402834624893276,-0.007057083190206814],[-0.1481795351211359,0.35496056265940346,0.16358206556939314,0.24130179857344758,-0.3423915587188211,0.04134179967373086,0.46976839227630585,0.0802492179035339,-0.42962198675684893,0.3441480855408028,0.3459937062072831,-0.17437454178343859,-0.0816819723998381,-0.3275270686034266,0.24479460653738716,0.0027974949953291084,0.31909417411218355,0.353690455494851,-0.10035843591936877,-0.1139338203979956,-0.28009489373880236,-0.1493552352785128,0.034792591128728345,-0.0644583993219856,-0.03801017348947355,0.28262761080802146,-0.4117791950106162,0.49437835024566357,-0.1812577982596122,-0.2707809986938179,0.3722537857649866,-0.31731084189025993,-0.11181460681247124,0.3684723709371182,0.31761713749182746,0.45811846373156867,-0.05533202175807824,0.211311748883853,0.33364539603053683,0.48594978108084297,0.3878483715036048,0.17165786218231213,0.30142552922947613,0.4359603794095285,-0.12613954083663062,0.32482424249258385,-0.030327185631342686,-0.2232442259854382,-0.036795477345123825,0.077380943121792,-0.37139582475975397,-0.11414066752036844,-0.13988781989696975,-0.26607772692801035,-0.3485113638068713,0.1751934587757633,0.009913164803684538,0.291534784209047,-0.30422496325334025,-0.1623067142496557,0.041170160771520026,-0.26123338614757746,0.47008489135792564,-0.00531452081289598,0.14702356855518622,-0.4516085891899439,-0.38625213642821055,0.322002349017156,0.21057453390791517,0.43170452447687635,0.3484665430744336,-0.3119693629757844,-0.36888203338743375,0.45915490256963803,-0.15960933940683716,-0.17438740266998556,-0.4789784528960808,-0.03449235681716233,-0.04481709625250512,0.04936942865857537,-0.43595118866014226,0.09537816433589397,-0.3538387260268405,-0.06215287892355348,-0.07009499474605096,-0.19461097754080692,0.04844951223438798,0.09622819655986081,-0.2018416641106773,0.3126848503691793,0.19955745845217582,-0.4743022732527521,-0.43897807046536874,-0.011290719891063544,-0.34959716520489253,-0.37196612055664824,-0.021278352137744806,-0.28446595877649705,0.32208496263945724,-0.15980752674319018,0.30297161049253546,0.3509967251923395,0.43087463914697627,-0.4126412851836952,0.1223470114826634,-0.4853877577666228,0.48540781488609547,0.4920912727531672,-0.2806210195418668,-0.05843654006830705,-0.3303429097772869,-0.256676371689035,-0.44741499144717367,0.4123774337692445,0.34994554504758835,-0.28061168904424477,-0.3689107198881954,-0.08555276775095273,0.23954994833415028,-0.1460427687440783,-0.3516110253136823,-0.15700310254080052,-0.3446088996494642,0.19377988112848574,-0.016599663608345777,0.3853188154897014,-0.19549846290221418,0.4244547630377162,-0.5020608866716665,-0.4085156045796464,-0.16013747065623626,0.021457480260964105,-0.4243688212108983,-0.02689585205529894,-0.48196984466319187,0.4621809689300899,-0.17478529547214441,-0.40202569199008825,0.3391222236565298,-0.09902356189968464,0.14270886203512156,-0.1714665319262351,-0.2188993454606689,-0.39804649163957473,0.27401101085996393,0.3688527239813555,-0.26281159387424446,-0.3907189714245317,0.09728562077039433,0.3544138872096541,-0.4005789482212874,-0.1795725691432191,0.485982797783265,-0.4749952736508035,0.16880062187144948,-0.16876332339918185,-0.5129153504429109,-0.36719554814408956,0.4324262749328045,0.40631535684240766,-0.28285738952449685,-0.44453746338538974,0.39704364188607977,-0.4136894697781607,-0.2422486515646156,0.28186471794148443,0.16658274999140235,-0.48699621554168915,0.09779545832190717,-0.40606802671703446,-0.14638752356703805,-0.015940320523298267,0.28942705182984874,0.2901743072716759,0.2853022001153464,-0.47444008289813966,0.1100992998005028,-0.03214435318522607,0.20897828297558244,-0.2631554413701074,0.16675454837673387,0.06281966637140421,-0.431484855846979,-0.05797256072552175,-0.07671265693561759,-0.19281123933960173,0.021505683441432156,0.19861112590549698,0.3660751649707016,0.09636509725459408,0.2847577386545445,0.03221353609525607,0.47552799836640575,0.011938195629079502,0.48401197610175206,-0.21067748502402717,0.4719262991711557,0.3245105558022865,-0.04242587746289603,0.26808353134951846,-0.427576598495636,0.34855662917845354,0.08554076666307751,0.0052266700141445094,0.29079572581743035,0.29512196248492056,-0.43114393978449095,-0.35537447834083263,-0.02908973834857212,0.09066747068367365,0.29651256710458074,-0.28054768411961617,-0.3291290031958391,-0.25329405042702235,0.12115054755452644,-0.3327766530087623,-0.35092011902751225,-0.0992974362526976,0.0016342174219520747,0.29033935499561275,0.2975091755039332,0.16164673984826045,0.1893487729072284,0.07665404088125684,0.2809184647179761,-0.35295182469972175,-0.02444758390614136,-0.12209992784106803,0.4165273790374262,-0.1674094079121494,0.07963666555693433,-0.13079365693908787,0.12900216907435944,0.26618603073958297,-0.3298531127589342,0.11375492140243285,0.3920218210317183,-0.213755982295303,0.2135084874612083,-0.47001308588627727,0.16496442347527482,-0.05108206442177815,-0.020093985494258407,-0.3840935841635512,-0.41065883986036683,-0.28878096059451536,0.2155826358872144,0.41538656076209024,0.05215635864164888,-0.24971453233312485,-0.2900763360203129,0.08219142767671345,0.039781720474480385,-0.04545567942367885,0.06515417532328029,0.05239713433729761,0.4509247506632406,0.3743391082122117,0.02098490433173458,0.3025145150355176,-0.3890671516485388,0.11468659459468891,-0.4809233155335761,0.08918709688157966,0.23531651821911917,0.036168185500863446,-0.0761112099175723,0.2580769489665206,-0.5063349154398926,0.4779300635042721,-0.05068998780863275,0.042305146686484794,-0.20765590317796706,-0.1854427636879098,0.3699343867436946,0.06382551700196323,-0.4231506608934935,0.3191882800444465,0.08027436646960483,0.03633905839105063,-0.4198321484716846,-0.07202632451188971,0.2811688524668529,-0.47826156188976054,0.013123031415539636,0.08362734662071027,-0.22000578223620149,0.1411468828213241,-0.3173884786116729,-0.048627178672955275,-0.11125359155206048,-0.3979095367938742,-0.40387272958580406,-0.41887765286703166,0.1644784220267711,0.47811059593570626,0.27162541066341583,0.1478902846473814,0.18768190157221126,-0.4325034237009382,0.19752093179982172,0.2951372834316384,0.41321513913085706,0.14640002854703743,-0.4496880838523697,-0.4442560623040473,-0.46183587362599937,-0.19026851376606627,0.0013069461365913105,-0.2553736995803317,-0.06308766701643363,0.32276583809187454,-0.2685859381445213,-0.18044922155170043,0.3242183129399197,-0.20873278232387332,0.10578570813188042,-0.26775322032924864,-0.10244062300922467,-0.3749758926384398,0.42024429580544925,0.04957921463754756,0.544100409290191,0.45762451030804097,0.20791303144925782,-0.1466262759909424,-0.1517790503245551,0.41671706105857786,0.3260797631518746,0.2991047327133689,0.4225361309966248,-0.46724512019687076,0.29739808388417166,0.3833312156895152,-0.14265869366802697,-0.4041301889831039,-0.43151922984790625,0.10463757000812826,-0.3783126333526836,-0.11004903329630256,-0.10783602743522974,-0.22619269091560584,0.08033105979691578,-0.05236473870213056,0.060402036023422694,0.2995144745255616,-0.006898894633511781,0.4599280923244039,0.09310829221735432,0.13123798975794598,0.4568784998923796,0.3932268530368134,0.11263446707609542,-0.32327796384895996,0.14097055980629988,-0.23457412209796483,-0.27365789789980804,-0.4158477579951338,-0.37681983589599555,0.003901550371475797,-0.041560629651173506,0.0013261553482548122,0.2428593325876191,0.39363900602812807,0.3358664280795238,0.10570143021521052,0.3291871252309763,-0.3163464449938009,0.016959840133812628,-0.3258138172717934,0.07998795568998424,-0.4629252634983993,0.0682862097346987,0.03775761290435442,0.05993705952753615,0.2162364412738388,-0.5018910865153201,-0.012710217054055188,0.2619092482125166,-0.10497856625279356,0.001654241478580466,0.14251798222056736,-0.0510321797607086,-0.06658105471487484,-0.1899573289772278,0.009252481176683319,-0.1942704165823863,-0.433901299948803,-0.4953801489538778,-0.17823022404783012,-0.40717572798738094,-0.23436039414651155,0.012880828637340969,-0.3004497189785751,0.12709615119717857,0.3807389467745657,0.4861874887931193,-0.20897378806868686,-0.40519609239912047,-0.3857282163775778,0.3096823162694893,-0.1693971007351966,-0.2993101187782251,-0.4942306010541262,0.16276737317005818,-0.2966669760137768,0.3120816104348943,0.10233495698124172,-0.21269307848116087,-0.5278298103052808,0.0797229236224406,0.3702530308569916,-0.017478841657194547,0.47838711872507145,0.14553447292763658,-0.1843837220851114,-0.10311962239542492,-0.4131559847750521,-0.027917757358529142,0.29581386025676637,-0.2575507274513933,-0.2801571282249764,-0.0763896278218362,-0.3603337526381596,0.24665173572982774,0.3994147158003072,0.27069030061087435,-0.4225454044697398,-0.012673337488797834,0.18755650101752128,0.029960744429802115,0.055767668870715305,-0.48750061516407694,0.0637504355946336,0.20736554958849182,-0.01593909125532704,0.29698130678152745,0.10443435331825417,-0.43748097467781843,0.10820861545387919,0.18291725133910577,-0.2821691945963537,0.45414980384671966,0.061712922396615,0.4226662378872494,-0.19176077069119232,-0.09843654725520769,0.12676747002112168,-0.3148756272749875,0.4033454340675043,0.08269641246930685,-0.2937048903672894,0.07861137862900461,-0.49720804911147154,0.02546512158301219,0.33619805516492823,-0.254670952433032,-0.4022871410799643,-0.023913908288089123,0.16306153577878565,-0.5077332394134634,-0.0018129991016124763,0.3971595786611352,-0.06226898305072325,-0.13624161971123122,0.34114557838682263,0.2548033701304751,-0.28461752495865517,0.2861044614167642,0.2592430104879872,0.07690182504328569,-0.24463727751409253,0.20725569120201087,0.19602682584609118,0.09459286324545438,0.3933364624475648,-0.3561750798647265,0.34094902565730556,-0.0504695198874158,-0.006509594735804509,0.42539647236224065,0.30001612161728985,-0.3022975418701046,0.3731799588746144,-0.2823595126386512,-0.3530849361191735,-0.02671210687756997,0.3202176399684272,0.40138728663508233,-0.5321601331261108,-0.4837962594318452,-0.01184930159957102,-0.44896844586217177,0.21993261883919962,0.20329789921534028,-0.03804702443684951,0.16328911392259055,0.23452555634061287,-0.4147795892507936,-0.1004472632666669,0.10357044926867397,-0.019519445369814516,-0.2592115077026988,0.27695075142189746,0.4761048043050631,-0.007390317194454502,-0.4521534932319098,0.21300496210488334,-0.22412411462553555,0.33243561761712176,-0.19435110309126108,0.23965121936939035,0.19710517418960222,-0.23642900624791408,0.06535752635435524,-0.2869480990003531,-0.07019437968818383,0.10989139678215055,0.3112865102193719,-0.32633563238468805,0.215391820266565,-0.2285394044859522,-0.010581398360757138,-0.1693641014349363,-0.12169968920191504,0.14590636327730241,0.12368801437406945,-0.33883338804016916,0.08689770072790105,0.3337566442041926,-0.14029052866658467,-0.02489493952397871,-0.3237817526536315,-0.18824813374271138,-0.2100609223893032,0.3291306167000733,-0.46747219361945674,-0.14520838198430852,0.305054445279976,0.08598209455038007,0.31372940599409577,0.20861742911473197,0.4316529797285029,-0.3300553196409752,0.376942528648511,0.38225730036623035,-0.44714280103784887,0.01926122867746429,0.11711417008844136,-0.46995759531030834,-0.5169887099634904,0.07536337273004372,0.3140979400222009,-0.3404332087717963,-0.34955301392872196,-0.37752667147924907,-0.3320395306207321,0.4296204697492842,0.3707724434547276,0.3790711099340159,0.07704990377178778,-0.47712100836567806,-0.02478123617388924,0.4982577740198313,0.08050384846635157,0.06569259844205816,-0.02522545253813552,0.3252100015260123,0.13906088809285314,0.34569597504774113,-0.020780315708331526,0.3643275297963628,-0.09090578424551582,-0.06029168383026404,-0.4665025550216527,0.2610139039091315,-0.45489045293881064,-0.47478948449270664,0.2988590683168499,0.00809195640592662,0.10994540214890237,-0.28432689859353,0.4041090313729241,-0.41831174985348535,-0.37731333493697516,0.4215472110506006,0.24661806378076426,0.39873831148326944,-0.27663707152131645,0.06244972350587785,-0.4056983213686751,0.4440061447308353,0.44086166468779336,0.06997158141153494,0.1685999385636273,0.11010231530135735,-0.20764087553293314,-0.3739545670496938,0.11989753922939546,0.21779449654095887,0.06445113486275192,-0.5120274388871914,0.3292515673581599,-0.14850495527964117,0.44815197412920543,0.08186013747017862,0.4736224391289845,0.35976882487052536,0.15808056069247153,-0.365322471625656,0.36556591371712677,0.31262846674174605,0.2876840665123898,-0.2775174280169791,-0.18261326928965868,-0.0568447390352107,-0.06911483857673284,-0.0738050277379716,-0.3908809299872151,0.25961843681996316,-0.303775345258374,0.09604499807050144,-0.3842514569611864,0.2631859391788318,-0.38957744229262914,0.10155115415812689,0.22249191849887875,0.21472237442083558,0.12146311589991196,0.42928451865524303,-0.043123137634503636,-0.094945892431,-0.0824599288927376,-0.21223615529084602,-0.45839091956294603,-0.02417812845157347,0.4595983665231441,-0.45354754793020635,-0.29882741476576213,-0.4304345143150722,-0.39601299600263157,-0.4030321763326312,0.09509702394336425,-0.00972282919466716,0.3263267185678038,-0.2194017227350539,-0.49492456494665127,0.0847373384124947,-0.480050996265916,0.38926124161909187,-0.11862767052946847,0.3451453254788146,0.13822031788793113,-0.3993030755457551,-0.0289064932927067,-0.11220466265875158,0.4176155374990268,-0.2178585219539797,0.36938049769179565,0.15058123281079575,0.07455767079510557,0.0896318379968645,-0.1264214485778351,-0.44205053719103926,-0.2517677835619886,-0.47218932289413856,-0.3785445414841262,0.3437443911542056,0.21755460471787455,-0.07845302518692186,0.08086167067226056,0.16684466676218968,0.21109064035885394,-0.40700900057858935,0.11003040756272209,0.1502528626606702,0.12290568871895155,0.30328077165254114,0.1749699908642427,-0.45229746980706514,-0.17295612509127886,0.37524119959134145,0.43563542223400453,0.33279264518715007,-0.43817230597400636,0.33709498717666164,-0.07341346521869273,-0.018640354512849847,0.42235748588630073,-0.4594333850557509,-0.3898050839341448,-0.1906685114464519,-0.2746778414991606,0.24848261636795224,0.1828818112963315,0.42990542851491453,0.19321341126579272,-0.4332517620762813,-0.33624978995701027,-0.021804644383223604,-0.45210596522935553,-0.3076558554757536,-0.36998164707658443,-0.14015066052493028,-0.22766872772502875,0.3758909347514595,0.09188027441684007,0.38704913564923493,-0.18729499786236847,-0.020022105085616197,-0.034865685131209204,0.30311789992685834,0.2539736301246588,-0.28040548391395176,0.3528538188257338,-0.13959154762626663,0.17923411059680522,0.09383293861545182,-0.3480818232845814,0.023225231508457195,0.3031570480193757,0.028559905361320716,-0.3629194687025766,-0.05823922492398946,0.48090188342424356,0.23436067321818838,-0.10765196634361551,-0.1544327354680406,0.49229443541582874,0.12825512860336952,0.463595204368328,0.1295838124674875,0.4657711786587312,-0.46490817437700954,-0.06487734479278938,-0.274479786460797,0.23513441221191694,0.4720908464196347,0.04560194145442806,-0.08060098789955332,0.24804845390966684,-0.4708999633082679,-0.008397738482977458,-0.1818046914898307,0.13056761553286286,-0.2303746938304103,0.37892778419297496,-0.44487924851047583,0.24045691127777566,0.07023882819362118,0.3662809418692084,0.1964195855539506,-0.026512157267905706,-0.020905353425879403,0.05719438614852779,0.2664185966882633,0.38442274230918505,-0.017223281366647525,0.3858606505678108,0.05062846394055032,0.4513939351104992,0.4959428800849959,0.2690351390169474,0.47387935396799696,0.17832631681176514,-0.001683017736303168,0.21458939641104635,0.11983566922780987,0.12152725440427266,-0.345240274546234,-0.2820392240661932,0.25299562588232877,-0.4235441412711402,0.12482486428274601,-0.3822675333183513,0.43883721185730645,0.1226060408786784,0.00966255369747719,-0.05558555859128522,0.4652763715781263,0.1411533493860211,0.36776793602572666,-0.18900025932922837,0.4407764058001957],[-0.32443516632098346,0.07846907306127715,0.3480422118124309,0.16256531008340547,0.30648541486986325,-0.4210780940780452,-0.1595484974008856,-0.39733816980419934,0.3756901181324215,0.03435376406783153,-0.3060998418678227,-0.14345059366202517,0.37283201350448403,-0.2568131922711201,-0.4308983287940735,-0.4694166005057565,0.23057510261155612,0.36316315610097694,0.21224002888070914,0.48328425319022794,-0.0786056704777276,0.33346970078915583,0.3456827943214966,0.14940764552621388,-0.06757680908780839,0.287687898806281,0.35265153554957807,0.16510422085314835,-0.22198037083366562,-0.2850674419262418,-0.18931459120732397,-0.40603590265413114,-0.43944611920741905,0.28746214560883504,0.27725359633671454,0.3422553174945706,0.03687771887022185,-0.17733222457080777,0.3719834140497318,0.14263312430452935,0.23802347510373795,-0.327224604139943,-0.35568714587601225,0.4858333629893693,-0.4042505381571326,0.022727395086285213,0.003650724541881153,-0.19081600840338844,0.13578454679070104,-0.40442505461090117,-0.31498370082069616,-0.40808856596895615,-0.10029841653611515,0.21711437277077095,-0.18884277529468885,0.2352577304781578,-0.1490710296972375,0.11292266903138426,0.18424327181756817,0.3721873525539854,0.10203082117897555,0.22916724500050475,-0.40540856127067243,0.09822316950743845,0.3162415469788393,0.317029476537784,0.4518825252695267,0.2788396901911317,0.44063553292275787,-0.28229516356152234,-0.3838253147980166,0.08023513055596279,-0.22530146032371007,0.1613231683057562,0.1263967068980954,0.20000110629322793,0.41034169884351723,-0.3501094575353179,-0.2884254300423733,0.17924533703124743,0.3813061531155549,-0.45765520914737556,0.4454846749200556,0.24369433110637106,0.19860864767833353,0.10180163217337257,0.4340698787683086,0.02401515311279301,-0.263029846829724,-0.09665251502359602,-0.03730722992663906,-0.1557931282165716,-0.09270870361150935,0.06710491725191653,-0.4543002192606725,-0.35980430524874657,-0.38969763455035983,0.025301235384381643,-0.10220042486525435,-0.4162818962813864,0.430568519313609,-0.3469277486632046,-0.3530546361678154,0.31816683379081734,0.027284948300872136,0.1851849710206754,-0.12751966421840122,-0.06263825920396311,-0.27759907511438336,-0.31722840701889377,0.0783844626916766,-0.46447352880488313,-0.14484284561550975,0.4752817035277266,-0.2716842185305588,-0.41683986582855875,-0.44846790680779886,0.06300690619325423,0.003628529233335883,0.05508055701914025,0.3023089046011902,0.19052326047931037,-0.39267518076802294,0.21162591307356998,0.1810433892842368,0.3215287441698905,-0.26159825466638376,-0.5000043463859803,-0.4714172760006802,-0.20861804837818101,0.3469430122040775,-0.05361140721318892,-0.11894201367995245,0.0597937248985973,-0.18861106172514994,0.3086198907313118,-0.018236400665500124,-0.4910093795468869,0.18145660197962443,0.24682427422642061,0.384626291270767,-0.4774392611974358,0.07169569771433153,-0.11604786443616372,0.135052262068351,-0.09957081012708253,0.261489712355976,0.3287667227985512,0.09584773372672539,0.29019556855353235,-0.37416934416204767,-0.48058055239770237,-0.32771780916727294,0.07419504220180766,0.18579244757612323,0.4277985801339563,-0.23005437363159673,-0.10554047826796893,-0.40762509767553234,-0.12740868783161033,-0.34722835452005224,-0.23383342827749248,0.01649343009925024,-0.02985378368471265,0.06088616621805366,-0.17783272460885954,-0.09338010162307951,-0.19315198470403083,-0.16170401087382857,0.45734811495181416,0.18591496144471567,-0.2482363859960021,-0.20393327244411943,-0.4289320369254068,-0.4482898663083441,-0.3894119391545061,0.2759399155820934,-0.016660344615487124,-0.28042907918944976,-0.2083408303715821,0.20783518901195333,0.049470865311333496,-0.4774579757728582,0.12457316239633702,-0.20225515819773146,-0.46416575347266026,0.15018528713413815,0.40025230328351696,-0.012358292403742895,0.0711589792650854,-0.2855989257159828,0.08955974194231177,-0.0013783909237133998,-0.03550733599220827,0.23319312769444595,0.359976744262972,0.20482452824391517,-0.1572311053231353,-0.12621728091912734,-0.20408286310429488,0.4998187219716924,0.20531204204865078,-0.41610668443080245,-0.42818548352157954,-0.35724539244147546,0.3144761713981391,-0.020499530608132883,0.07622993969860178,0.5012387160678815,0.27158227939649365,-0.03779185019595216,-0.18596416972713556,0.029293105584938032,-0.08152142054632103,0.3690256011545669,0.02511804311599225,0.09743589296105559,0.0004440205812662748,0.4167351947479489,-0.1635736423957582,0.20247275283672242,-0.3434910569530634,-0.3016581394359046,-0.19418081147121033,-0.3736077544897318,-0.20770145449193064,-0.38591109190538747,0.29160962715746735,0.39048691287636295,-0.3294887885530037,0.2959435826021078,-0.2900315045095492,-0.12946572320548255,0.016348270654725654,-0.041263326551643525,-0.054965094819343814,-0.38915656146171135,0.3800134527599355,0.4047458703216697,-0.2760367343753138,-0.1844348452353506,0.49626985968748505,-0.2865082142714792,0.07321919164783752,0.4151763195732339,0.46001504043168556,0.3152411372832397,-0.0741056763493727,-0.3887572771898935,0.43365124652067794,-0.4192350199750853,0.43223619907332184,0.36406275532651033,0.4291609482201949,0.4637575375418556,0.40705473400562464,0.21162114554387365,0.12032469133902744,-0.06684352735803996,0.21290145777450759,-0.14812050101268773,0.13957313692384427,0.3534779158089771,-0.42683337474185395,0.2210857375284075,0.10813962806099958,0.33780240911010645,0.2506262549137191,0.16948100366869875,-0.20388652797581794,-0.2654053480771878,0.5159483069549892,-0.2744658694975002,0.16798570632407758,-0.3619894305193333,0.07055354412317554,0.32559192805911896,-0.051569398692003325,0.3867752067146531,-0.32714377055098054,0.0757593146150636,0.4382152996873713,-0.4122660922733152,-0.24379660231571568,-0.23643890532554968,0.30098734535484706,-0.09338009969479678,-0.12311761770198931,-0.3252923620309297,-0.11403681165712434,-0.4936583651438294,0.3041821785494047,-0.07520763994923091,-0.05933755656641149,0.30711147137028155,-0.009640130649227915,-0.4066651420178932,0.20279522416456575,0.5125112871147631,-0.24203784462045458,-0.3752354431176402,-0.22595052026649942,-0.16449012241455652,-0.33817243609570635,-0.13854715734054002,-0.27983301771254143,-0.26563984615849434,0.35811808464555545,0.003877496514953955,0.22022884399858902,-0.029700917930981424,-0.15579829750348623,-0.02071373441086049,-0.3504379445477542,0.22381212338019207,-0.024934303794861834,0.06409768581177885,0.35734422117013276,0.0028793648092585705,0.007133108350763706,0.11305313152804203,-0.04934749522338276,0.020467601242062806,-0.015757121754561933,0.45064881819096175,-0.34561941394505286,-0.12578674017733127,0.5123873940205195,-0.061823399236885304,0.4353374715299959,0.06169182148665643,0.4510047046355314,-0.006415862458085187,0.3840811779027582,-0.22099199529015393,0.4864478332681858,0.2933634426933529,0.4133189113781325,-0.46526455469831657,-0.3897668920434025,-0.36882384119056516,-0.2642238303648657,0.11313828558551402,0.21198290381726162,0.20699823271009166,0.18498632603347334,-0.16548163629038554,0.47939771399126824,0.06451612934499684,-0.3451266854575952,0.2805472075755959,0.1924715815322405,-0.36499141228995474,0.4705581070207749,0.21604499523617157,0.385147911674753,0.12810557636548436,0.11868886754098013,-0.2104083222961519,0.4374014716414131,0.04834873568859903,0.3814845528812023,0.32360437714850854,-0.23995649073088288,0.3926881648546019,-0.37507384143680716,-0.38126047133197893,0.020584742307132718,-0.40752522814787046,-0.2366232881744132,-0.09629886914607508,0.26594314249469225,-0.08629111545089449,0.3005932531376939,0.1261813294589774,0.2937479817343981,0.300443147028857,-0.14766019168433162,-0.19982244393335225,0.3042779195517822,-0.022711733384414602,-0.049521349861524594,0.0821993475229459,-0.11929385764171273,-0.0818488548809983,-0.4875484011936904,-0.2529048776839246,0.04300972514399269,-0.30910848339141145,0.34617483421535794,0.1685000730346811,0.030283789262545158,0.14341870026387604,0.3247735593513721,-0.00850474508579206,0.27125024144355514,0.4200193727165313,0.4571210858908237,-0.43704014076097325,0.40955847064208883,-0.36989059401968033,0.47755533098549047,0.10339127407468528,0.4445598561113246,-0.3645880701661792,0.1850283883932617,-0.5554958245525118,-0.20508906533674412,-0.4691515344684551,-0.11324716547034798,0.45879565161837543,-0.2109949284751006,0.44316106538259215,0.011481301574061662,0.5080463536201248,0.28489693836314123,-0.052577915063457464,-0.3261064416740513,0.27643492094516503,0.4900187986219666,-0.04848352689141433,0.35432703589852665,0.3351516109114741,-0.2166780420348432,0.03048846820168439,-0.3598580792391849,-0.18184628081336923,0.11152340094619437,-0.36279568161326436,-0.02643183497960247,-0.2948280872199392,-0.04913260649277644,-0.4459440750765609,0.052824964143621374,-0.08713005852132251,-0.08238308397198112,-0.21667276870514318,-0.08011060523134973,0.3451255152409635,-0.4780107721972711,0.44339688303044567,0.1584468235029223,-0.3529502139142295,-0.0146430395012439,-0.4727786888856093,0.46976691300191653,-0.2413043343767108,-0.2200126252784156,0.35801620088591624,0.025262277494940245,-0.32405053797642136,-0.41876547599282593,0.3972316579311054,0.3423449695640379,0.3814058996251626,-0.33423479184272215,-0.0001719022373190211,-0.2603018370408163,-0.17669681190209105,-0.2015232093786165,-0.5003946212955223,0.09981586537043849,0.1386393101039072,-0.24525431844459286,-0.2950253962149474,-0.08149435330623185,0.297560306125786,-0.17903860948916966,0.2574293565126122,-0.11052180660657249,0.0643689827107783,-0.11051549669305481,-0.34042058810654935,0.31173410902749005,0.23055200855911429,0.3686548553222749,-0.11720898856828632,0.3055406540077752,0.008478600642278842,-0.06561136973816835,-0.016591652338339664,0.20645536047003216,-0.2974534867838897,-0.42289592409023985,-0.021854920467170583,-0.0725411713817242,-0.13666850352735307,-0.33339416158368845,-0.19189900254995393,-0.47207671212585617,-0.3747668514120278,0.06465101279446527,-0.39534582628287473,-0.32821338654837945,-0.32130287556788695,0.3414232212980708,0.2287948461679895,0.24005045253224488,-0.0004359723621098901,0.20262514262739992,0.03825662630911828,-0.0678429568400489,-0.0719642649175849,-0.3272855375558834,0.35025887381760956,-0.03423800811205971,0.3007773434526592,-0.18390172131730073,0.06087115917717276,-0.0381441171069807,0.017883508119132252,0.4596190786428921,0.25622691591201696,-0.43484310895932593,-0.2695028751393132,-0.3037768011230708,0.16730740678978934,-0.021996488356964355,-0.08185169453748574,0.4845439927914297,-0.42241440561891325,-0.3707810226663241,0.12728358688003172,0.2531774739739594,-0.1444681037438884,0.24912158238358234,-0.40668476009961196,0.12644541280225643,0.037815051637610085,0.1845753765143392,-0.31348628973742504,-0.06122622852027577,-0.08573803961356918,-0.38269470965331165,-0.09745124553519605,-0.2697386901397905,-0.41955407014324014,-0.22772763067640764,0.07062247956916046,-0.2741295596241788,0.31374679854830445,0.2928737654837743,-0.4409448563949188,0.09481783575272523,0.41245282517106735,-0.36279218997351637,0.230545780122131,-0.4237656779499469,-0.3723157696811255,-0.19003068440497425,0.051941321335983004,0.21222940396776527,-0.01820050785448742,-0.2846271159625249,0.12369635487457202,0.1563949059280509,-0.16507662768115797,0.3826163371977928,-0.15953027575001327,0.01920573228103332,0.26131088623339105,0.17253291788338745,0.12310450817781711,-0.4013315291168344,0.38752814069280495,0.114787643117958,-0.213993642783464,-0.3881594546398072,-0.33754056946405664,0.5032971934156466,-0.4602119095454404,-0.46915309363766733,0.11201279574177908,0.2202847502293803,-0.34167370029214633,-0.41324370725161425,-0.33441472685561385,0.3034380534656963,-0.579659817886343,0.18422738092401994,-0.41667539417524807,0.4024374223577375,0.11709191851035647,0.25195071105357264,-0.06297795540149313,0.31542617246087234,-0.2893188677197844,0.2248732490357226,-0.15347853849865634,-0.49460668347720205,-0.015640121491896253,0.16774055292693088,0.020732588459391736,0.24241851452151844,0.01576415807783481,-0.291570102941386,0.2745508702837884,0.5301009293269494,0.07445296191673878,0.1466441651785956,-0.2763192383117221,0.24208465109326416,-0.03517345900275768,0.33220032994142684,-0.20077301264536923,-0.006315776019137322,-0.0038016257929433758,0.07279229180069473,0.36645379439985787,0.2231612218992254,-0.3065781597418563,-0.3716096385629223,0.4354146578677269,0.4040746851305327,0.45683899169025755,0.34797002687877887,-0.29723755373329763,-0.3642026371220368,-0.062416308845674624,0.4026436714225571,-0.08381888826985816,0.2747765086012929,0.22728461261225708,-0.3719213520274853,-0.15102403050750604,0.440605912092476,0.011077824013672702,-0.3567476896512345,0.47476907986771255,-0.09551185807234022,0.4421193373736889,-0.008777600358697117,0.20362912483225287,0.3710338077018093,0.28037841958001364,-0.2699557720459109,0.2432805055355902,-0.036566971700011316,0.17209152360166882,0.0033303409989858083,-0.20206008781345905,-0.4156120172839701,0.26704882495672055,0.458402063442211,0.403124827077608,0.27264988711565447,-0.4624651880193611,0.2100870252005269,-0.3701127639918617,0.10424241617398666,-0.35088222237433275,-0.3917737261176183,0.5228881266732028,0.227278870093046,0.31895682292774113,-0.13021159869293894,0.07414795525810795,0.10713168965009537,0.19908437681457158,-0.08379351778106539,0.22674546810118532,-0.30751569865065653,0.33658408091507586,0.2796190294540478,-0.14008758567249094,0.38191104024647515,-0.40151143149454466,0.15765811134832425,-0.007099349510272825,0.3313126680284198,-0.3104440309515555,-0.12488245014753896,-0.45610614348434253,0.09302080790177691,0.3278816702905001,0.06480082753387592,-0.05605092227759298,-0.0654279044481947,0.15389516041901063,-0.4282569256810295,0.3715326997139418,-0.35721427185786936,-0.26824099255665745,0.33274004314348676,0.24158421820423975,0.30129410494712006,-0.30787368946798244,0.1574781117839992,-0.059194569440942625,-0.05499732952540534,0.18896022333738055,0.4051825461470278,0.24740746509624015,-0.17209703587730837,0.4572071996323036,-0.32893724359620036,-0.21770401250511098,-0.4277165458721593,0.35253701663549797,0.18044124895997204,0.04111597153604274,0.3315669329932436,-0.24170648170982734,0.18423814022011628,0.44264975166924614,-0.3941128992810419,0.2976667483255375,-0.29215523504561336,-0.29131114856714346,-0.46135223218832994,-0.488152063027296,0.4429325966067464,-0.1832199192474992,0.164335912749934,0.46337812146956836,-0.20049851885853698,0.3259344811361818,-0.11214012454311703,0.37757315263038105,0.4636760121930148,-0.29158332458517716,0.05167933018134325,-0.36274001637953907,-0.08460563915283986,0.25331740321994883,-0.4253166195841316,0.3294798859109631,-0.39859468151200916,-0.13691006425350372,-0.09970807049007124,-0.19984063120236373,-0.14346331082455932,0.41686420674803515,-0.063764175451028,0.13364965558813888,-0.19286481624801696,-0.10199201666556962,0.10566044444345932,-0.2350152459509364,0.41622579591476405,-0.14141404264211185,-0.487965458074847,-0.45661342726904036,-0.38195697662302874,0.19774944023119287,-0.28314507643925285,0.4596928032770241,-0.39483627172816904,-0.2317067513245514,-0.3707036549643253,-0.3943613936838197,0.4547402505478788,0.23226354249968673,-0.499523367989257,-0.2566322085110655,-0.4420873278759938,-0.284674573246545,0.17577428058873146,0.373445969252155,-0.38435222893411614,0.0633219106532299,0.19464537231459333,-0.1406867183225644,0.40509730781516246,-0.173972718236688,-0.10711245039831264,-0.16758172620548673,0.26244909274615424,-0.2812277248152346,-0.45563668611462366,0.3815900237875235,-0.4517414913962048,0.17180883970061592,0.1906948202466744,-0.1669773062290602,-0.06271777035492132,-0.0717087538430253,0.11505694717945929,-0.2886617228279389,-0.39654451511055555,0.34780359046142784,-0.22369546569694965,-0.15695644492971406,-0.08577712458205622],[0.4338710413259188,0.39369018246757426,0.1748846527644956,-0.16266493155832618,-0.4189028348386301,-0.23253697202323353,-0.1344692278016757,0.14558917830189255,0.48058242395337425,0.14987376886355785,0.07990382922577943,0.24590251710288347,0.337696770033898,-0.05063195435419532,0.44611639875893516,0.3802581568035923,0.43537175350324486,0.2735248434985389,0.3052924339937326,0.06821590904657882,0.23497796382277536,-0.08406933648921067,-0.31282728723583797,0.3134007202985185,-0.12633398636122473,-0.3732774652074531,-0.2993377982732681,0.0610137536438744,-0.2581018397601649,0.2053863969493066,0.21808990780699467,-0.18583514448514893,0.34139290351588536,0.08582292200494855,-0.23934219905751644,-0.44679219959265315,0.4433313576434449,0.048749761533266,-0.4087781455597119,-0.22327963076189555,-0.08173913552952197,0.28108102709749017,0.4773080398986538,0.4764734887554202,0.29487110644969744,-0.4538406177782663,-0.03095733435883466,-0.16187049694991001,-0.48473208763654385,0.29733969203990784,0.3177541397901169,0.27895285596776387,0.4750666529373664,0.2997056760081036,0.2112069263884031,-0.3458978811232072,0.4806689680867353,-0.24307862663812463,0.32050757988623846,0.03225158502426484,0.1360666824778589,-0.31049562759793015,0.18487322611849652,0.4427165098717708,0.08066358208062582,-0.38115917957651413,0.2747283008003548,-0.4733791218055323,-0.14682943839106793,0.15361841136014637,-0.45706415362945213,-0.1415486359099418,0.26941193543420766,-0.1386842700557514,-0.09872690091911918,0.01534159679440494,0.2937299187198024,0.3258857220511722,0.3793963568019492,0.35430339537933764,0.2160701171866867,-0.46793655221927377,0.1383373378393722,-0.08095995076006002,-0.45642092916239796,0.12111544753791414,0.4148389580161098,0.13750706216381947,0.3022208418282404,-0.0028604065693994722,0.3097517614885806,0.48088444244416634,-0.02904110800534707,-0.3587977189217537,0.05976733477795735,-0.36267310509329564,0.1521914205107046,-0.20336998613002108,-0.22745662973830408,0.12312501491586522,0.3446656118523058,-0.3826690506064793,-0.011353209569702661,0.35194960686167726,0.060421868449460556,0.0012058218415297959,-0.4046454902281356,-0.19269556958926612,0.23124061105671642,0.04746716077419286,0.396098816715814,-0.3585004473663089,0.29915225811004187,-0.07057837491959118,0.30298706251774155,-0.008647157982107835,-0.02781476368432955,0.28192958693406434,-0.44795420483605397,-0.33512046472223345,-0.1373038634311346,0.22809131782874176,-0.4284678539654343,-0.2342204501079288,0.46069766488616865,0.15836908944508538,-0.30555888864105873,0.437309256483707,-0.1482240001735817,0.32855751421066526,-0.13799726010912214,0.1630908600710564,0.006825396826317039,0.4053260972793866,0.14137590168024192,0.053081235249343335,0.36264017485681865,0.21986561227565352,0.3549755287498599,0.0030050132287482434,0.13625491198685347,0.34825141927996967,0.020431313946577878,-0.04387066184026661,-0.2721154689223297,0.2772614176995215,0.27076652409470264,0.33928081188607206,-0.4665193938283713,-0.17897600895049484,0.2606861108264953,0.5029689623417101,-0.2138976369583745,0.13945128872719384,0.2767163850654941,0.1201500137254926,0.05711490891772252,-0.3726491448337838,0.28208067386804836,-0.47789923469543655,-0.0765675666117078,-0.40304991179319033,0.07614810903374772,-0.4055909353979698,0.18224606494604403,0.3555988396887812,0.14184057803493963,-0.4121763321712215,0.16343310290294677,0.33857587319815585,-0.298482659361316,-0.22550488093341722,0.012037062065342215,-0.23525753969345972,0.2123262161770379,0.13528148626685346,0.5064106702087012,-0.40238431967085875,0.26406528494001547,0.2926404514402158,-0.03843340688561711,-0.24486361964172473,0.24909790131877654,0.04705978410662486,-0.1989326611259186,-0.23026847671501408,-0.11222907493971618,-0.35829902379718376,-0.3349832019639832,0.2201973698095011,0.21191013980151707,0.4797291845026415,0.4433534983371936,0.3866646829825501,-0.4850447052484115,-0.1161900038772922,-0.49755660989749484,-0.36358395760557766,0.1840115969142036,0.4160479602097453,0.14970060567733,0.230882188339978,-0.010737213226488091,0.2842109953913441,0.4443576722582208,0.39165749490822444,0.04863784876839835,0.24005101730222514,-0.04467890668583739,0.30261958118443094,-0.03136102916635604,-0.332393282053483,0.19563304210933147,-0.37697074488674065,-0.1678444008595502,0.08410607690311633,0.13412595178918937,-0.22847955326881766,-0.04344718141317485,0.12562468304625712,0.024796022051069542,-0.21217293296355744,-0.2572690644283517,0.3624351874080332,-0.39972561709900845,-0.17401834805458472,0.25953396243073057,0.46484522743875356,-0.14721412852946397,0.1876757651981293,-0.4353417636688473,0.0026551892616540553,0.3634119443023193,0.44707565947908084,-0.15304762649068818,-0.43534653320354644,-0.3933172082919211,-0.03762746991465711,0.062108419860029886,0.006412514779601941,-0.11938843847279602,0.3543257300082809,0.30206310504094724,0.5008940404256158,0.23228361851094748,0.1533562188815939,0.4383569978640877,0.42114971563524173,0.3490227720703105,0.26583912239156254,0.477581123826322,-0.18410821847899336,-0.4875496491045085,0.08255008215735536,0.2490760392273046,0.0602811599738229,0.4039712838274071,-0.3261674099242664,-0.05393847604056121,-0.10485379831358335,-0.39501103817503885,-0.1246147704038951,0.4213612123677482,-0.17291376593382227,0.31072401994548987,0.22893918915832007,-0.2836563685347221,0.09343367664211842,0.04702721373413755,0.16430381310944236,0.19413666882872718,-0.3721963492195864,0.2540954377917403,0.38203485633915524,-0.41910855469016217,-0.4043959459885409,-0.18545104725039105,-0.3931834869159995,0.2413761676721882,-0.4501922330305838,-0.2321433077049923,-0.000892940601052332,0.472535288183105,-0.34455420757335836,-0.29971516396124687,0.47635014948631843,-0.3477723110413252,0.15148810300930665,0.23238339859928314,0.39999723908548424,-0.20241335879377922,0.28098766404213227,-0.14798083585199773,0.15928182091048815,0.3603489534368472,0.3420974889435919,-0.3523835111176066,0.31141468632557295,0.5388562087851302,-0.24144189993813073,0.1563949369101488,-0.029144620554004057,-0.30439745403535023,0.42244601783535246,-0.4748923088435208,0.2449718602327681,0.4928260130565643,-0.11886083648583719,-0.13020947721182297,-0.10648561321716439,-0.10565227721936775,0.43649328331729315,0.41658393381751707,0.2057757215120187,-0.013330155377817902,-0.015329887538279918,-0.40261691393416,-0.03450305128454781,0.05750324732601235,0.01557546794999044,-0.15395833713469015,0.25707764977489694,-0.19529227834709334,-0.22573304407500502,0.5442252129446299,0.34808161563056145,0.02535688610974513,-0.3818213232957775,-0.05183423638382206,-0.28918887940902754,-0.4068224430432701,-0.005817549242391781,0.2257869080509443,-0.472161514147106,-0.3590298523607802,0.4181402738794894,0.4201329491838295,-0.4188468785257546,-0.21058461222160932,0.4551930378255744,0.19566794406899668,0.21643520415043474,0.4173790635257006,0.20933225140603784,0.40898830735700964,-0.481384342135246,0.12505408664166393,0.20960547090119364,-0.4770896853092081,-0.17366728474503285,-0.5501601018770649,-0.2977973857923677,0.21014037493385812,-0.2640340239286188,-0.0731075410114892,0.22117518748797554,0.00832446736775188,0.1144967352959978,0.17178335670816008,0.1433727577570238,0.15469712443932399,-0.3308890964521535,0.265537605543781,0.009042930031712526,0.3577425325137331,-0.44996039572516033,-0.3959271815539657,-0.0445737815239644,-0.2128888889007361,0.35061058859910277,-0.1838102583454736,0.4763986361567515,-0.30613976771115475,0.32425511373363564,-0.36913178254936924,-0.08063298001624346,-0.34168689140708736,0.3760911546495796,-0.3367170897226414,-0.06484749955140218,0.28692077216744555,-0.43514004120633315,-0.10661327851908492,-0.19129088622023718,0.08658214504824838,0.3276441017422874,0.058620518288147155,-0.24606934861771693,0.03543725556359237,0.05425407987784378,0.38085068164556435,0.428477184204739,-0.481317889133668,-0.39227223608810746,-0.48827720140898795,-0.47403329065067124,-0.02035993750703552,-0.4432657815925281,0.20450817539305574,-0.007130370412048274,-0.39251266068137525,0.06864787053513516,0.279676992119217,-0.047291735087803904,-0.5313261547272001,-0.1487865637801002,0.10322728103191678,0.20338140118795783,-0.13327536854105201,-0.16379958684979876,-0.21645476673257544,0.33111330767325514,-0.4471870134626794,0.1737286975703045,-0.01485174066176036,0.04111270683629509,0.3620340170460148,0.30698162354018516,0.22178617466000647,0.07352526697494288,-0.42070571915935995,0.14723755104631064,-0.0582183561451488,0.32321872616837133,0.22489920785557402,-0.4768732662770705,-0.4085961901210981,-0.2369616564347701,0.18983963485617286,0.05002268580527341,0.25802611020844207,0.3418414867835706,0.34618506195457743,-0.013313197690750664,-0.5019294039089081,-0.0016945594907058206,0.423610020766293,0.5041876871302797,-0.2184858328826737,0.4776509883332903,0.2271638397578098,-0.40297969364716674,-0.009886074277623778,0.3642260163607287,0.2653044867193288,0.3335222069296357,-0.030268214009402182,0.04053372059112012,0.010027819062909726,-0.0470520533329679,0.2020523417308282,-0.1687034857034123,0.4520578339840394,0.4335507388000589,-0.168942769825804,0.23788368238122956,0.14382201669889644,-0.2020555379665361,-0.017938747207732933,-0.09814797353106076,-0.07622499499532284,-0.10763241828252418,-0.25291904086876676,0.22926109077416032,0.34697860167809524,-0.3153252139734426,0.444168593227678,-0.23290319306683585,0.29739704864644817,0.2857430643243136,0.027089298132514036,0.19186254077409637,0.1492543445552682,-0.048804409318837456,0.3141828727894313,0.27790909735624614,0.06785817537602545,0.49978552045763536,0.28496163005906144,-0.2799350214995562,-0.39942420310495436,-0.08476072355322663,-0.054285550041448416,0.3749174614994698,0.25937757109563303,0.3710891204517988,-0.21800176788261977,0.10603280428555097,0.25584546266068775,0.08498257382467789,0.3598787222915249,0.06487881935073593,-0.06606648138972951,-0.0799458616492709,0.07874984868867552,-0.4309708012609332,-0.15191256421518384,-0.024675039447619132,0.10965428712445795,0.30589734053370765,0.06155803670257781,0.17691586730406522,0.2760769461658341,-0.11552384210385,-0.11267459718453199,0.00235696846703818,-0.4397814252782365,-0.16395661196708872,0.40114341777436807,-0.12460319991814064,-0.0057735530777602,-0.34496112191029826,-0.3261118728256202,-0.40017127452888496,-0.20400258499396587,-0.3722099440616017,-0.17530236520683862,-0.12757808855923672,0.19920662760688362,0.14483829985386248,0.4083997238524945,0.02186383427595244,-0.26601816312135423,0.06826263954646128,-0.20263793081990716,-0.32102548757452193,-0.1413816305570664,0.1768243245066262,0.2552005441197538,0.3777284766797141,0.14295756587207098,-0.2847064938069743,-0.1697069092166812,-0.29122597604850387,0.05877641074654867,0.2877707283768716,0.49431557750979954,0.49725151591133854,0.2752343901806591,0.35926512906735525,0.35317762580404827,0.11381183847051196,-0.3149933723624324,-0.4326340830118118,0.2822690580345488,-0.33743915779488826,0.5147218265401181,-0.07645497565860822,0.30750722398117075,0.17038307436017133,-0.4770772765639281,0.35210051890197924,0.1409093272091772,0.2400769023039833,0.31077645619640537,-0.21464514837696447,0.33420616836832123,0.47342495051542294,0.322007493121445,-0.3609974181045966,-0.3706536969650809,0.42595241432992464,0.45696289700718923,-0.24304459483508023,0.27568305239940344,-0.005637789938776713,-0.4318989009391845,-0.0009038585807727042,0.14471067617932484,0.32785069724830074,0.2449819078965812,-0.2549735241928559,-0.18287399826725442,0.11683184689991424,0.061949037472743496,-0.04296806308122086,0.01953025830948231,0.39567378359179944,0.01545828370173098,0.32663204844234983,-0.02798370853236915,0.4393123672185224,-0.28702383778018975,0.5007349065492802,-0.29741320445952407,0.15016712106973076,-0.13180864503386083,0.3401755266691,-0.41876007899908396,0.37535981554842035,-0.15371572198650468,0.20144244472948003,-0.27590698614947856,0.49881258204526163,-0.0004570408648472062,0.4401184676184853,0.07350328873290442,-0.2891353627286474,0.33369319489579485,-0.04805069627048128,0.4477129202679327,-0.06985968326701907,-0.06385971156633403,-0.4639928837804782,-0.21885622417075953,0.4002607572710691,-0.27066375044625435,-0.2253248360138089,-0.07698265061836997,-0.3036580507091144,-0.327980770251518,0.3563629699684262,0.242231364750366,0.10024228553544573,-0.2737521647849787,0.010952725293718268,-0.4118104964362157,0.4852300174354265,-0.4071548344250371,-0.1225908218410021,0.09355649048120718,0.4469614066067943,0.07711480045994792,0.24037541710079455,-0.3014753434536698,0.32349200595254346,-0.36282846813982306,-0.3062238892483797,-0.46535159179846736,0.3321967127355245,-0.48790015441912926,-0.3774045921056346,0.025134590295086336,-0.3913114879157217,0.19490809858993838,0.29710670548571694,0.10510220853412912,0.09940116459383269,-0.4389454392896157,-0.3171632985642566,-0.11537718066920352,0.2305571444263417,-0.42864612453451745,0.3212943685937,-0.3614757459511686,0.14128953971655653,0.20273072633526668,-0.48297415951803985,-0.0657462582852351,-0.38427782764886376,0.44276263601489796,0.16262004835874574,-0.4429285903932963,-0.19661746962544985,-0.15605787705142976,0.1897330603367536,-0.20945474750871967,-0.5044839952174366,-0.20034365891044645,0.10383648393869979,0.14220963251432844,-0.11048304533599569,-0.19618458319023863,0.4494649291829374,0.4733768940554165,-0.4768265302852263,-0.33582021049885064,-0.22372705656867542,0.4628111724663307,-0.1841267510652751,-0.22137212951838176,-0.04565224851746619,-0.27836992759661827,0.15121318373562098,-0.4327974757829425,-0.16945175763549616,-0.03424460113684122,0.004284686012392545,0.4619292230472863,-0.26713586278783436,0.2458184058589335,0.3455335299220147,0.27540632083610583,-0.2532013844313644,0.09146569292256691,-0.09961034795643023,-0.00941805356828928,-0.2792095015610986,0.0335161179742004,-0.269737860738061,-0.48914147210686365,-0.38853421457151405,0.4841847750738818,-0.341410626257378,0.09155605803331249,-0.13463756983756187,-0.15054066603625027,-0.1967283371190628,-0.29425463051731526,-0.19701510963193147,0.21131674974202652,-0.05170143756460388,-0.2821455641959598,-0.2586255155834442,-0.1738895119325378,0.30837178959445993,0.207416246930233,0.11774402343289847,0.19564594642841282,-0.3006930807776823,0.20720783245825455,-0.3122283086927904,-0.30008177212152537,0.09381401190684534,-0.0667519446195808,0.3762461394776458,-0.0009492528207895406,0.046726604131795635,-0.4486370969731441,0.09909487497725504,0.2637286478755179,0.4582543447475265,-0.4849665496378876,0.2440923552290416,-0.15759806885871594,0.20526110846339177,0.4179094362627782,-0.35878527686802264,-0.2939069246343613,0.12012810503637339,0.034559025750445116,-0.026619635961170784,-0.47944104968535717,-0.3747056775836408,0.4498756795591263,0.3138084788544089,0.07982309843535802,0.12827276253909234,-0.18668766375200688,-0.2457648250984144,-0.13422261813979564,0.005803194006707873,0.07431450825882134,0.4352641916358275,0.21587173331649015,0.4375935030073389,0.36993852777744046,0.2175602822093965,-0.44669270982075143,-0.09121849140988661,0.24240351422161785,0.3169485451670994,0.18182122423222782,0.13080178535287046,-0.05025678558941671,0.12385991775409932,0.27897550316082587,0.06004870516925109,0.3435688998117188,-0.47361829889362617,-0.3505612671104805,-0.36349954855874245,-0.26844098818791023,-0.14003152069259417,0.3266635127271423,-0.14417529629121037,-0.31227999647980786,0.01280931493253428,-0.3764757056574241,-0.08933332437622266,-0.3007386827445699,0.16066941886214298,-0.03830179499702389,-0.012838213968652165,-0.2230040814622235,-0.46518968442737507,-0.2917714109480511,-0.494753699825818,-0.03778703890957602,-0.2762700028671974,-0.02578416686051943,-0.37154935015534507,-0.12585582744332147,0.17982453825796774],[0.2628610936149165,-0.3791623761611962,-0.2869117298169903,0.2572159734576429,0.11485796416290284,-0.1383345718557334,-0.1645337163192897,-0.3775320488961684,0.35702158658383665,0.010107036365119004,-0.37656236059405046,0.09116933967979568,-0.46839651141258853,0.13830850414003693,0.3678722099927736,-0.17727838013707786,-0.39387433719387044,-0.3554946338418574,-0.21164265306252772,-0.055301302178994094,-0.276776680869967,0.3106235140212159,0.44883920151561063,-0.2728563483718942,-0.38299425516584273,0.11269217423701594,0.4488390285547059,-0.26148834003270993,0.0066473197593839295,-0.22662604056712965,-0.050412677655014226,0.3567721173214211,-0.4031330585927746,0.24050298521051347,0.31319438846697983,0.023826464455805357,-0.48124745159835375,0.3266415491091857,-0.04535152185026544,-0.0615181004367311,-0.18143549215994287,0.3152300521992698,0.4782222347194987,0.20107021763408808,0.42102735032983113,-0.452365117440198,-0.2691088434657905,0.46978053142810056,0.15835873925030144,-0.3496914544090881,0.2666179732759706,0.32755491313954677,0.2181171572636802,0.18317786344958087,0.033947059913719047,0.4897777910697989,-0.22060857027048386,-0.3332774488068082,0.4971920410588897,0.47604523663272635,-0.4770854684132648,-0.2440422239592004,0.07134462534563647,-0.18622150703318543,0.3567040387775356,0.29679901525791363,0.24950618177128556,-0.26707741293153475,-0.18235979471052377,-0.2955933056675407,-0.061777669760937556,-0.021756315741090975,0.0005876339290622699,0.05207260060980837,0.13723650400217133,0.2978507724187811,-0.3517756394708466,0.39685963799791185,0.07323843784348856,-0.050704897743696666,-0.46981211785517374,-0.15105285878934938,-0.08527831944121567,-0.26462021906883604,0.37364112689643636,-0.36799734731081246,-0.26386940041236895,-0.12036475180541162,-0.06405198190116937,-0.48808410133187874,-0.1667300081929069,-0.33708714860507266,0.1925984047792624,-0.4134854038651241,0.39019068688477865,0.22682972341454008,0.4580819457055097,-0.08380238327992566,0.3180024230720904,-0.07629085483772198,-0.19623678273889258,-0.15598299024804288,-0.05440876808683427,-0.37713561821193914,-0.2427714301797593,0.40182939764109377,-0.4673595489526443,0.33165514323539497,0.35446132876812986,-0.2352294503085748,-0.23236829403987155,-0.42893218068172145,0.1615972666516574,-0.3634873101662248,-0.018736359885955567,-0.3809090507401033,0.4355886909624296,-0.21518467125149382,-0.4398092413015857,0.3433172521818042,-0.05962259915572092,0.23808735570797868,0.35912441344033397,0.22501359560524029,0.3540678353221351,0.17965515184951417,-0.41815345075562366,-0.2647415353206073,-0.037170298443909386,-0.2349338845769277,-0.24367416300454062,0.1421328641376197,-0.020570954944813254,-0.07572750530832176,0.20691517612262253,0.390578801515628,0.2187924474877553,-0.45275322900628834,-0.21489548603053849,0.13364036339009577,0.12854221227262097,0.14779746861075216,-0.260353729957618,-0.25962932170290853,0.270434191647713,0.3183986416468682,0.2901748125648403,-0.40263112703524373,0.23761048532205675,-0.3771095896817719,0.2602516788109753,0.3557777743164905,0.3187396618318661,-0.2471774465106159,0.0864145319405466,0.37452689080664553,-0.059165794863166046,0.48523720195817766,0.4421047452447556,-0.31785927224076915,-0.2760286863783793,-0.0229305115535156,-0.35656648883252523,-0.33322921836720787,0.17938999988942397,-0.10426638281116421,-0.47450425360277904,0.2113557866408622,0.2714525272650643,0.40191195567264315,0.37592456390889367,0.2347653211016057,0.3567869548972417,0.4986349579435643,-0.4364706796504126,-0.20527403147887127,-0.055162538000110145,-0.04680539746072277,-0.2450098036564574,0.02554504881720788,0.4056445366916675,-0.2251918184315327,-0.2242577246636555,-0.04306020922261023,0.33594877193792816,-0.4736410379114106,-0.10230989636191941,-0.14644166993640328,0.10380896229082148,-0.14051119731815853,-0.23216088428681614,-0.3976386793257872,0.3090190191721035,0.1812184532562706,-0.3205459282081683,0.41231808834243405,0.47897032861654454,0.13885183808085785,-0.4264719960441827,-0.43967681471175724,-0.36250371008987464,-0.056262877102482,0.07685771598954882,-0.05919382640681048,0.3271251020869866,0.4893460608343789,0.19850322553329994,-0.3905396780756683,0.3489381948836541,0.13854243101098693,0.33435843051353914,0.45242590721940995,0.14428915644982074,0.34996368254847415,0.3177274572018898,0.21968867506599704,0.06823862952636667,0.2810764319111552,0.1535986346882621,0.06946962978745219,-0.12152312519437859,0.025545302285517893,-0.16354798905969012,0.10503939189949123,-0.25669382910678595,-0.19961181058416844,0.10365078601018561,-0.43684592559897595,0.3521938848205941,0.07828806543558703,0.4495397521099641,-0.2141648418398379,0.07318481700731842,-0.5002579938848769,-0.48371279740812784,-0.11764057132247649,0.007113521119302474,0.23840653428845685,-0.4000233630733536,-0.41935226564830547,-0.12548279968495338,-0.4195393223752939,0.43474153201656957,0.07022169171568068,-0.38459999095360736,0.10791715604207495,-0.008221759113717564,-0.3364351516906177,-0.052994693116946656,-0.3384444845083138,-0.12798593479152637,-0.11934548454487479,0.44411908716565746,0.09400372223631559,-0.3975602284598883,0.009202739248383591,0.3052578511364129,-0.4001325931578192,-0.38811733231887524,-0.16818654273564682,0.43992811520298086,0.3830479945548566,-0.3542841942923,0.22240361618822932,-0.30945681430126093,-0.3146680907630301,-0.37610106889407424,0.3426419217487793,-0.1964980405786108,0.25121164267532775,-0.39081344261754697,0.22604917250899018,-0.41496450671736346,-0.35148108999637817,0.4743398199187757,0.15617101424907484,0.21645564569767553,-0.32928964668268834,0.0925765224281749,0.17582432364408734,-0.07025566385803309,-0.2848187265368677,-0.08157258690251155,0.24146877052253707,0.03307307720206739,-0.05686119450736117,0.4874396646480568,0.07036631714120126,-0.10225176091371582,0.4265534227863199,-0.12648491593087485,-0.5047299341483761,0.2793829913767015,-0.04017907319038609,0.41963863167633086,0.2959232470432735,-0.41025024991643133,0.05016145683516656,-0.33468899983602035,0.18496263640662597,0.14831388093941028,-0.44229772031428344,0.01081916474218441,-0.38418542572115205,0.14607264055147068,-0.4042707279810928,-0.13477302889441986,0.28786241272948887,-0.2231428673810174,-0.031288648810560905,0.4704994381811011,0.42747790525462465,0.06866383709721245,-0.37884633156974706,-0.23664134991743108,0.16540689202532077,0.3594410037870365,0.13462162253766086,-0.12591133966869844,-0.3283734682000551,-0.45317438295416024,-0.386651434306698,0.41552284814340906,-0.15216738047473097,0.20658548960792097,0.03687639435098242,0.47703638797517944,0.4711056886765986,-0.04315058201041699,-0.1557909839760171,0.4467177617609724,0.08202229790507429,0.3038627195220408,0.3996039076313143,0.4750172452543778,-0.12252555504063786,0.33414820766523246,0.4650164319351631,0.2132931541151499,-0.21843702020412684,-0.11065739740370287,0.14889342245279802,0.21601419168112385,-0.19443035968447245,0.26898861704672183,-0.23113867774495578,-0.46790212365408484,0.11367341165874385,-0.4577770207740617,-0.016849179245376412,-0.15303199786557373,0.4457568312944619,0.18919892630983262,-0.04569660955764017,0.17087793972996423,-0.27350481659193854,0.20572727327761212,0.5043789337151757,0.43508600043025686,-0.12278065266159258,-0.30320312926534704,-0.028625734109644984,0.20312587711725616,0.4021302075317579,0.45180407037417214,-0.35083438740100925,-0.07171838944712475,0.11280705494638824,-0.1634735835486159,-0.01858322356785176,-0.04479248724482931,-0.44951387366332085,0.1574585035482832,0.2726950188586371,0.19502330844315047,-0.12347218725581585,-0.3125442616844875,-0.0340040786209412,0.1769677415386211,0.059125683096399956,0.42951837060629466,-0.41820316951465275,0.18599399386808507,-0.3073095308944221,0.13996153848999418,0.2209048342377763,0.16278804586576515,0.22752931543636526,-0.19848616632464766,-0.06457411975330317,-0.089525646152961,-0.18651129520288845,0.09766196561505858,-0.279540872669247,-0.0022258703323682805,0.3226088700629459,-0.25037984199190577,-0.17611921209999892,0.4915914477418475,-0.3636562405557973,0.2234864239351682,-0.1409834805448467,0.14030076639132405,-0.44726024594202685,0.15207825232742092,-0.22987159712243033,0.5252326776996524,0.4854216448470842,0.1040067597703107,-0.36230619688782656,-0.12588263513794706,0.03219404026776867,-0.3011146628388918,-0.05691801773961394,-0.06332550597517707,0.4991566299189923,-0.22162656745883674,-0.062084814995114354,-0.3152527138734206,0.1873385817495481,0.14213393222951853,-0.04228323766693953,-0.04693198767571214,0.45674942376840505,0.18403615156638026,-0.4038844982578121,0.1100204265926046,-0.41396242839395897,0.008938761114477507,0.2548831716782539,0.26870838656196566,0.2107822025676248,0.36521924375340065,-0.2198911730241191,0.06731808833976645,0.3621621885440981,-0.2639494432867216,0.17939206917553727,-0.16820063699760235,0.31889416221483474,0.514562074638294,0.4773805120428693,0.2836961334034826,-0.02831038046398793,-0.40778187568836266,0.4173823352210004,0.3068642635204118,-0.19613091451726603,0.3028129697142221,-0.13015475252631953,-0.32210190050386556,-0.10001327335854551,0.45771713882244597,-0.3404240442960153,-0.06687622308935531,-0.30246627433044154,-0.36533310250994894,-0.005342488309520217,-0.3321634955062469,-0.3405309824879129,0.12194578266441713,-0.051358335468420856,0.36481921519828026,-0.10132868764264363,-0.37918468926364707,-0.34289696297169214,-0.10461164087560028,0.053820638034967845,-0.03877044787547714,-0.34131388148076175,0.5017361375509114,0.17408147295873744,-0.2978461128584352,-0.28427163501217767,-0.40752715131219275,0.09230249802120502,0.2725941809625514,-0.1368599735793552,0.11177654897872442,-0.036892931593996356,0.12235782411395785,-0.41755243246163126,0.050297342838666374,-0.07978793077972939,-0.3122070629541616,0.3362118376651145,-0.19366293629235334,0.0040526512047142195,0.20968833267618703,-0.41426649566053547,0.19107088434155223,-0.1355874925596255,-0.4364964465497044,0.4391220863814702,-0.3460171730731621,-0.35543998710149244,0.46839911699322595,0.37632723687703196,0.005118904755659942,0.1257041924402434,0.43470991339740817,0.29750206385725786,-0.10963944013089977,0.14311433952038288,0.205896793793918,0.3638333272855972,-0.4747299781666047,0.130782502991246,0.1354668716269404,-0.0672480306309096,0.10284421107237315,-0.243317647961704,0.513554219622373,0.1257077930348168,0.2619791163564911,-0.2771472403087791,-0.2957179999872538,-0.2365583785318459,0.37859189997010184,0.17296849366566397,0.0749527737736152,0.4529375782209028,-0.17282240261493018,0.008098383491083735,-0.0706009069800151,0.5248704505516334,0.36952628538781657,0.08879786348451668,-0.268763268959337,-0.08379203743455582,-0.22934438337317745,0.009645080867105908,0.3996286783070968,-0.23731623531205476,-0.4564329648475445,0.28068396036563764,-0.2718021134456047,0.18698564055917163,-0.28361305604957504,0.24772461070477217,0.39258460062985584,-0.3096763899762044,-0.00816364948942144,-0.034527524368566355,0.213834330842614,-0.16594879971898083,-0.33534987393994264,-0.2153180558854551,-0.03559037133165865,0.4024172562161756,-0.41390549211156635,-0.048431613165282605,0.28559034975649744,0.3388088409612384,-0.15819280336248587,0.44757992252847606,0.4174275956476642,-0.3828966418476832,-0.21716827765999205,0.41791367576317345,0.1798772787920715,-0.19245665819178587,0.3409434366419411,0.425647933812468,-0.20306884664620484,0.09044789224938879,0.017556851585072624,0.45288064081608737,-0.016243992117487463,0.16509908152903244,-0.3121834379629661,-0.05720370466181105,0.4255968951317545,-0.20965537232458578,0.2670458063575331,-0.2829231778417849,-0.005567003808417988,0.31563875079103854,0.03881514751903393,-0.18147523454510148,-0.23234722515025583,-0.2272194721535406,0.09790328950790159,0.2987366760978374,0.26156646599431527,-0.3483480288425001,-0.20106169007086794,0.26570109564146227,0.1937631714105803,0.00536078805169371,0.3543496005461842,-0.32463112083270274,-0.10414974831266997,0.4315579658089169,0.35626245345457835,0.08005491152140201,-0.3628642086490016,-0.16061552330739434,0.10604379444982667,-0.012776613421219387,-0.4419143904341946,-0.18928485493010752,0.4819800325705302,-0.12376773275211568,0.4092498890032033,-0.07079922173734027,-0.3386237325253043,0.10487950604820695,0.14246347105906912,-0.16687425999785693,0.10722258517211826,0.42293602107304157,0.07833842290758124,-0.42755436516936735,-0.39721046243583774,-0.24361045971402318,0.03613336202183359,-0.4405398193826977,0.2531955833479246,0.14657787177344075,-0.31949755546438363,0.16789900174297484,0.42952692945449983,-0.4491836118459163,0.1719055731417343,0.2946382495031609,-0.06585992482001134,0.428106420203254,0.18550647464559983,0.38490178408725273,-0.07584786781234322,0.1662921806993602,-0.2812329567333782,0.07419678857519801,0.054440274754371236,0.45496686443998446,-0.06424020951376545,0.0017692525251842355,0.05961771932511693,-0.22985292003155888,0.05988428996318604,0.31452365682613254,0.06495005188101696,-0.465785045007008,-0.3672638654940312,-0.46538028266837506,0.27911906005756465,-0.4327742470992853,0.004752785768550134,-0.21280412339605773,0.4994547349596461,0.14142428293293807,-0.14757233879450385,-0.04808955399314369,-0.20079435215317193,-0.027971439259888486,-0.3239184419772105,-0.10084368380957089,-0.4755675351597803,0.10121650205548924,0.22647300140178395,-0.16396869896004232,-0.1224605634624533,0.38479603217213926,0.01909617808974022,-0.1489751818035455,0.2865724857316507,-0.358781605402561,-0.12387041155351969,0.025228622456544572,0.0772385040639257,0.32020130549904247,-0.3473110660592711,0.04538555006124345,-0.07351505310199391,0.10263671293629233,0.3953379848682103,-0.2673284126152756,0.13568103697872594,0.28418265653262753,-0.22815929875098556,0.3625893404679075,-0.20855218479984403,0.3375911952221074,-0.32827158784180716,-0.12380409880744937,-0.0562847224758737,-0.48333383225059623,0.09614559412135211,-0.38512990739601577,-0.49591479745435113,-0.5001440707629379,-0.15526830942960249,-0.3306403103994839,-0.14725157660188914,-0.20567457767473876,0.2869177011595085,0.2513501350806472,-0.23505888351303228,0.33280984347653075,0.13224067585790333,-0.3541604384947352,0.16189576322854582,-0.392805697771119,-0.47828748440849544,-0.376633767395793,0.31349800043431286,0.11290368026058474,0.3550398913836452,0.39024768686695216,-0.3762147546321047,-0.25367150484061046,0.4735380239362359,0.3527337199762741,-0.20283079845205013,0.26117360945295226,-0.47663249624621523,0.07207186224010476,-0.12019360858472858,-0.3632257742231087,-0.2762156633498109,-0.37555942952930094,-0.05461718357020762,0.34287618539201437,0.2581668682383968,-0.031185992862556265,-0.009136644850980202,-0.31752862301220186,-0.30932539712591933,-0.09343143195189163,-0.034910825500750864,-0.03996996130252173,-0.006421155038090737,0.31652039520723274,-0.3838598135539062,-0.3142757633907356,0.41397565302776695,0.134782501094263,-0.49181110185192417,0.26936767994334826,0.030391977928874082,-0.08255524962843558,0.2109260627545915,0.023915153734946574,-0.4678516507996506,-0.48631198680434196,0.19169113853196118,-0.3515913113195666,-0.3969492630774365,-0.2307292705061194,0.18137182233857158,0.4492501525661845,0.10743161210246063,0.4485412552515513,-0.25224705780612866,0.45629084473369286,-0.25040941915624226,0.45981679476015636,-0.020472376775532597,-0.3529440914514852,0.14473772262107532,0.20000181190120436,-0.3719946159610791,0.09346348736306019,0.10283969166468629,0.46654835111946186,-0.002446494732684817,0.1265998680891167,0.1525190281040906,-0.3152451359177546,0.12783837443252216,0.21120075694019091,0.4984654763673914,-0.022072107742710748,0.07556808639489661,-0.43747157172276285,-0.3112491624217793,-0.22012894219651535,-0.2726726068586165,-0.04902642729733642,-0.03992525392950941,-0.3268258690219459,0.0689883072384101,-0.2356815188805721],[-0.4842431143515713,0.2851052344598328,-0.08023525454242275,0.3149754027314884,-0.4448583140054865,-0.3012648751131388,-0.18598141506711885,-0.23454224705765614,0.19932207725221596,-0.3990168945343002,-0.3554576337680979,-0.3838372297997821,0.4174135082908774,0.28762578814113415,-0.4916865923771139,0.20498317236415908,0.14513015379798944,-0.07023960207300539,-0.14539655278081343,-0.4156264487861787,-0.4488317595111948,0.2394838067863967,0.2802627608345585,-0.2254891142246116,-0.09157579536892224,0.23424656337759142,0.06509223988387869,-0.0410227027734702,-0.12406080786952445,-0.26077944745438497,0.17461689526807822,-0.2127322409611463,-0.4007823819159946,0.0278696858176221,0.05182065427166126,0.3200193232319958,-0.26587371602693743,-0.42176728807163405,-0.4372516809267058,-0.25273855786588373,0.436183120988275,-0.3761798014361911,0.17226980322761729,0.4732281337068441,0.12634057643527763,-0.1305702279111329,0.32277685732177447,-0.3710171271323827,0.46101248846330567,0.45059378150261176,0.4454234729113171,0.4806433806460555,-0.39486431547564416,0.23342365880188276,0.09407412301984719,0.2130628018195333,0.1005927858689879,-0.346982743562239,0.0653194194175748,-0.3522458971447624,-0.48652786478252064,0.1315302673202069,-0.2957553557252587,-0.4962970425436946,-0.2296484369545326,0.322890310636353,0.17371630813091404,0.4484139002998757,0.09630000449486259,-0.4461510747203669,0.02178855770222742,-0.13232986487374476,0.12415170056695375,-0.2223316765332873,0.4139166868008527,0.2629030167997359,0.15691544410082556,-0.04572255057387725,-0.48082845360795035,0.22135295446924289,0.2810635684251555,-0.4258346544744993,-0.3878625569578351,0.27229186731988464,0.49040744713664197,0.10534007863833539,-0.05006991795094806,-0.2477936939542067,-0.041488582234516846,0.19371688394360287,0.21673507955971072,-0.08500395110456628,-0.2903572416085877,-0.2362844349976378,0.36565956113472065,0.23401333694991355,-0.02445031853731165,0.4353207022603141,0.15690466693065003,-0.42180770201868883,-0.47696167318974114,-0.3919613024495854,0.4849373118783392,-0.17149163350212385,0.45451444780334455,-0.04062767893117036,0.033636776803094286,-0.26350808537174597,-0.3834387313729003,0.2168755272098066,-0.06777666129578347,0.47435649825983206,-0.04754732884536805,-0.16355918287086757,-0.1144770960529009,-0.07276899353770068,-0.23556773691185914,-0.4840457560841279,-0.44345897413809365,-0.29841520023211665,0.16563645583171294,0.10649293810465019,0.19910434009264918,0.34037209453069917,-0.010124941967534733,-0.25349814736610476,0.01859917734979452,0.4095495825383102,0.22349575258936313,-0.1602748971651799,-0.4223318094663584,0.376346785264584,0.16537412284616418,0.13453970616543895,0.38830096148929927,-0.18645694049880937,-0.06326745598564172,0.28974272965284215,-0.22201512013057043,-0.16001202001092518,0.2682013167521551,0.3812935410639876,-0.16941697292605712,-0.11922010786388965,