{"Layer0":{},"Layer1":{"b":[[0.25248766987118326],[0.054481999445532385],[0.34417220184752895],[-0.3791568730023273],[-0.2756627949927325],[0.33666685301180965],[0.10677364329234759],[0.01827383429527924],[0.2237423951804128],[-0.20374868556222944],[-0.2677403655213635],[0.03915178349628958],[-0.391376867483045],[-0.008301818686648308],[0.5011132560471444],[0.4965606861982278],[0.49335641807874026],[-0.2897840635926319],[-0.43736421908718665],[0.3544395772657322],[-0.1905414356209494],[0.25853285778418117],[0.05329510947237137],[-0.3807691884381569],[-0.3458477548308378],[-0.17760780159217665],[0.24509241360704898],[0.3360110862623693],[0.1555749807741858],[0.005974968985877479],[-0.14584535288367556],[0.018248034142363537],[-0.17915129458888163],[0.3212671927152701],[-0.19286638232602532],[0.1646142243929566],[-0.03341045866332244],[0.47704201468531443],[0.055420951989539134],[0.07126662439940964],[-0.11605699986442508],[-0.19687228942611829],[0.15500764327935576],[0.03273334851911028],[0.175547119182169],[0.4211910492070554],[0.1295853153084011],[-0.10417872825644135],[0.39592776141742586],[-0.4756906062885135],[-0.24787857851507872],[-0.06731313478878445],[0.4011295289754001],[0.26297387347032625],[0.08793288372926025],[0.009638614796610434],[-0.3478406748786614],[-0.08554473798530614],[0.26687113964518316],[-0.17657838345907634],[0.030911838168657377],[0.0004991968807084397],[-0.2712296494392502],[0.17149345288965598],[0.08408709754087658],[-0.19666072112534608],[0.16853550544756704],[-0.039940836667849214],[-0.37532312507375626],[-0.4028062110293396],[-0.04389164534597273],[-0.21855182605743442],[0.40432943587068193],[-0.19064025185901487],[-0.48899195986974164],[-0.021321952842940674],[0.11146102423962151],[-0.05142237426478941],[0.28779352593004764],[0.4603829777844826],[-0.06994129270457512],[-0.30083691142480146],[0.023745918730729516],[0.13929435814299473],[-0.330590304380985],[-0.07449608671952351],[-0.4204214694377976],[0.012510224981872344],[-0.33400403033122517],[0.1679235131666019],[-0.44642448004773144],[0.14466596555820377],[-0.2656071792683887],[-0.23702260408621403],[-0.17502161404713756],[0.3852525914274429],[0.39330793210340514],[0.027242279933220113],[0.05105584561372522],[0.27685056981535544]],"w":[[-0.2952361147365268,-0.24269060104655482,0.032524288881202956,0.4073417636239165,-0.3169568578820563,-0.3124796358192625,0.38884030177495665,0.21996235447277823,0.31416977677863533,0.4798820169462277,0.04534707804406257,0.30318103141107233,0.04322591564875777,0.011553794418874164,-0.12653402945209935,0.3812693383763728,0.4458289514393572,-0.051302746124921805,-0.0633647521514289,-0.01607209408245014,-0.4529216295487959,-0.21697542661451674,0.1972438630006268,0.014229288668710538,0.4423713793325743,0.04036274381225735,-0.13393589550045126,0.20566557036228694,-0.05817591155956303,-0.3306211889744044,-0.46751084062177917,0.1028493888812525,-0.4177408838708978,0.22628873828655313,0.39593009572575094,0.36841523680292293,-0.3869289441642133,-0.13948669460305388,-0.03478936435840509,-0.4590886850207184,-0.32161806503489515,0.24500979243911283,-0.22956148839999183,0.42426480984284937,-0.17738806094155418,-0.35288872851442094,0.14344594978088646,-0.03745356966788061,0.02315232276704689,0.4342889954363094,-0.36729600614222613,0.11527309403043495,0.22326147652279538,0.2899862722701301,-0.26238992320478904,-0.19385044129687912,0.14158782983950124,-0.11015511432416836,-0.47854999342148163,-0.14408561960833155,0.4992305745884611,-0.059518417865970306,0.11120661572858082,0.4308594932801833,0.4149798323161129,0.14029809207802577,-0.1756005075842368,-0.17582640390476756,0.30263295106005444,0.48762478702734807,0.26822603476313256,-0.14215648123211544,0.007676008598937764,-0.3073253152526695,0.21122620782001894,-0.1975173668720923,0.19582707765517113,0.3034431771476987,0.262240589623056,0.42111181210699383,0.27029815716522726,0.08678540818598335,0.19071291392726253,0.4663280431583101,0.1536567944631373,0.023175934837137646,0.13359852102796332,-0.4924155539738919,0.49128962837895435,0.11587330944445737,0.4776008517923877,0.04403899811563022,-0.32231745428796943,0.463176124636186,-0.020954845437011527,0.07026311058182227,-0.19998526912490272,0.45797895844397013,-0.062496271459815414,0.0906348207158463,-0.25148294385115577,0.44346423733948853,-0.1823951274790669,-0.13277733611840592,0.17961576458298462,-0.27537251641087895,-0.05251867856929059,0.2725777799652575,0.18910848154224008,0.2941326773117245,-0.01798331914577637,0.3503670469099682,-0.1771821943044556,0.39828913882112804,0.028954041023332433,-0.3778445774432825,0.35721316600424696,0.48545118569064166,-0.27871975224615825,0.0692473068141973,-0.4041695221780162,-0.004957493400723429,-0.06491980889911712,0.2755088561755999,0.2226188184857958,0.17522552842958328,0.32661352492992984,-0.09086541241122713,-0.4648893008879172,0.003845943586460247,0.4484614988655157,0.3237282628227537,0.23606076834488676,0.3864907011328495,0.20488428092467187,-0.2965731286285334,0.2911643643878254,-0.4150739702031856,0.13631343272099744,-0.44054943327653207,-0.10144318042711609,-0.3515000370321557,-0.3544230980248572,0.09278993282102736,0.2773348666127772,-0.31142643569772127,-0.36020571915299787,-0.4537456503901147,0.04883741651102554,-0.054401720675255276,-0.205160738247151,0.30335491524860636,-0.4247529755184534,0.11070486011735894,0.1212885983307832,-0.40024203311139267,-0.051004895605611486,-0.3228935812795615,-0.3272529017401297,0.017722391797633606,0.41202499037633444,0.31279747858857443,-0.4235204840666393,0.05256759270725005,-0.09718945380989347,0.282751311374838,0.005492304980783843,-0.4732264667730752,0.10244154100477676,-0.4203333267568692,-0.3688030544274812,-0.43868066725541227,0.28443015965943114,-0.47714099216350103,0.38290508437388115,0.07665041613706083,-0.2332672433851214,-0.42791702624396327,-0.03699650645347756,0.3088015536202863,0.3633414572516866,0.14539418183241257,-0.14675673839833112,-0.1492614568045936,-0.1886592915496536,-0.034548741778171285,-0.04285605162839408,0.11599664281281412,-0.06844361076592385,-0.2623872042877527,0.03399203889191492,0.41851352385078416,0.031182880107461765,-0.34368070459603084,-0.048480327985105286,0.29151484672917816,-0.17840910173124103,0.39235803707438544,-0.4333069715797822,0.05594893798089587,-0.07700746256718818,-0.17069298519768816,0.03666782510275992,-0.504925555056249,0.2170435373973453,-0.34950211814890986,-0.4462738673057528,0.03756924220980476,0.1065494348359137,0.14509099468788328,0.3879180795283725,-0.29879222373752445,0.43995015952228284,0.27796974309941397,0.2803028820417918,0.11020245049329501,0.3519455387253521,-0.04397100622580859,0.39447233916958085,-0.1820749168650853,-0.21491381749766295,0.21714041112663224,-0.4168734518928746,0.0205490030909404,-0.3117100870701357,0.313580440298827,0.11426660738104562,-0.16668325406940998,0.028899113367296298,-0.076805427236747,-0.2157266076796742,-0.21931991549230584,0.28584333877277945,0.46267891065230177,0.031641291249516465,0.39921519436920533,-0.04390569982642988,-0.2010819165886084,-0.043042644155399094,-0.04696393369999207,-0.1798165507667393,0.013405874250885252,-0.11605447518597851,-0.34773440050116444,0.06770833019703335,-0.1829767233661685,-0.24542478355215464,-0.11012026768022087,0.030494423064068212,0.1449763675778175,-0.45540503575161934,0.4482248987282987,0.4415341367846666,-0.22497147980919716,-0.08665879484619772,-0.45953606393519303,-0.18801536622360063,0.23817113165706727,-0.14151336117755264,-0.46959163577936136,-0.4460325789048564,0.3476966341693709,-0.37208897358323306,-0.01821969976107341,0.016296233667627873,0.06174174547140813,0.05488803315245559,-0.5431662379790347,0.20972700206915376,-0.5644341240516942,-0.4720569348088267,-0.0033675382195450985,0.07845961797073077,0.22527589365332262,-0.32694153412516336,-0.08647032778418255,-0.12599311303998037,0.3625406016163214,0.32361531862759096,0.14634522727452004,0.10046472278713936,0.438649649946911,0.36550583878070503,-0.2728652706854903,0.18371168450665243,0.0751654985772296,0.382337397556131,-0.2729367738174577,0.11623331848527133,0.5312555790847675,0.047307520008043495,0.23078931122394752,0.19543096394855614,-0.3844309063750474,-0.39934206121524707,-0.03343396543761725,0.2497608182185521,0.10827063494143094,-0.36693827947067315,-0.5341527064377972,0.4089415973172316,0.26304700687882937,-0.006127241954045939,-0.1470970575212793,-0.32597633807626114,-0.2745622496573994,-0.05378537710021191,-0.406941271067714,0.204415307058361,-0.3346052931228382,-0.14698064885261983,0.32809598499475096,0.3370972251791424,-0.21194883783119098,0.06991475841448248,0.4908612731332978,0.06944816148629569,-0.042069511919506954,0.21502049003522147,-0.023009889824139405,-0.28339716210265864,0.3245527537666186,0.04147866425521457,-0.3001160806434961,-0.24395375199705174,-0.16864105820375652,-0.10472234102911825,0.0891268338432772,0.010803646393945947,-0.4449308126733437,-0.3779880205161701,0.43629088583451076,0.4421004450272835,-0.22617590684636707,0.027928436847426925,0.05742715017327359,-0.3968441748764717,-0.4817357947196329,-0.22598856391986114,-0.07257984890562144,0.10360866208750154,0.21935052638960603,-0.13072614843297253,0.500199147594111,0.356921696424106,-0.39371899086860795,0.44854726544125106,-0.3086602029248819,0.3880641417674296,0.3784536761781871,0.15720264262089303,0.09211529606770717,-0.34729937556054064,0.15431765708174444,-0.2439084989414793,-0.05417376882178792,0.43169929308225924,0.29209764310421293,-0.26462671493000794,-0.06486774644122478,-0.24916451175361107,0.3623543283033185,-0.3334800676286875,-0.3241866694410023,-0.021599484997693263,-0.13097917727267172,-0.44324918031142846,0.22299946889351924,-0.3120884544393196,0.21958533312255138,0.5449950759501946,0.45566902215861993,0.23437045412030313,0.41016324238666046,0.24971139575439197,-0.31148133621395035,-0.2413362428530268,-0.14840000358900593,-0.0855109368444894,-0.43003055425140363,0.29422477676168285,-0.44081089910406385,0.021805489754046385,0.03692068586973813,-0.43815097123554286,0.09481097790222456,-0.3119192855282128,0.01849593251721344,-0.04245387900485011,0.31265466831755523,0.39762852971757956,-0.031581716215122846,-0.34024219591116855,0.302732126757836,0.28405299846633164,-0.14942759415355283,-0.2700914455192351,0.07317172794254619,0.3476616692409742,-0.04562201134829121,0.18064903645514532,-0.37146041221064696,0.30516900698948757,-0.43878480195127423,-0.1958940683169015,-0.028259232684546706,-0.31326440385617865,0.34430793210080207,0.34205675775276717,-0.2360517300275233,0.03276743135603519,0.06959804861975233,0.14509916366839096,0.5218770401337294,-0.07296141197302387,0.23880552656359816,0.0541660863854279,-0.03920337631889059,0.3965085056163067,-0.07812392574708293,-0.3435829123314833,-0.3674062643059064,0.07756381603863113,-0.2492098105173998,-0.3361364331544135,0.00996265512477313,0.017013538710902915,-0.19505722415797697,0.019495354331669087,-0.02313046265949019,0.35377505085494554,0.18856345806804406,-0.2237673559298236,-0.5791097078295953,0.2697894566571596,0.10118977899030711,-0.5396297393777336,0.06157091232300855,-0.1547636565787807,0.08547746040070567,-0.07770958130906987,-0.32607961416044673,-0.36140927958306485,0.3496505299961735,0.4531274838018657,-0.06691666083692702,-0.3127679808426186,0.43412673797161383,0.4177047836599914,-0.32938326750756874,0.15479561781988121,0.25384324654405677,-0.21021807019029332,0.167164258266464,-0.05413100327496919,-0.136594655331564,0.3252470479813231,0.29558400760153597,0.1512505872592832,-0.3843791009047168,-0.26866246701192226,-0.1924095464731955,-0.5733973314842835,-0.2091219142991706,0.0992478442457635,0.22788658497339925,-0.18835395916528885,-0.3055728105391236,0.08082145231346197,-0.10396367686439709,-0.17706070787429984,0.05771263113029184,-0.2223012256817929,0.2849442601457113,0.3235382226077806,0.30288366179601534,-0.23220010884545683,0.4617956289428411,0.43714052334419584,-0.044548180505321215,0.21704226551000877,0.22443014741287404,0.24109353194499572,-0.4831386574802155,-0.006003732164735427,-0.08397489347512942,0.33645398281282496,0.4823914496536849,0.426778613697802,0.42378098029548555,-0.2436504258627881,-0.27440944418000024,-0.4537173583996332,0.17684544555175916,0.47401096017090727,0.04376797015074943,0.3214131300205879,-0.3993685746409849,-0.06941773406930234,0.16714575277621596,-0.04224046569307902,-0.14681742806192719,-0.12706417190092098,-0.1101253331701231,0.4254654533444544,0.36666581003441523,-0.035455099769020046,0.16247183034965437,0.3437395258718462,0.33400670924217774,0.3474223735662009,0.16617085542603696,-0.2300560670376366,-0.20623705992566244,-0.385918830976836,-0.03476361669322227,-0.17270263505458003,-0.18166114328048852,-0.559183522241087,0.12601237915738941,0.1305706693373617,-0.06311863812324131,0.11131882178514772,-0.16124324836972004,-0.21792407944885014,-0.1867805230794102,-0.4476331443627976,0.03062017414568483,0.17931886112651915,0.15555729646619598,0.1036373864022602,-0.46813155173136,0.4577220113944136,0.020380107301282844,0.36022061973913855,0.3470105168313682,-0.3882198354371764,-0.1417907010750541,-0.5007521266560144,0.16620851308690518,0.24131623603489122,0.4732745183966414,0.11292089169141142,-0.5018388955274063,0.37866743760115357,0.12479366140059348,-0.32597012221762234,0.3356167030895241,0.3117218241829486,-0.3665698223756218,0.1338318441899534,0.2175997124998227,0.19580721074827573,-0.4517921878835907,-0.16036532570397835,0.20022045690035095,-0.23834497431371046,0.33295459187192816,-0.424422156026655,-0.4419462845159428,0.030816861151105268,-0.3478128419383123,0.0722616383096881,-0.4592393321360069,-0.41319079886337384,-0.10341062617020398,-0.3623912322157821,-0.1838665909004272,-0.33900110562572316,-0.165823634391003,0.10388178538201068,-0.3708937171188611,-0.15647545360355333,0.2583897082575875,0.09670528403802271,-0.19938313369756747,-0.17239693146563242,-0.1688946033135237,0.4609916280977631,0.31736463934096454,0.25129910320363996,0.3226200739471159,-0.04012920498705096,0.30308913841705704,0.16354752098841818,0.07595390484341656,-0.4127921046593122,-0.4070473206338969,0.18824329212659907,-0.18340627278822863,0.48155859186548633,-0.4577288350145105,-0.1838942632471429,-0.07076323668054679,-0.3598038371737151,-0.18848809823289278,0.33290065041687067,-0.09247125780984809,0.37451311385505015,-0.5200330387759613,0.026892269964596233,-0.012247410352568884,-0.0397012202210034,-0.12765995120827195,0.45592007706065235,-0.22462493340841938,0.18372670677979322,0.027970439927282542,0.47178263777842305,-0.08572798111851661,0.1011694713808047,-0.3735094512731306,-0.3006995419999086,-0.29438518003361963,-0.12751921465664912,0.08092383815990689,0.1752040810467379,0.03637998491062833,0.09898622220886785,0.1477318251071958,0.2315539657054314,-0.11439863724380599,-0.0038124800540126555,0.2092338638653454,0.2392109463342334,0.22886531671476176,-0.1038656764858893,-0.28171683466061553,-0.38123704689497695,0.06409005923979344,-0.23945920210603056,0.274028571160565,-0.15996954883634001,0.10501324886614254,0.13318731674614676,0.19716583232752555,0.4350379862590906,-0.16456225720952927,-0.37978035538181903,0.13013588253132877,0.31034059353957516,0.13981969572950168,0.3607261818098112,-0.4991443432602227,0.35318701135779174,-0.3252649476509737,-0.017481225761739477,-0.06899618083048252,0.2627296798680768,0.24503001008031683,0.2787583092384105,-0.45033117022382213,0.20350967424082544,-0.11481235586699189,0.2153699847389657,-0.40843791826689024,0.19928413249233048,-0.2094699669735762,-0.428908250776235,0.27645084441707596,-0.09014712121056655,-0.35260254442524835,0.01921350787018532,-0.21326211577737278,-0.032972778666474904,-0.09238848518917747,-0.032221328571020634,-0.4073400933357381,-0.16557460568026378,-0.1564172190903171,0.07953398627771363,-0.4319095229685008,-0.03563821941470069,-0.08667230219638,-0.4744188528766755,-0.3483210940692345,-0.10917962200536739,-0.3033928311738113,0.01122409591004629,0.3728762697423993,-0.4119567704259246,0.34716446911626386,-0.03835298645340439,0.15270553429849865,0.4364725235138543,0.1804888191948089,-0.36678886801451205,0.2812998742142532,-0.000010897486010836408,-0.2181694217614326,0.060562475726056685,-0.4488578066891066,-0.1448426235990625,0.4504202665791975,-0.42659582140339924,0.10372557378784493,0.10838176095789377,-0.18651073928312387,-0.23974319225380936,0.012533001931934518,-0.3900005619639737,-0.1460983452740181,-0.3294534473539392,0.4566139163232349,-0.06955498965711752,0.18244017144930472,0.2812627941072174,-0.2675116833010949,-0.07393094953315171,0.3786859502056613,0.4784623286826339,-0.215362996980183,-0.1404023484070506,0.23884286756943301,0.3751280398466315,-0.24966022539270832,0.18011551618077257,0.33761501392256693,0.1676687898186175,-0.44656410462250623,0.48335199209240365,0.41496781299044877,0.06130363062663288,0.46689494579980184,-0.23372858548350164,-0.1963052587438667,0.14363793833009875,-0.1350148917184275,-0.26377421763583553,-0.07796698649586475,0.21765131003265736,0.04982271845837127,-0.028359260978001895,0.009123346144480786,0.04421498040473192,-0.3904843071622278,0.0951348111301152,-0.10881612757660795,-0.1463958892484952,0.3258911240192485,0.021180351443053917,-0.30199163991194583,-0.02698635316061675,0.1487425756303263,0.22909930088635,0.5013463874854234,-0.21794890948667556,0.25328713458023505,-0.36348664830141636,0.4333013676068759,-0.1528276393173505,-0.1822483137785406,0.22745595977305735,0.2801621117317936,-0.2932181459048373,0.11205371735483816,-0.11551880810440673,0.15477658692354979,0.006651191414899005,0.24097336521938462,-0.4794377405789114,0.311923806566625,-0.4552389016663386,-0.24855253367321725,-0.2908403653640415,-0.3746119768610468,0.07963676348385376,-0.22992340882035323,0.01629700408783171,-0.22026824337081632,0.005384752610121907,-0.13952684327970094,0.4584034773252944,0.0536520630630917,-0.48350712629684955,0.44055359824980644,0.4517706530022894,-0.10081801340375238,-0.485334671638489,-0.3572528935128805,0.08097795353585191,-0.245834465265669,0.19335663281248872,0.4752317060495872],[0.09644324347459077,0.33203932173699147,-0.4620597593139486,0.30073231571718506,0.4536792197444759,0.3435713272836116,-0.0011171567805048355,0.1470778010544056,-0.12179043372353093,0.22133064797289692,0.2560625288162388,-0.4078296499283338,0.45124688163243154,-0.20555500097286794,-0.06503858104886917,0.2993957514286272,0.12874546376046236,0.34592949504512593,-0.44594977265011093,-0.2960047737416409,0.19983274304275445,0.2993908879636613,-0.3097046738882505,0.3153249115841097,0.008671376473308401,0.023897181747705165,-0.14066915411741654,0.2792930370154816,0.11466333957844221,0.08882323141873538,-0.22090902541818225,-0.1231927497036327,-0.4800725197689104,0.2553367341495955,0.045098269284002276,0.1642024404454036,-0.2369553926608254,0.33007394287034686,-0.3060155330056138,-0.4227514820598344,-0.43253836731473405,-0.03558667416644109,0.47200380166232914,-0.4873597688062659,0.15335215360703358,0.283515633165626,-0.3261573748010018,0.4446218699674361,0.3065489936836877,0.4915350843190145,-0.06722310378369922,0.31647865489413696,-0.06511806245555163,-0.08615906808743201,-0.2101905581796526,-0.17107204344416949,-0.028682027893044193,0.10481094786218326,0.47300223864715996,0.41453797362646605,0.30013057678079846,-0.38230928760102534,0.389055102265638,0.2054741159901042,-0.2697486048317638,-0.4209181438888209,0.20724239704110742,0.42582148230867656,0.26440336688536253,-0.011274586276384621,-0.21233775484389364,-0.09936111376711237,-0.1355538588427701,0.4060122806953403,-0.26224054281838016,0.17151864159541097,0.3374314893940934,0.04485595880010541,0.4065739308443304,-0.42116499765625626,0.24967716973583653,0.49119164628836476,-0.2596257946885818,-0.4444554241257326,0.3237571733920639,-0.2772032730015088,0.28657557070418505,0.4378284386897906,-0.36489359498537044,-0.04592973625850085,0.2218780243440715,0.3687320649225183,0.47967897668861215,0.019091566082956833,-0.24479451594740154,0.22315082821329718,0.320529509530034,-0.41779464417789003,-0.44537152631282867,0.1669014250202748,-0.21224917998631398,-0.35324811486481283,-0.2772249693449769,0.3035038292279961,-0.010346269170654192,0.48429269358700683,0.06826164884447496,-0.4046974980211944,-0.3217014570730417,0.13669323573837974,0.20726282104350652,-0.4187060546274106,-0.13256239917253088,-0.0947409707363629,-0.31559596620775254,0.27863499049424967,-0.28969781265490635,0.4002049175958781,0.10627338957796188,0.12033858022052298,-0.2988741000969181,-0.4184174630307196,0.1908726422568209,-0.4098251143329009,-0.14447639015304423,-0.006142798292868625,-0.30892309126416584,-0.33995652703183465,0.23440028334563506,-0.019699990236745454,0.28838914328266424,-0.23058679362727763,0.19101251511786102,-0.36915223379577483,0.254600504271886,-0.3730019995866451,-0.32798369359128676,0.4621659877115173,-0.26630956217490914,-0.1927359720361035,-0.3246214231001767,-0.07647192179669146,-0.47986303607143355,0.30937460142081624,-0.13115447711419756,-0.22205286002520808,0.016419567915917328,-0.10759361330923105,0.3325998304550718,0.06122966963738641,-0.23628363167118996,-0.06881616974483291,0.21979059894303096,-0.11854012374279857,0.34887044126236844,-0.21336522942337505,-0.3324261966768823,-0.22809519362261135,-0.1670740090428888,-0.24717961659333545,-0.12004502286228463,-0.4882683137908409,-0.3837566242952877,-0.3038374907790609,0.06549541359143592,-0.20299380980900858,-0.15092824962809062,0.4783044331150099,-0.2943112496493314,0.2812660702513352,-0.11745965518625918,0.15367707504949735,-0.26345085654770684,0.15083840412535812,-0.48344394137416696,0.036545311521122545,0.04931479253274449,-0.39448674098059827,0.44655445408416494,-0.371425705646718,0.2008305113001256,0.1805594964140394,0.05379068549793138,0.13378093610136468,-0.26904759750377055,-0.25947315395204007,-0.4029597849635548,-0.3562317961823895,-0.3169501895197087,-0.13985346423122683,-0.4236389809243832,-0.4409969797656687,-0.3122193915967709,0.19867824383839305,-0.258173606667638,-0.09407261097066141,0.17166465661391772,0.33479358518973795,-0.23267052889179404,-0.09656556361706617,-0.4746620916505933,-0.4888009297162503,0.31016275951890787,0.21818373585752915,-0.510241759704653,-0.4618407312476765,-0.35760976918833737,0.09275877863207438,0.08219171676075815,-0.026836506177198533,-0.44690581302028587,0.25496600549633336,0.34547757874329715,0.020813037820855917,-0.08205867129366881,0.4162025428635967,-0.0800230095504271,-0.4596398426927563,-0.25756395408896615,-0.08918998624889084,-0.2060423416585702,0.38525468001566,0.3369593988620922,0.3710782829384042,0.1964509599893869,0.011933169627251113,-0.06445688702001945,0.06518642681617913,-0.08696514522346795,0.03990913916100386,-0.10347943742445541,-0.47488732825877433,-0.07291961706565296,0.013099139388477354,-0.5122858001532236,0.04823021954160227,0.492947249462888,0.3989021370047025,-0.24167704798225909,-0.28152512817512615,-0.5021791246464445,0.1305689853892597,0.10931972363556647,-0.5046213446771683,0.16968174970048108,0.20995667047015035,0.29417054802951625,-0.03844707088740235,-0.3130759775934479,0.2674301407554037,-0.19871699429556716,0.2179863224351685,-0.19547383565282103,0.034310558900697966,0.46831932414920285,0.23703021317214965,0.33303297989735087,-0.3417448555722547,0.38587558315667003,-0.2853632595798038,0.12432525858380086,0.2568905546375637,0.46282453919956384,-0.18621092560981783,0.2138104644405791,-0.17031859979342373,0.08563372018903677,-0.0836351625976672,-0.24280806336909866,0.2827877495328288,-0.14889022844742053,-0.32713370695885896,-0.19578143519334978,0.4319898329785702,-0.05244427149112589,-0.1217770293722031,0.11985891212996304,0.17467730693659173,0.31939157584700745,-0.43240611493030445,0.2976077970687131,-0.28231344092540267,-0.136183875265162,0.10187232712614913,0.43524703700279127,0.03577564172999631,0.22948085029526422,0.041568590404504335,0.18426431827641035,0.06803480673477318,0.32426094247033854,-0.34587359529093464,0.06342234793329075,0.20409657264319958,0.07199410321679303,0.4281094882424456,-0.30383841571452186,-0.03510463303812935,-0.0004537014075637353,-0.4208663927880843,-0.5100554306290634,-0.14322789194415794,0.0723502961463744,-0.2846808954721439,0.3251392152286629,0.009900638888731482,-0.1071745877450188,-0.4982945079406108,-0.4252539114067211,-0.2191604424261872,0.44527180436856134,0.003100931003404255,0.20735647737925778,0.3940467255405293,-0.5086741378020189,0.010470399530518024,0.1839913425962519,0.5234232013319425,-0.42301527456418647,-0.2248723479162256,0.45275906006781097,0.3407219829283749,0.22537049732642636,0.09536412103350635,0.036476105775806546,0.35956281159023323,-0.342680916417558,0.1445079767579561,0.43308234078115904,0.3575638065116203,-0.47749639459588655,-0.44999630154252934,-0.32267655656146943,-0.047745542311305254,-0.18528419698093915,-0.48594580389647246,0.2548176107858082,0.23694240896003846,0.4228273085633495,-0.2998516674328154,-0.05044321835190662,-0.05910540306790777,0.18911701984675203,-0.280553819238334,-0.21663006768345247,-0.2532533569190729,-0.007996006540200242,-0.24968580255493958,0.16384059359553046,-0.5023320273780927,0.05846496168110864,0.19720776215547695,-0.0053889379513346975,0.19206617924534022,-0.4294918229018513,0.08315542269969821,-0.42307926240393795,0.40626008631468163,-0.40177689792642235,-0.4770245092105552,-0.21740671206330991,0.07728246857570804,-0.40106377079040906,-0.44615393029892747,0.32208646899531534,-0.011094435946057584,0.13746050496795809,0.3294756315519159,-0.022349096466019576,-0.11526790407244258,-0.2992015680033173,0.06238371373032403,0.003393062072184125,0.12615633283462677,-0.10614549473853334,0.054523937333595666,-0.20373191435638638,0.21131292978747687,-0.2353269851152203,-0.34475595786326124,0.022633111188740795,-0.33742608621774167,0.21933678615204444,-0.3089642462127025,-0.42003825895908925,-0.2631435476231088,0.28136268872052855,0.3188785694263776,0.24147637437214292,-0.4017024346945281,-0.44327134082726777,-0.32057925608384474,-0.20988068393344728,-0.24664138081716014,0.19838683752197578,0.48191813964796526,0.22205779573428375,-0.21170509012045266,-0.34457028364544395,0.37543919868293263,0.18474649032107138,0.4683554516326654,0.22415723887415587,0.06480851402275578,-0.12800902312554102,-0.26409573274465986,-0.1307811970464867,0.17036353905692345,0.1677695042364445,0.08155275777083103,0.36063224122687354,0.06707992171192104,-0.19361282552472645,-0.10618773973420154,0.47646062148335205,-0.3216139379498662,-0.02306803563270311,0.22866659079787455,0.20732637356268135,0.30050666505361145,0.3764530157602164,-0.24054550111348516,0.43033300271359765,-0.39648382974627294,-0.05233926243696035,0.4027144761010152,-0.38928756951862825,0.09663515524075883,0.43100390993851073,0.11906981021259334,0.4925769491425429,-0.06502139918239773,0.24429465129367928,0.24622207324794404,0.4702742704627425,0.4854980564603709,0.14635536313167954,0.03625487004173309,0.3847544055903699,0.1800803898566423,-0.4104843953264699,-0.19018571345596286,-0.43409339736512287,-0.371500212582136,-0.48817986214163456,0.25111289727871405,-0.1068072582995449,-0.4229631270376433,0.2288917368455634,-0.3209414202784657,-0.012130671217843725,0.13074573347201865,-0.32782339263816196,-0.48943966040112313,0.260034917900339,-0.02295216614884607,-0.1718002541705162,0.18165930013630072,0.21494643953958986,-0.3218632301610496,0.08890983884168699,0.3254872106380747,0.2694125860243981,-0.310663586008482,0.40695270018899643,-0.17377227866308428,0.2787759283625538,-0.03666416621578018,0.252740580991104,0.24737381545937165,0.19125933988831198,0.29146455619110057,0.24996182842181203,-0.37680559151091536,0.11092272423475896,0.1313430833686088,-0.08698968881700142,0.17923977001542157,0.3477642470287103,0.2496174290415117,0.22549227968810512,-0.1646132108237339,0.32508232540099447,0.40533458195146904,0.10170881485750416,-0.42781057562107466,-0.020090231607249303,-0.3709868242209148,-0.030647067403765264,-0.3587835229022938,0.14417215525642016,-0.4124941647571494,0.0008994166767471333,-0.48873836821737077,-0.34272324422104367,0.005099291981445095,-0.3739278370822792,-0.2332295858714136,0.08455772425052195,0.3845259607352985,0.05612643023499413,0.308454433217537,0.3835845639848422,-0.1133263321157329,0.44949594942592963,-0.056421615206382066,0.13577981324020313,-0.20520562228276154,0.0239801898455033,-0.048631219419746095,-0.37605532926957297,-0.05435545478336361,-0.05605682802589388,-0.1478655915977797,-0.46264748045750503,-0.13044769515341745,-0.008884689081057332,0.4692916118160578,0.521874922933496,0.0632536382175336,-0.12286689345767188,0.3073472966115712,0.3265636927703459,-0.45431856363601797,0.3516304426978382,0.1575644536198972,-0.2528111721898176,0.19788250726385176,-0.015801690092603883,-0.15487034102768127,-0.28796746862255235,0.0493461726819156,0.23100141537352226,0.25497399708215907,-0.017225039428541877,0.23160166419709258,0.04947518737312183,-0.39675322344624125,-0.05884168039275454,-0.472731009879329,-0.008674369539122205,0.0744934406941682,-0.13655859854039984,0.3763261132659016,-0.4292433705402592,-0.35059649086278244,-0.23398887028513382,0.360546851546592,0.1713289510671345,-0.07889398154162552,-0.39492434450398656,0.5025829135266683,0.37359496385985697,-0.391334012734381,0.31808674760466593,0.3660881612597122,-0.4278064650076719,0.40238312136682136,-0.3450763114158134,0.37056359323860577,0.4938819715552827,0.08143753612576901,-0.22120457116998177,0.2626974409235909,-0.4220421109062032,0.26945595779915116,-0.41678387121947036,0.3783981878216506,0.32779981671378533,-0.4049374254862604,-0.15314253791341786,0.31488584018956384,-0.304480411661633,0.4756086437294322,0.17772239322607317,-0.3250124714548736,-0.25089428820144233,0.3857396782782336,0.3614532018413408,-0.1963408610491177,0.1061884988985549,-0.03580069043100154,0.09531938332075574,0.22839173183763883,0.30587441734779475,0.3743982621445333,-0.2869016316161488,0.022382129876647783,0.1645515705627807,-0.15922063012349486,-0.000169463106358169,0.10210613604285648,-0.10006618154073461,-0.33620783931234133,0.3532269031307275,-0.3198467448210533,0.277041762407721,-0.0312362557614855,0.45339409944023956,-0.20687220594313674,0.22651310443143877,0.020984754000342803,0.5748415212895033,0.36562784817823035,-0.06095271428951819,0.45734923214397477,-0.3552492375387374,0.414827964105998,0.23422271689200613,-0.3444096901573575,0.1288023832357102,-0.06351712156918064,0.21750889796410305,0.42429189693481173,0.24471594033796482,0.11671122142636858,-0.4725956783470342,0.30670267931913453,0.22232026961938162,-0.04686177742551567,0.44802379398808684,0.3576504172623277,-0.24041631015545833,0.06484138634046425,0.05503584246699111,-0.13119755079787823,-0.0019944497159647867,-0.3309581591486266,-0.2469791827113303,0.17590404270688684,-0.27285382842337125,0.27576673849111133,0.13660442990802185,0.11510193186504163,-0.4842342190383577,-0.4924101502146514,0.11908681241590517,-0.21763661942436222,0.3081420359009602,-0.15095887085223286,-0.018242572432184984,0.09922562003918095,-0.2910448856767554,-0.011651384416248023,0.0903278197398163,-0.06053950786989522,-0.40790047569030424,0.3116986657214181,-0.40568586728820805,-0.021950076216837252,-0.15567816089075812,0.15266131987508821,-0.09218116226608963,-0.0057772248124318614,-0.3505571037101802,-0.5248073259986817,-0.17572608105906143,-0.5328280589655455,-0.37851936188166657,-0.11521183127394559,0.32664352492214926,-0.11430405717196973,0.29869720857204396,0.2789383103378883,0.1337778547378409,-0.10667363531581917,-0.13279509072994056,-0.33405264538679086,-0.19472129810601255,0.1072956389439277,0.24914107672809205,-0.11344036403245727,-0.44389123735146363,-0.017152290171475126,0.3854996589020634,0.009541663035421354,0.12829094636895527,-0.4420005525615583,0.418500412346988,-0.04150907068115284,-0.12380205262659416,-0.18153744265035485,0.051649552328461606,-0.2325224571476892,-0.44399073914088716,-0.20584009119595426,0.05597674108457873,0.18123283439213314,0.0029613955349033047,-0.1769931173402216,-0.2803245840764161,-0.06639699185513762,0.41753525018506976,-0.3529755056759354,-0.38228994897024915,-0.03177190212202705,-0.3266726748893338,0.14206695922985477,0.09612847915256406,0.39263854252013863,0.1526726992882823,0.22935664979160864,0.16662519382909857,-0.28849555063430093,0.00944348956504113,0.3587544249206557,-0.0825274244235118,0.2823810322633804,0.06552764923133157,-0.01063641477871052,-0.4273009411116344,0.007369692719824487,-0.3770407460273536,-0.14080018818527057,-0.4492531594606132,0.09587395914265308,0.20411948595860485,0.2882854690817747,0.026834431033578653,-0.06557540219399888,0.08126754183346079,0.32021825033458146,0.3150249607658179,-0.49286851253954317,-0.4950542277217792,0.36111346856891624,0.2349567264615149,-0.4154441622339129,0.14931774975403433,-0.41789793649042517,0.07971716959641184,-0.4252759727974458,-0.15205036045352827,-0.3877867900715748,0.09276512653622736,0.3795098214050559,0.052550237641199864,-0.03074096481004853,0.13062843069106153,0.2636237266315813,0.07584034349022477,0.11695843220737173,0.023752210342465854,0.17351561470679386,0.4907542974500371,0.35579814769867507,-0.052686191535596456,0.27960651623280386,-0.1267997829008094,-0.12114112793680533,-0.07878830730470059,0.23776722047642274,-0.16794184197022152,0.2469122594798494,-0.25207404510954357,0.10724328418921347,0.2419453094975983,-0.21095808512535785,0.4868538287159936,-0.344963258471759,-0.017373765670012586,0.4856515315777348,-0.08537521252673945,-0.3400371554846845,-0.22544533886552334,0.04633099548163846,-0.27858967311804683,0.46722021488865484,0.1467261629074151,0.36008590210320573,0.09442353969745776,0.26873201523396123,-0.4927245611322427,-0.4928931199262196,0.10975155148424814,-0.012750861454637665,0.30041143077802973,0.3651341526867232,0.3287717362685161,-0.48595022452876857,-0.1317131734020005,0.14381947872069545,-0.042444699791988505,0.17608510114439557],[-0.28848702029867934,0.35083947557781414,0.20578325539464326,-0.0885334532952633,-0.3670136403333484,-0.21894698880938646,-0.37448540062843994,0.2933998023849065,0.05083032024505618,0.042381800449768914,0.3381017784000444,-0.015973217651660265,0.18938005667336522,0.1871912378225975,0.2814535165395269,-0.4261056220303583,0.20419232363479467,0.007759347888203205,-0.06389589588539657,0.09313971861530446,0.36939706952973417,0.19877366233628413,0.3817628670072146,-0.352453348146774,-0.3345165446962899,0.38429902094318025,-0.07863246532549995,0.2389391139314485,-0.014010531050394848,-0.19716578071712143,0.14550099511204317,-0.3579896361257109,0.46427017633558476,0.4122739317746108,-0.0365866615027858,-0.12136579095074604,-0.3316085468017643,0.4630597485203459,0.3375173986074791,-0.43755577533274226,-0.4096319932147242,-0.25620905744272265,0.41287527658127743,0.14324850693038432,-0.075835006614373,0.3725283593071584,-0.4905081624911478,0.34690018572693454,0.21670836714301112,-0.4167980281698278,-0.38871714221109444,0.14136906068602784,0.2674128111678846,0.2164990418135262,0.14198503619879488,0.1347495042899085,0.16772217634902908,0.258692827845868,0.029990025799764064,0.36584542548094334,-0.21794044205924967,-0.19576608397381104,0.3002394732098718,-0.33527282004218145,0.19371100535150151,0.07682976290558961,0.28545954960847875,-0.019111762544982876,0.2896165554654131,0.022028842575853313,-0.42733563834464566,-0.482702726646482,-0.11419575360972967,0.03492445828051966,0.303049233718835,0.29742066264708583,-0.4051187823769787,0.48565965289405255,0.13246057574444414,0.4463953410815533,0.27885902272835295,0.005443311390656236,0.06780936276778537,0.3474292410728952,0.44505347642413584,0.11596947503533128,0.3601972853499349,-0.057710845510563935,-0.23244656598183827,0.4675410656892263,0.29050299350272857,-0.10734563897140569,-0.31960906987524806,-0.1202648811424435,0.24489669891562904,0.42024818161599653,0.4161860616615055,-0.4688668379610044,0.2710973997473911,0.4774894336963553,0.06978068226927324,-0.4711658846770102,-0.3263654832855747,0.30123549226046814,0.4945637692982203,0.4501584742346556,-0.1467411871298121,-0.038941403534298806,-0.41681909693193814,-0.14700183340997836,0.00504190068399848,-0.4169324562937564,0.44939295883094466,-0.06633278528695974,-0.04496647349448324,-0.0016453040333624346,0.05913711308808535,-0.288030161657666,0.11192152206178764,-0.3874129249114087,0.09672170456997983,-0.04017229424563214,-0.3334903739845468,0.2816626822730421,-0.1940152563776929,-0.06873484172857718,0.27714068329278513,0.23269403419283627,0.47763042665079963,-0.12432109375146669,-0.17257313284125986,0.06750763737294252,0.15941730965396111,0.47379144004215995,0.1431205434219625,0.21067371683560865,0.4892169434680137,0.36970841430477375,-0.22075967899385554,-0.3313251996858757,-0.3128493617490624,0.2773335160447915,0.2225400360192312,-0.32480098798969026,0.4743126236423888,0.057372015974003106,0.1821638589877223,0.36731215974720743,0.35976779049253366,0.14853694705257448,-0.13085977675414898,0.10270628252539583,0.4965325195069657,0.5397902062715739,0.31614327225201333,0.4379998093968052,-0.3661157913770561,0.2078763766337243,0.30481191405374,0.300289109396662,0.37861802174183146,0.2858185044716879,-0.2821017712042266,0.2598678493556998,0.368346047647628,-0.32401764793289806,0.3392675388585425,0.35010149120594836,-0.2068979402347635,0.2482892377262509,-0.4225915965637669,-0.11924811058474682,-0.05458421141811817,-0.10222662157537095,-0.1649996950948889,-0.06745782716807201,-0.3678351850821864,-0.3620141003905706,-0.10600754142932796,0.07519206040442604,-0.3137414328041037,0.33858888989389824,-0.45806745271920696,0.01214383341779019,-0.5380613345385433,-0.11241043766983841,-0.08393658516733361,-0.26469891081065855,0.2547302384533093,-0.033603246211865265,0.378659856683627,-0.1122999814308799,-0.15440636649787226,-0.333109139999646,0.14378534050184494,0.34276068605150173,0.21627193987546645,-0.2500787467654672,-0.33240392240010075,0.46428046695163555,-0.11242514829131797,0.1738222428380656,-0.15063653711712835,-0.1404690116126772,0.42351583546500343,-0.2016421963275877,-0.49995884682547975,-0.30378235016882077,-0.5014251789073253,-0.23598040825472089,0.04213923337784312,0.07069501844114466,0.2078981599174418,0.14444242403171392,0.15325305131538444,-0.13948175997449114,-0.159218417541053,-0.3359572477239116,-0.011500005658254181,-0.15736248492061644,0.1382445398059091,0.22822466099090413,0.04113604803751295,-0.059750796417134155,0.03045733445324239,0.1815465311204538,-0.049753239697208275,-0.4148063075915887,0.16905791784640772,0.04648742999125897,-0.2942315230702476,0.46131114496295195,-0.4620221339701259,0.19844856654815002,0.29006816411545944,-0.21021131274488186,-0.08014750438020303,-0.33673691079877927,-0.4791082137373509,-0.07681438373426523,0.4811873203386446,0.45725649727233575,-0.44469813492120214,0.3149254290639666,0.2730372977063812,0.21777970773950708,-0.10441610621827788,0.45103268845224354,0.2075946868176785,-0.48543651070894284,0.31130005856413206,0.06584815501785278,0.3099648741866438,0.21346389615050976,-0.04568616266958644,-0.1833732104106786,0.4786040804836004,-0.2285886899486331,-0.13568594118545949,0.20585323070973238,-0.2897474899173767,0.004461008721151313,-0.31123918603626505,-0.21352280290467704,-0.022977057532134262,0.24336866361138645,-0.5047280661907675,0.05941895183685224,-0.2550096722153849,0.07811405208915058,-0.11425062609903684,-0.01241589361515258,0.2138958025231701,0.060225439597617364,-0.33282407487547017,-0.37990996219070355,0.16872032135378146,-0.4936320547617906,-0.167742079470904,0.3497526838979171,-0.38065837014909637,0.2608713918325386,-0.23163428170884193,0.10153905381441873,-0.045318283640031785,0.11340910855171683,-0.2591226993476743,0.34020682357505205,0.06475708082522129,-0.1629361118793022,0.29496682777825184,-0.44023173010185,-0.13460990062146863,-0.020869608817270326,-0.0035787314493823824,0.13635868902599407,0.04209210478601082,0.28429378152609486,0.14969386598601714,0.12140533956263547,0.02468698806955803,0.2781311470927113,0.16645730168802875,0.25457730473116696,-0.08548304502270462,0.19180200684821533,-0.2943328125507794,-0.4610935058295215,0.1291222784302827,0.41108832116329536,-0.06629722362535226,0.3345785728731806,-0.32108819449924597,0.26663691026075065,0.38865639821509185,0.34824567911759474,0.3241124423538545,0.06499638970826149,0.4268134677473123,0.5475054970230608,0.4083106132116958,0.1396573761701049,0.4095167746534025,-0.25649103622993147,0.38350403286132884,0.14389886701856522,0.2690147681452369,0.24571803491492275,0.3340244630885954,0.42250776100829834,0.5278277960508498,0.24257865638782827,0.41974721606626975,-0.4497721648821026,0.2305877457299538,0.31534281348395693,-0.36948071740584765,0.28133218701958734,0.23898937096315442,-0.04637505212126062,0.3861050793775844,0.015519939949101755,0.30116972817548016,0.06033238670290554,0.13820504811465117,-0.07057049454482651,0.38186213304808114,0.496207369281085,0.38311409355546444,0.5888021839972624,0.0001360428100449282,0.07360919101764156,0.009274832534141837,-0.5326159377243681,-0.1482433767833268,0.4303598886535261,-0.35775463922502904,0.11980208938437024,-0.0795600351857625,0.23895983425523673,-0.46015672795023593,0.034327157303293006,0.4217558359448007,-0.32156512523074077,0.3732960060281001,-0.3020539736992135,-0.4959478606541254,0.22133550762781457,0.41479729082147615,0.4068645363376265,-0.0002438557251921916,0.0900277602877995,-0.1362344454893516,0.12774682448998864,0.06563967578985434,-0.23327287879376513,-0.21266808412878563,-0.29695651000848294,0.07254247063951695,0.2111106942862272,0.07145363634658732,-0.19451010966903004,-0.3724745487862879,-0.4071468827625954,-0.3103603693991169,-0.3142564902621849,0.4591932858809092,0.1629268658677888,-0.10383674145208463,0.0958318172456931,0.008756556760584464,-0.46337653707177284,0.04183566609460243,0.11085891366865375,0.013655724583368828,0.3962275675548062,-0.336232299654301,-0.09652904679464072,0.41196967771191556,-0.29519221414733515,-0.2687403096216751,0.3092686818198943,0.123395477231725,-0.276202045575839,-0.38363370293154214,0.3262392653686145,-0.44609198481188894,-0.34221318494822794,0.4091656713561121,-0.269956246340447,0.40913129754536,0.26877146977100647,-0.43284787141197,-0.2677105151743289,-0.23919020534989194,-0.40477920894877445,0.335292091285754,-0.36778413558737727,0.005213958824921934,0.36510068321844935,-0.07323206041810737,0.04139792981441026,0.4561923006280901,-0.3828566447760681,0.2540894518195412,0.013781228550132616,0.04085289716043543,-0.15393658334999025,0.11068163983746086,-0.44562852758923344,0.04032325529184049,-0.03291523592485285,-0.4799400756847682,-0.43641718446419886,-0.01649998738013646,-0.41357580214511186,-0.227620133761746,0.2716016359205508,0.2948165829124416,-0.14180902098087833,0.2667428389509046,0.05424517783699856,-0.08640692787081601,0.14581846230609052,0.024112110219359415,0.3136202413825784,0.24046161341767053,-0.07473969739934082,-0.34622233636094735,0.15701324384243662,-0.27176220367680504,-0.26314071138493733,-0.3821037289455842,0.49215185280483065,0.262397185100834,0.36598632487637267,0.12016681132176871,-0.23279749428354674,0.019071939555572855,0.1642215161920346,-0.36614473830867617,0.073688426687114,0.3538708018439234,0.42028171719014223,0.3088281898524168,-0.1484365103295101,-0.31893154973582094,0.0341455437345451,-0.41759722923166165,-0.2772435669052964,-0.12420167082106016,-0.07728405855789096,-0.007188146084948216,0.03553005658733628,-0.42500749143196487,0.27318019319062764,-0.11679274311298826,0.02096163290869968,-0.13399686275741393,0.24988248677942038,0.15329016034182527,0.4938102313448481,0.17986919164152138,-0.14951816578665864,0.3980437092758935,0.41221007825593814,0.11261666650648534,0.34027749029087273,0.48100386789241883,0.043651089066793936,-0.01637401831696944,0.10689383956570978,-0.08951681795035145,0.08658542889619981,-0.17413500156150202,-0.30008577252378443,0.18572513425312975,-0.19059152402809793,-0.3906738572452522,-0.1550472061947881,0.2774333738167774,-0.39784168695327976,0.08738111676463481,0.2954446713580305,-0.1660452328961486,-0.35452279696749706,-0.3159666043921176,0.1098973126881711,-0.48038113422849016,-0.22982259902872992,-0.10744234611886527,0.31911344950921067,0.42778820800605777,0.4229512361734,-0.26062309493423225,0.1650486501170927,0.2556051650041732,0.357149363809159,0.235652594159253,0.33532448955647726,0.27429301256156663,0.12064733682598175,-0.3134345803406263,-0.12791912540827652,0.027547710485964102,0.3681151201021457,-0.4422132588752404,0.14122350828826294,0.30022657235345795,-0.16926515093437097,0.3815910174779127,0.4038438365317623,0.10118141545641768,-0.175107333393028,-0.1036689621203736,0.1670983277051236,0.378655761405022,-0.05982256830506908,-0.010040317587236955,0.21825866478801473,-0.03803332841711591,0.5029886291581536,-0.29508064399530887,0.11951891871159626,-0.10583786170561536,-0.16391210017626506,0.3582535252957115,0.4799878435630018,-0.38393595292188953,0.21657496782104774,-0.24216064962287698,-0.30041782249290017,0.11675293386510052,-0.3217935429647814,-0.29644705191272547,0.4850114510572791,0.26317913804962634,-0.2429499003597687,-0.4399330283783795,0.4997286406613455,0.0024039059962710496,0.03801415162215116,-0.30926936036496955,-0.13904798482032332,-0.3249165072321854,0.16825925766893854,0.22927466023354,0.3163710823060885,0.07538169383480849,0.17057420904763276,0.31567041906835963,0.4385906611652343,0.43392869803459855,0.4274052865059615,-0.49419566705297024,-0.4183470417970412,0.3388960612882859,0.19041582224694026,-0.1768528701470125,-0.4978236999353167,0.29976254396551905,-0.34881185750439453,0.1265394163420665,-0.32033684872796453,-0.16611190350403846,-0.17894200191205895,-0.3825529147031878,-0.2809256814368002,0.27514336374575055,-0.4876660745539152,-0.4042888753363732,-0.1486946458675485,-0.20897971604917737,-0.3780559857007134,0.016346265093692792,0.32537312426727816,0.4020234444326037,0.4172116108807225,-0.27284970154451593,-0.18936059144953288,-0.2099480732377339,0.2621991718806399,0.3059265665543441,-0.4154096271182778,0.2475315006512079,-0.3646984263970723,-0.08859487389383722,-0.4720272511879575,0.4327730604563433,-0.38427879363817596,0.2726879063421258,-0.17102058999566758,-0.47165861211885224,-0.19423404964142532,-0.09238060692514873,0.38644299424042994,0.2222815868360728,-0.00800971447056309,0.3323652845937344,-0.24800103562601805,-0.05135069384987866,-0.09606953948081841,0.4421839845787469,-0.11175280756408282,0.11747876110080374,-0.13624311199202646,-0.4702424027359527,-0.2685949983194337,-0.22692009032218466,0.26112545847245067,-0.1302792314937433,0.32671677622485307,0.0455618685875263,0.39356582108996585,0.008937947336945626,-0.36437459173860687,0.2936241710163967,0.251344580508526,0.37727087692676525,-0.126649985390717,-0.23807336547018282,-0.09273502771502419,-0.47867625802084546,-0.13118251885059062,-0.1773895039657909,-0.02253999291356448,-0.37140394689936324,0.055679963823069493,0.25395017541558146,0.03541628090471041,-0.41892036379954956,-0.41245232195250264,-0.4000580303073125,0.010046626407877617,0.07622784267086859,0.14596705279120661,0.04200027988944665,0.4009731534050995,-0.06808947335823451,-0.28225224363402784,0.20070763442164863,0.145023641273404,0.2690265281045229,0.4485200196309218,0.37273310755738076,-0.26190654878077957,-0.4876316834333112,0.0241113357539893,-0.4525455449325973,-0.3180389166299526,-0.31009590232720957,-0.3848102960759672,0.029821468932841988,0.10978994316727375,0.3719380140185138,-0.035528837728114854,-0.016750113763080342,0.3707547166910891,-0.4652865831200955,-0.3558219123789626,-0.06730247564486068,-0.29795148724363696,-0.07538540763638148,-0.46970982617097345,0.3760578158402618,-0.19475842485949602,0.41803272561434723,0.07063583782976239,-0.47967354606803614,-0.2706461708343716,0.26034649389667786,-0.24594771995966078,0.2177679869698796,-0.4824086128336956,0.4630040887591141,-0.35559131474406186,0.14432405519898495,-0.41112634362946887,0.15886636957442168,0.3444111679200026,-0.19316755134866614,0.028323331995320222,0.051765762104700075,-0.015415215535495276,-0.29783166675854794,0.35492887608245927,-0.18269881738522434,-0.04179389114786549,-0.2076517290253082,0.4219143967332699,-0.37222172247532886,-0.16351812420784897,-0.06963451671255252,-0.37588567410690443,0.15403963578555074,-0.05489021018748494,0.11822674079985439,0.2497935874933251,-0.1458558417687103,-0.13712896981729325,-0.1857130966529166,0.008408129387921456,-0.43835723716945507,-0.4257069636708094,-0.17117329983208004,0.05572251690612536,0.37034694837584636,0.17403282674285236,-0.14769191274413207,-0.49281584640993725,0.07927561626587054,-0.09997244886511414,0.1143785425671983,0.2795159291109229,-0.29133124524065784,0.10492619398092995,-0.18031364802265784,0.4636975377510293,0.03751574661681758,-0.20669205020382092,0.0795033086467169,0.02568619821181138,0.19619795754293393,-0.1543579865274797,-0.1284070803233242,0.2900627028076498,0.09001873059367108,-0.1082291243539766,-0.30909614343248903,-0.3543306278289293,-0.004810383400208945,-0.17573417699628593,0.2745281702426173,0.1377765324827176,0.3397969043054736,-0.26629101770747066,-0.09772848933986289,0.046415733210871446,0.07448584877477904,-0.02729947092761953,-0.06993311533464008,-0.07311433486620422,0.06354305087724242,-0.3155301205962811,-0.3687947595581387,0.17148693997751496,-0.3310045657065408,-0.01097933310557632,0.10870273474734983,-0.18447455508841773,0.4030343714086597,0.3946338077473545,-0.03749395602666008,-0.2746116976171198,0.14718708127906086,-0.21949680399411087,-0.25389942870230225,0.1077920685243137,0.24324672228156752,-0.2836213220312864,0.28087226333891246,-0.08556362996066103,-0.21923760462598652,0.4874884350565627],[0.20197176916056203,-0.13361616276064425,-0.3972439101434211,0.12713556311210517,-0.04681801322288259,0.43543970144644617,0.06443117970720702,0.1351718423272299,-0.13209971277645183,0.36146022248865184,0.4504488067753931,-0.3474830320335114,-0.024791868157310715,-0.18312167976853866,0.49659755659920046,0.49564763347671104,0.3135631314335561,-0.4630486030068115,-0.431198375451201,0.15411157978821755,-0.07690944152218337,0.06572213360021095,-0.2976900282494046,-0.031488551537028675,-0.28894220985354235,-0.20115751760110423,-0.34628042166470707,-0.14794081767060163,0.41598384671347755,0.08224021202274634,-0.2236408710355684,-0.3601357107577825,-0.4288836484884295,0.12086025917438038,-0.2097975931952718,-0.4632228299655202,-0.4288909676296776,0.3652171198757467,0.16379089226337729,0.33629941907053823,-0.4845616405900731,-0.4730707984313198,0.01209750183294164,-0.07313003602407742,0.2470621054676675,-0.3619762751707648,0.2290000859118101,0.18123505528498524,-0.038651458509574466,-0.33014852917679693,-0.20766323605670034,-0.0387678998194545,0.2502916601434466,0.40330903441980226,-0.3360308402397387,0.22420793314474108,-0.057547137759937694,0.4793088723701624,0.26877489713084546,-0.07095332378389374,0.40792545708374095,0.4263531963989606,0.5018708222744597,0.1972527913797951,0.1833449004539613,-0.49436483670456377,-0.05755733668478734,0.38359945086985936,-0.13313658410952822,0.29993160516798384,0.23609054856325035,0.020285414968473935,-0.20413361104564623,0.12708730699516432,0.2149915860239932,-0.25542543782539956,-0.48471906372903933,-0.09761829759149518,-0.0867274276537999,0.41951342940072767,-0.20902468437314436,-0.09806656601941866,0.03475539870515654,-0.10887017871048821,-0.19198196767544995,-0.027169755560075615,-0.3936972536749037,-0.01684726726324426,-0.3567094962356888,0.1832431017437206,-0.14097583454997537,-0.3178305505993077,-0.1284837046340817,0.1233465947415738,-0.1334708950841687,-0.27242837088710414,-0.03028033449169087,0.3769613451660176,-0.42761436687360177,0.43428415376351315,0.20025248738386286,-0.4545253188653159,0.40737211752104246,-0.30345007730965834,0.37842485749303806,0.43893923014378056,0.39560063179917254,0.2748822983373972,-0.1839469443464025,-0.4647962498077355,-0.10595734885056002,0.2151374059000566,-0.18819463430784644,0.37981644092684386,-0.4269161851545056,0.176845236093454,0.1486686373719513,0.21667666089310586,-0.34555866991873413,0.1686908961460058,0.018056582774448163,-0.18437408642103534,0.11444971820717081,0.3031502888619886,0.1076815132608333,-0.41153748285341896,-0.37199391849184144,-0.24521591150879032,0.05161541745950318,0.4692700413376763,0.19279954387561293,-0.19848749792583456,-0.45789677510273186,-0.24361414668680215,0.07044879224695079,-0.32206482766392225,-0.26727787188971847,-0.020452083264874688,-0.4388862898837551,0.2417545581065057,0.4371762632467171,-0.046239589986615016,0.3967619285039545,0.019663646005523592,-0.4250911545456839,0.018984824195189584,0.4852314364774528,0.13190061138869502,-0.3936505537962958,-0.021803716666788705,0.48550916071383543,0.19935918165083485,0.26203920859356244,0.0277718185183181,-0.34380188238305287,0.05562626206560657,0.20189882141854684,0.5255247209828866,0.291381872437641,0.2683266459357624,0.4107469453971043,0.07461185474441016,0.2982225033614366,-0.04720289702225971,0.1152121799673549,0.382037735232065,-0.45307775510427983,-0.18786969338507165,-0.1750255765062496,0.1814677276344101,-0.10702144027448121,0.30591651270407,0.25660074560072627,0.4023190494048135,0.09288949939730497,-0.02695826080685681,-0.3161845553743679,0.35773149966353196,-0.42027370608904135,0.1813648214469197,-0.08698182832713523,0.46348852292092535,0.06447270327342557,0.5178676153722336,-0.3080779986516282,-0.12843971930656864,0.1498996168478306,0.24419570295507886,0.31329618206097165,-0.5055413308047391,-0.18354905706803384,0.3519131793947792,-0.46923530915470163,-0.34281975565268774,0.28419603298478074,0.4342460788215009,0.3948819319045771,-0.44130753950771795,0.44624424362970977,0.2481364414608347,0.1972690239546472,-0.2866405212119033,-0.03729019747160973,-0.3060767257583581,0.17890820540040325,0.26002334478446876,0.22468681218855321,0.36054195914956527,-0.21880997287781492,0.5150066819079042,0.43426794695780613,0.4864111742918182,0.2464563121431633,0.3372909636680363,-0.09775117940731813,0.14615929118915716,-0.07008752895947075,0.03163721585172214,0.27473306710046336,0.44242781389402225,0.10730620223363826,0.29839452500846864,0.06455041367724339,-0.1418447862993533,-0.42996850755788674,0.35634489612045755,0.02995199507783252,0.06825992683426045,-0.08955347546888665,-0.45205797839282447,0.49495474777476856,-0.12783682459960188,0.08922201995559416,0.25803049518536614,-0.16914405063873517,-0.41751102812835267,-0.22736979017214823,0.007635458912376275,0.2896725490580612,-0.17003773314580573,0.13869977111279144,0.5140106314353927,-0.23987051703802192,0.19969920950525782,-0.39801312759587665,0.13092737663421777,-0.33061841787382795,0.3654280888068706,-0.44590274744097896,0.33166032234635784,-0.0689389668635937,-0.12247541840734322,-0.03216327757427257,-0.22190283398654834,-0.12799268972888245,0.2947010516231278,0.08480025150098278,-0.16422521179952007,0.3389602369028552,-0.38183254475506084,-0.05063016439921865,-0.47359620694816856,0.40485490715789024,0.12195054247131736,0.41606115689005646,0.5331988415490466,0.5624580406466689,0.36172590257462417,0.5079378740830822,0.3496733830964195,0.3947675737083578,-0.2715087313618032,-0.4036800538408129,0.29031336177949013,0.24947838465590838,0.3846732144291503,0.29551590105325587,0.1301925073185079,-0.123605116408843,-0.33072950833207976,-0.046390372164348305,-0.4971823758949224,0.30114982549806313,0.014765288600465413,0.044087668862012916,0.061579749074962324,0.15768547625875215,-0.041895591688664094,-0.4367488140850975,-0.029140811108654335,0.32569774927927775,-0.24832022509175056,-0.014370306729621956,-0.21500976385158513,0.508858218591679,-0.286978903262372,0.11344064001987524,-0.2710531277991424,-0.36330783514562537,0.43177969920850306,0.2440204086864576,-0.012805573085896955,-0.4599259104189052,-0.2945549609406501,-0.3063840052492637,0.04953509844463958,-0.1706285708044468,0.4847379031501308,-0.49972087136618115,0.34797268364348394,0.022250673019212346,-0.026451902767557513,-0.24876551145722287,0.4190934227584102,-0.40717961311657924,-0.32498622110451747,-0.004977750474795666,-0.3084190224146858,-0.4287647403504536,0.23069653142800672,0.031210833603843968,0.5416432132782983,0.4003275525510391,-0.31585394902957886,0.04806308413565867,0.14106044786112473,-0.2825741118306286,-0.19424290103600927,-0.4466078694396678,-0.48815708176595346,-0.16821247549176577,0.4353194748837601,-0.4150517577413103,0.1232175672386441,-0.13971659833664846,0.0821154493336889,-0.016228372444428762,-0.3139822947130249,0.033929155732559335,0.06884409860474977,-0.27377535961775296,0.1011648943424431,-0.1484521689273357,-0.0355976063484759,0.1509484376804851,-0.21041650790275387,-0.18100942289980082,0.4803479590339454,0.07954972285354418,0.2642150048350619,0.03668467851920929,0.2230584041512956,-0.301835370836095,-0.2506577417874442,0.4437720282898607,-0.2809526830346019,-0.3969680863941233,0.4002750945453093,0.3681808983110716,-0.1090705512156726,-0.0229910390828614,0.35430055466828136,0.09715067670208304,-0.390540974498369,-0.02284825244411115,0.4141940298063745,0.1195091219295283,0.23413748189151273,-0.09742544411570427,0.48135244666826466,0.2898154231345075,0.13324802705721822,-0.3015588834422619,0.08367530400456107,-0.26868771555219156,-0.06136375848043434,0.14578278344736345,0.03911150932786779,-0.21493981214329777,0.24817155797449914,-0.023008325009002593,-0.2842996254449866,-0.19597967536690913,0.011502684676339378,0.021404189404846074,-0.15301582401004857,-0.5378487027649148,-0.19804267368676853,0.28932007893591877,0.03677437605726413,0.23218426784657228,0.20497935830934133,-0.4210280352382709,-0.04728560622332334,-0.3051882613982793,-0.09564076638512131,-0.4536512417669742,-0.2595394138713953,0.24144107328378697,0.09496634780920317,-0.4239247350440266,0.4206395610539829,0.3306106541856413,-0.542650024417919,0.08987181063965223,0.382699497370656,0.16372979975877322,-0.35327105638162504,-0.1687770789476804,-0.26476639126374163,0.19784803774656415,0.34015989439780603,0.323365943813349,-0.23728590317363202,0.013071373015711828,-0.45404609166284526,0.23236491237095358,0.10689497818626013,0.3861586474000378,-0.4373761105024998,-0.24406982626565066,-0.1365323905231599,-0.3666595885201836,-0.29149491891370427,0.3997191474523969,-0.41485290317470763,0.04230567652730517,-0.44410991638651565,-0.300689825796298,-0.30517270566566046,0.1978218675767144,0.2935762607766744,-0.1281067439649016,-0.12773965135489163,-0.2515645472573388,-0.38068592536533397,-0.10268887438985189,0.26961213929746486,0.3036215300932848,0.37016010735427624,-0.39754899718624176,-0.2906053305456338,0.05498884743860745,-0.4428304485465472,-0.15632102912353577,-0.45887045025458123,0.33779100123174144,0.08148411879530768,-0.09988327168042499,-0.15364609252171466,0.2429677070140439,-0.426409113078593,0.04779577811980031,0.3123078980930157,-0.2652207617884687,0.2743211087224259,-0.06529247058494977,-0.4187549437666679,0.011040836001694372,0.2212091658110434,-0.006659177945649086,-0.12213021489513565,0.4596324515909944,-0.01458274215960461,-0.057147955722033295,0.43335345735321695,-0.39195935498164813,0.4515643837589563,-0.1351253436726435,0.34219774730199537,0.366374443302568,0.02814835450665647,-0.32905067582925485,-0.37022335618619684,0.3766947280639202,0.15576850476419898,-0.3337894240814261,0.11266734654376775,-0.19350342890032507,-0.4933436137231107,-0.3079687772413236,-0.29423350358077666,-0.07780185646252331,0.45146859261965205,0.24242548827122695,-0.32043235853576063,-0.19000703686950687,-0.15125727754577767,-0.4082110169307565,0.2859479521031161,0.29658796247480596,0.44031838632061526,0.2758679468294719,-0.17038024384067246,-0.3289016225011883,-0.09427488723520851,0.22389877582341175,-0.006665266939500975,0.4106482330120276,-0.3064084092434752,0.3405885689408272,-0.3147887774661577,0.035793787231568674,0.4783326724826762,-0.006535296866973406,0.05018264271092391,0.5001604339817172,0.007518423071595995,-0.2356306327246182,0.44693604594762365,0.2584936854480157,0.4700808167465822,-0.1576351999921264,-0.045201386654734846,-0.06658994960102832,-0.488312890663868,0.03371443538242867,0.32365618954134795,0.3893765467264757,0.04938146715069461,0.41864187107786405,0.030593177617025968,0.3014793257300992,-0.00787040036874494,0.4112296790811295,-0.28419662933963835,-0.3407255916645561,0.00628850015278387,0.30433306912169966,-0.10829848201116975,0.4704471028907476,0.20673180600872904,-0.4869526320665434,0.2959528266790932,0.20537351678123084,-0.09324079758536047,-0.15769874811521262,-0.470309362118212,0.3192268954873179,0.14477924424026672,-0.21993949653093608,-0.029408293188223526,0.27509179652874266,-0.39237501882735537,-0.1457192865372767,0.23414167774057118,-0.25713512975589486,-0.37185566948322435,-0.24298732403092269,0.1996003771949971,-0.44191300412867474,-0.14721369757774222,-0.03646924178865724,-0.009972923222725394,-0.4429486257681455,0.08856647606176278,-0.20361799016303453,0.20202081540558983,0.4264232518987517,-0.07388855807632214,0.2718648610995267,0.08147555035036205,0.353870401456548,0.35013613925698284,0.3509654100117038,0.4439677501772516,-0.2849481017299598,-0.36267570560298723,0.3812760156976964,0.3211030465130977,0.18101652778201752,0.01372558269685958,-0.18018193676537514,0.4190515142120106,0.08688995416299325,0.17762195796064895,-0.2785270775390415,-0.3770518245212302,-0.21538296592179904,0.14845240489148992,-0.03438416055914428,-0.10592368655104743,0.47966694148639943,-0.41610107287767145,0.25942053953492145,-0.30310630572240205,-0.24631158981122955,-0.46383778509182916,-0.49997744183588466,-0.46911824615116604,-0.49843394098737975,-0.16382869291987118,-0.08904495190527943,0.30934955188363594,0.4373496121794908,0.19941513882976739,-0.07534900443040185,0.36461564467353696,0.16333285729911412,-0.30448734497891655,-0.015164926937737671,0.06677576151145347,0.04683456406727596,0.05674514942110506,-0.07374898763120123,-0.15869684751493546,0.3999806088028465,0.1510069316016571,0.46077585310103836,0.04701434041514352,-0.34390038512890125,0.3738597514028188,-0.26539737680117376,0.07282551866817044,-0.17154429820301378,0.20136796816715674,0.402687953899977,0.3309849066103747,-0.4728836600541226,0.4980151067573646,0.023187048981757084,-0.4315122988882935,0.07789616564547726,0.2978273378397766,-0.388045016952536,0.2008922601535265,0.4495153261011915,-0.04960431588637387,0.10999187868548135,0.21069566843736556,-0.09076135820444453,0.17480651224478394,0.4833772702645888,-0.36073190689575046,0.22519061038907118,0.030093632317380565,-0.24151537535405687,-0.47356039268810635,-0.0730298833151936,-0.3846713178003115,-0.35530975693480493,0.37058055836311854,0.1719549195989661,0.21094118477184964,0.4199037699847372,-0.18859830831566837,0.1233626417003443,-0.3709621311925656,-0.13779100128665306,0.07260086136370263,0.07556221317561347,-0.3346641017667182,-0.07607979414737091,-0.08740099297409866,0.051253566536853916,-0.2142588373049214,0.05971642604013522,-0.13897656605541991,0.32646955989921345,-0.42568476187095267,0.4770723851160537,0.21595280557733004,-0.11490795463476365,-0.2936193676252279,-0.35728052362122326,-0.3858990796304325,0.19502119599819387,-0.23729340478967378,0.47866232909063083,-0.3877744503927651,0.3075525394808483,0.3447368875218815,0.03638809764725104,-0.495792559464981,0.490813911358128,0.02619619801691488,-0.12115587254415477,0.07147232888680476,0.22004616714337172,0.33423303921669906,0.3846731786304368,-0.033509183809383704,0.26739088791993665,-0.16244403790341239,0.5155001647924451,0.20067735841588197,0.02459131224539508,0.020279459649534898,0.31265779224820944,0.12313056248702609,0.39800383707762194,0.41394481940740807,0.25481200132911436,-0.38298263963885726,0.13339335564553423,-0.186652656919679,0.4897779038560021,-0.1056615041509955,0.4706011484628456,0.3005604428684232,-0.3750150712337239,0.47525580024237035,0.102684171345369,-0.42262730644408364,0.14540176089242132,-0.08506300740595812,-0.25797053662881647,0.2730009976202978,0.3265177642240387,0.09407847241582996,0.17349233797929467,-0.46333533497364066,-0.2843580397318511,0.05790125615801743,0.10731210584746567,0.4216050493402788,0.08430642576976964,0.1499489572288384,-0.3770473736932237,0.3484896066490482,-0.30497157733710717,-0.4616725453728177,0.05321134596145389,0.2843051200218687,-0.3231878893490946,-0.2683601357741438,0.38536831126466775,-0.05983603471257881,0.1127106026787732,0.044482636187780145,0.08996823837314238,0.00857369957621068,-0.1859878447705674,-0.2712195379545829,-0.2730219796705662,0.31997677788892,0.22071441555934262,-0.025908810704640697,0.4017909731923844,-0.21947382139053828,-0.25727832689815877,0.32652417146413204,0.16936479210631458,-0.06928351891519306,-0.3248196202384174,-0.474966811205367,-0.2057272666515041,0.02893623962007914,-0.2353209603138352,0.15077486219835115,-0.2530141628402136,0.3798687805934834,0.4262051821764097,0.387010441881644,-0.2693477623671192,0.17676451350129407,-0.11072743733748314,0.33619435254038077,-0.17822517222197165,0.19734748185975182,0.37628609151389725,0.4597157202797364,0.03421987491448987,-0.14756796712413878,-0.4114152553950365,0.03919963954317767,-0.45986381395019055,-0.39051124492415995,-0.16914065904154363,-0.043806442657901026,0.10050287148550942,0.13199633604603456,-0.49311988044800165,-0.14137528539878785,0.4344821078672409,-0.030503633238004202,-0.4816698172839538,0.45366941213396716,-0.14286489068792707,0.12440347872862345,-0.3500774680260834,-0.20856279981916614,0.10581474674366076,-0.21481931160701317],[-0.0032305051177057287,0.14138013963013574,0.3215365472957914,-0.26252401391964586,0.4034360022196093,0.11155746125430865,-0.4416755181661649,-0.22128843515323116,-0.13996334458071114,0.23633905236157848,0.2040196136274639,-0.052812888775925604,-0.2795279766823897,0.3317085866027003,-0.15194830190876507,-0.05169402749835572,-0.07336119249782569,-0.11288539152357857,-0.1830650743253599,-0.45511479857598336,-0.3567315663104893,-0.20248958758198365,-0.4562960603051689,0.39344680180095826,0.2133478382958549,-0.13955182798440524,0.2906240304727852,-0.12247539392360873,0.35378870082015035,-0.4499772671557529,0.4827148578443625,-0.06783515385708427,-0.12528396375412765,0.12675178428700534,0.14166037356118083,-0.4119917668106344,-0.243420116441045,0.2398864388627304,-0.11186332225764214,-0.34083389679322196,-0.24956632533606907,-0.4356891156648512,0.3382722899503811,-0.028077668160687325,0.2277889426266729,-0.0256709758124035,0.4612354541483835,0.07837854825959381,0.09973297828128046,0.12949447744837683,-0.12074184751742312,0.21381718602478506,-0.08250950717303018,0.22893274278482445,0.2645740131510199,-0.3737883110562976,-0.35229328917196256,0.23154338770720018,0.22825936632398203,0.26052376240017483,0.3296801692295488,-0.001567288427605077,-0.49183217333246776,0.00013118691929916656,-0.2404237946347441,0.4038390764290303,-0.33652260180199567,-0.30954207875184325,-0.3259450624303973,0.08625354480089915,-0.3364435920018105,-0.2914759136078864,-0.4347492175106068,0.12047321251951564,0.12247161979532366,-0.16150474194571252,-0.16230619476808086,0.16359211947354318,-0.10053623228308628,-0.2709745358351713,-0.3204685260771762,0.16324960069248817,0.34024457489482707,0.37559672385831355,0.4978881828710344,-0.031082311396443796,-0.40412954966724457,0.19826210060597815,0.4322707741739081,0.45692469360336085,0.1350916351600545,0.250724458936104,0.042326124991710734,0.009007904257415668,-0.19366400125829233,0.3258000333076857,0.291236575404911,0.4768887411779811,0.3233063353360269,-0.2098648925647487,-0.210369708880124,-0.2370027577030831,0.05712339344817943,0.20239567838686487,0.07848428614513311,-0.15883976103793224,-0.1809732911422267,0.030866015184333406,0.439995164482133,-0.1337212311627154,-0.4682084698549995,-0.09254995040678837,0.07676489685542576,-0.28896568661979116,0.07199847074888144,0.08521587787075834,0.39448612828169144,0.0731324969271902,-0.09398122142614895,0.2602679444422792,0.07871725434794911,-0.27449764254554854,0.13806761008491447,0.40971358190563556,0.01776494421112997,-0.006256741686841721,-0.4084387656811936,0.08063471069175025,0.42027356740383554,-0.2486519779176742,-0.3768002224582301,0.22574412393607113,-0.21652804497898967,-0.1074753281717995,0.24962058193230285,-0.4920015167205602,0.37298384175107707,-0.23332873709278648,0.32422724528623426,-0.4903386283951363,-0.21299494894655013,0.24071583726677626,0.2654897779307936,-0.08153257542759924,-0.12529830085269583,-0.003582132115526341,0.4175239631244774,0.5355300469015799,-0.41695016697497145,-0.19640683575882723,0.3281383681396315,0.15371344183625216,0.1475147239676407,-0.15324252158472046,0.17136463208575686,0.11371380591844618,0.06712447853714144,-0.00647926608845739,0.1892349457053052,-0.18547043069464406,0.3860156060360901,-0.38709783778744683,-0.10151916815131129,-0.07210479298901952,0.10618250390424752,-0.4848434211720082,0.025553502338138738,0.016721128274859165,-0.3214162816581898,0.40948405961557177,-0.07298130541416929,0.08973152031448373,0.014187226695539856,0.39668192477369635,-0.0658441175227146,0.012132245727641041,0.3216483982134261,-0.04548060859634023,0.24108846587862354,-0.35419910274119704,-0.012471730555050811,-0.4120081148378036,0.39108138359629624,0.3006889548496645,-0.25808592758184656,0.002910192228972269,-0.10020813684535518,-0.23552131145793248,-0.3219062856837897,-0.20534726788330956,-0.40337574364864986,0.45098813543533095,-0.05907107756957787,0.12873966198186346,0.15828740074228304,0.22429256803469647,-0.13014660201892458,-0.4656737022401283,-0.27099834684189966,0.0013589688396451137,-0.34350373692021513,0.024827819830340898,0.1710107098091129,-0.1643695580924533,0.11740830105864504,0.27628986657940935,-0.46489694448526375,-0.11943765724519516,0.058726439082848296,0.29038639017427387,0.10523506541684705,-0.3876745398404338,0.1085362996527009,0.13253711366560184,-0.4392240568498066,-0.42639136419511786,-0.2080386632797787,0.17817937977356904,-0.50303982939035,-0.13941944556899832,0.3011778742910586,0.33705253242641414,0.2586035111448299,-0.24166566792186706,-0.02800989030022838,0.3732288240484232,-0.020874086970867067,0.25384014261924426,-0.13253259884049956,0.04423381495631698,0.11891835293159367,0.2577895664546397,0.349897797657583,0.3088579143975131,-0.031492150813152764,-0.3370762828845669,-0.24035460727855587,-0.4551724612248362,-0.5011654089709783,-0.0006477827880435855,0.2760090326175858,0.22800412533452696,-0.3687301570030135,0.5108318047790142,-0.41242122962169564,0.2355130679386906,-0.06383306860229623,-0.05188030436559725,-0.16033469763005498,0.19917252140986982,-0.3922752282225692,-0.28102761433362816,-0.3191623964317859,-0.3972831260078114,0.030231328034559083,0.38621180733990146,0.04310579444049353,0.20832715104060132,-0.4473294453494664,0.033129167271340534,0.46735518929655695,-0.35787788248955466,-0.48811345631831166,-0.13687169960976878,-0.030974492885325396,-0.023738862073283528,-0.3417024360490623,-0.1869921591452039,0.0646754049955472,0.49746313840236045,-0.38491778570484647,-0.11351547542487772,0.28856036725585965,0.1473166961012779,0.004816411197429901,-0.5135712954256377,-0.18492029265853807,0.30337149519872797,-0.3557331673842086,0.19161334692960547,-0.15895118391787444,-0.4548406218693191,0.25591180567091054,0.0955554108155931,0.49103720598023237,-0.27551461752003453,0.29466689334219465,-0.23404549079974996,0.4058478527394976,0.04827080197992117,-0.5242596003157671,-0.3694969714806006,-0.22454557458787666,0.0414142676724962,0.007483558760228597,0.14444427022353423,-0.11116525119668436,-0.18481132193573074,0.27087417017292764,-0.12240853802995103,0.04068379730056406,-0.02531965775539329,-0.30506885940942247,-0.20795386810443311,0.4790422916737728,-0.23912820392762132,-0.4004547682494935,-0.3565219869585395,-0.3383640532797388,-0.3942483407910985,0.21683264665562083,-0.4563792865692472,-0.24174357795280452,-0.4146094808054616,0.18485539545678234,-0.4679619962331277,-0.2184406665688961,0.1843550157459756,-0.3533219658318661,-0.11045597182778558,0.3088823951066422,0.13484357331555255,0.4443205340466737,-0.22421153414478828,0.030180346470743823,-0.3518846827648764,0.526873306577685,0.2390137903398056,-0.04934806990486915,0.07143954720986401,0.32037667167641437,-0.3088534320135318,0.4723933345551273,-0.4061574703475447,0.4350050834219287,-0.03371835188985291,-0.13492246842907418,-0.13253951644316675,0.2323342584673844,0.11059891026922665,-0.19780886622074828,-0.11493446858294427,0.21698610321295686,0.34157762020988836,0.18643250671337105,-0.4671155452905828,-0.29067734045941124,0.32342558270852884,0.0004746408512495721,0.25393176297292314,-0.3921910217391146,-0.07757638872014443,-0.1782770299938822,0.4131245495440543,0.49593831537103894,0.47655330263501766,0.19965631848292828,-0.03943584364180358,0.49633583198718295,0.28350228784785986,0.00311411618448412,-0.4448064696738985,0.3865783307612516,0.1861833457781108,0.36460744161147773,-0.45966268667953214,-0.2967653888008871,0.09434631192401388,-0.23330742789133954,-0.21914212156071086,-0.0038234181780614366,-0.5221858484885664,0.17622975590572254,-0.35236850997266855,0.11870060124716436,0.5060921178578358,0.3831918296144754,0.48323681781400935,0.03832160711467206,0.35064043802152867,0.20808608112650318,0.16883272231869517,-0.2253684362669527,0.2901502923855717,0.11275653143069059,-0.49000778894999597,-0.1805049747719135,0.2025337378308674,-0.44305108245395175,0.4114394061372652,0.33137695354586016,0.01400585862290038,0.23361551335942465,0.04755058070809781,-0.04061606173836618,0.3078890811256443,-0.26260374372305056,-0.4246374864299015,0.16502447778188406,0.20650936196337305,-0.1071249989012461,0.19350641861991816,-0.2009436150976555,0.39546382035762717,0.27760988885763954,0.49165381920288215,0.4101141437373739,0.4272704281633395,-0.4408029706085718,-0.12297499296575394,-0.36452627650311054,-0.3248803397643165,0.19002789284967309,-0.03057377820522412,0.2705949356501479,0.35432044460460393,0.27454311616977717,-0.08329905754447613,-0.22328250082141302,-0.39925953629771493,-0.22259219623755655,-0.009952281870158952,0.2641248097131138,-0.2159418183700638,-0.13910404813332375,-0.116725060233946,-0.11508248186965692,0.3655626613639788,0.35766988768948194,-0.1962748969860385,0.03494471152612842,0.061140550171747576,-0.32336415627008136,0.42359639170922103,-0.22849514138958127,0.08931355072360059,-0.3904602651471354,0.21517719303241714,0.11134311289466442,0.12950232944752943,-0.2510586299719262,0.33257232780991386,-0.011200151987075309,0.27962053004912685,0.2538305317896818,0.15160685512406705,0.4634911932211326,0.01297056580667589,0.06397163945661011,0.39976069314602425,0.2901387098937669,0.00024496375916361945,-0.13752898144810446,0.3668631953610303,0.4433264456841327,-0.47173914089812014,0.3587822504170214,0.3914936985090247,0.4439700407185152,0.3218347114592538,-0.18742320063141074,-0.45988088180839964,-0.48123892947933955,-0.3870972983154208,0.2835599213630252,0.33448762021329564,-0.22559366970374028,0.4122717489219227,-0.275288643845825,0.4595790391543823,-0.33479263978039075,-0.3145847349542431,-0.2280537158776289,0.4352032844521735,0.3617825985289785,0.10754913356902875,-0.08726745490588095,0.1567280077714519,-0.1855668493476751,0.45353505233699554,-0.3279568161463841,-0.28725992198157796,0.16183394950744667,0.11717324735657762,-0.13054323932087517,0.3001415295488969,-0.36815334425189483,-0.14239781968570497,-0.09806458031462688,0.019074437579738625,0.29773715955706515,-0.09718682071251451,0.0805261534952628,0.2704111534330817,0.40516883112130925,-0.02453372961569365,-0.43766872952329483,0.34147466162415535,-0.17316582332764158,0.29460462318958897,-0.020834163913200327,0.1451005212871229,0.4426041064869228,-0.07143366402999479,0.16619648640455176,-0.23252870900907366,-0.45681240233651405,-0.13494849473895873,0.2888371124486311,-0.10147296001857302,0.35818483992905903,-0.313519161659534,-0.015231704508546173,0.30670847366619397,-0.07383335426157772,-0.26388032955781765,0.3749249657397774,-0.16977384850868546,-0.2511302808808131,-0.5242193598156506,0.1216740559861412,-0.0016452342111291014,0.13695443818860603,-0.3829240089900511,-0.2246917460393496,0.10677264926644862,0.07208898335385677,-0.08922128481342007,-0.1693890512901148,0.20479512518792584,0.19385491705954613,0.24485615051167037,-0.4097193521405891,0.32625332961626663,-0.13065524852277918,-0.050575177544750057,-0.036007721893880615,0.48680270233103706,0.18436574481509416,-0.25125061346183863,0.177755450694292,-0.2714844858402915,0.2334878551443672,-0.22133889423185987,0.011454650120824033,-0.12942090621923358,-0.41507810598936606,-0.412896134308312,0.35967535622417246,-0.16612665916168695,-0.009084728016454584,0.17397973515284443,-0.26865260439154937,-0.2526406409097203,-0.45099650458352586,0.0595491022885073,-0.08449083156446324,0.06299721987260552,0.0007142281486403667,0.16451829046680047,-0.33845841939188714,0.0695415751285306,-0.15057817589277703,0.48393187353452566,-0.17969462038543715,0.3930895495148803,0.2748273804467842,-0.4074217985349707,0.45501323828266044,0.09896449308955145,0.4000956411226628,0.18650829534025223,0.13894692375247134,-0.4987642839732512,-0.007703711503879131,0.359025061924936,-0.2241002154505959,0.00998913660685508,0.4890945297184909,0.0747467121354986,-0.009527134462292827,-0.024691896545259683,0.27502239802610173,0.2699798570934328,0.17300061821056095,0.2321862768872979,-0.030329791081635835,0.325325962115784,0.47996316994512744,0.15291422537455457,0.05351825269824611,-0.4128570610266579,-0.4436654105390297,-0.26379472424852,-0.30427629283700397,0.4787575791036534,0.3337531814935791,0.27444267587792737,0.07370083859215587,-0.1271055511926543,0.004516980536939014,-0.2603637947668542,-0.14383409215594958,-0.07372973833671466,-0.41005880294223096,0.23080732351236766,0.4387293286418168,-0.1026744220921793,-0.3279706766847329,0.052069027758554355,0.1502313439683891,0.2569017436613764,-0.445559414664938,0.09051328279486986,-0.440754529105558,0.1083493490332017,-0.49637108122153384,0.13774129709408212,-0.19491852387330633,-0.47963113607312813,0.3054692572590681,-0.1786188917245724,0.30295879219677185,0.4079333621854245,0.08830901065197796,-0.15041348910908178,-0.1873337033610315,0.22728033797232586,0.006014412991222042,-0.22678549003131726,0.18796626880823,0.13316184637877154,-0.3783778235542201,-0.3386042605399335,0.13130301145533793,-0.19120752135468194,-0.31831137992676833,0.31458897216213916,-0.29504122783552383,0.4680093157469122,-0.12259822215760716,-0.165410949591569,0.45714016703745325,-0.4909142948114271,-0.21273926005911137,-0.14805039172952805,-0.16628841044262269,-0.09391252456829621,0.4728593020881225,-0.3938616596421846,-0.3121274676234638,-0.34187129294677016,0.10693468416134166,-0.07298374908988653,0.020628136330014164,-0.33350765013665173,-0.019287169379958603,0.10108581731526842,-0.09904760077105572,0.39609894894477404,0.0894558800255137,0.1478284802449509,-0.46985452457170973,-0.4667829867061569,-0.32626702834750865,-0.3752537186084592,0.47610528802051677,0.22590285387117018,-0.24774262048764129,0.4794848607186512,-0.16802247347110555,-0.4006152851154585,-0.40827002582043614,0.00981419726325905,0.21304198479789083,-0.22491204990893593,0.11941909653426619,0.22233185754737758,0.017628191597764308,0.1657789517331348,-0.12184002396885443,-0.38821611754332,0.3085723646633794,0.0522935523284127,0.3507698358023857,-0.28944782759226106,-0.09095908505325283,0.44106983304878533,0.35091035908241736,-0.16412522704262172,0.05281332698799562,-0.04189515411386258,-0.40554406532027126,-0.36608742391644356,0.3295393647536878,0.4674525188595853,-0.47093786571588314,0.029634301227079395,0.0671726372441146,0.492544881390395,-0.1885492628646288,-0.42748615117339406,-0.23409873336488274,0.2794857162976968,0.37263446972094877,-0.26431097156094624,0.2810487893999752,0.4533492362488088,-0.41557870076841574,-0.010180092460667216,-0.48237195570831565,-0.4652050237478849,0.045423559894644756,0.2155452522879665,0.15677344568277288,0.2674645390377677,-0.4231797414087364,0.12641782557146314,-0.43323825258734544,0.4595217565347283,-0.35606517013903244,-0.3147350033481122,-0.010489661606687616,0.03685545495094607,0.037336368703836345,0.32114717625397415,0.3763477630146177,-0.2318255870935575,0.448688201626422,-0.36531467051018596,0.2833619588096352,0.3253372679536968,-0.005879083887831963,-0.47292852932506774,0.34272122986578746,0.38563234423154347,0.2200814213175655,-0.16267213932852,0.3087046773253219,0.21294602471079896,0.03248145142481912,-0.35363173208643045,0.47371556505574497,-0.06374383733928855,-0.20540277279870883,-0.3424613698715186,0.20434986932854474,0.464822536421593,-0.063197926242238,0.21012365573298264,-0.48624904241925526,-0.2721978536215282,0.21665001976770473,0.27638140773427233,0.16129867754583382,0.32189068863100134,-0.25501587473232323,-0.4440445523808416,0.3270344663692648,-0.27705020813377446,-0.4367425825877509,-0.4032247951013612,-0.1266693950977808,-0.22371448163025234,0.1832962059786428,0.10748364030424981,-0.15602135787638663,-0.2399556035341038,-0.39434399703385453,-0.035043025888282925,0.11863196738094989,-0.15507958192902127,-0.17060324756432296,0.420411432704378,-0.0065744963662342235,-0.11736828073239802,-0.4169134390476925,0.29588022874395187,-0.041856438613999014,-0.482967272596007,0.44805474640530063,-0.27704825316070036,0.21297556958393948,-0.2896102989019911],[-0.06443887245574476,-0.30041968521497653,-0.111375019269921,-0.22632242246685497,0.00006656188569809096,-0.24889874579512794,0.09301723870338074,0.42140337603786393,-0.3020103985826408,0.19966154271566738,-0.37513549781664146,-0.1927593045724545,0.4133449382156855,0.35244294738806814,0.4561412327798138,-0.09159546226442794,0.01715502917173617,0.20004433930743182,-0.11655553882694125,-0.2828038075262931,0.28027129838029285,0.2641400948522641,-0.13487894818108415,-0.12661099876606619,0.430753235079548,0.4732087343632676,-0.22205844692334442,0.30900007427799925,0.3973659904708986,0.3005043874562261,-0.47434409014315393,-0.3215902957713177,0.41409394016169787,0.09114356544560047,-0.44380428886427914,-0.007562082812206048,0.2304619772062487,0.4018117848609627,-0.2160271905213243,0.042652845201515396,0.3240048783568734,-0.137370023361616,-0.3141432808587427,-0.1554676659745314,0.20215378203191128,-0.10231501949715871,-0.09585811265228152,0.13221575099399677,0.3561937964889631,0.23403268984867887,0.20321667948035715,0.03107616918574685,0.015183171681594443,0.11480910971612457,0.26255510248487557,-0.4801342344194357,-0.07102431554123978,-0.3611626353942281,-0.3427378755738977,0.3547917381573078,0.1178905697651198,0.40001739921167245,-0.3816840447993748,0.3598049935711974,0.18650005470861541,-0.18963938863908938,0.30747184130018257,0.212706489371829,-0.28720848245558867,-0.2051704297373485,0.4550273523708132,-0.37136294064848446,-0.48883531856114526,0.1738869172221564,0.3232306428177849,-0.4154111185256615,0.37860691786332074,0.3057707215318653,-0.45276419836038645,0.06941129643451384,0.350687779432761,0.39604397251379764,0.15755053938698738,-0.11981336890801697,-0.3906859936107332,-0.04894658350518166,0.18849654135968885,-0.43446284306028415,0.054021170016165417,0.4420935005199238,-0.3861566692707983,-0.08179350105766227,-0.0459560737323262,0.014579675113674228,0.5072904462359169,0.37753058558073016,-0.38372477642538516,-0.15801316715793498,0.13932556705792717,0.3465644142993883,0.42231729964260917,-0.3305194756562003,0.24062825999445564,-0.17852297919020313,-0.1108956400570399,-0.3160866524407695,0.23478151224372257,-0.11049328562125844,0.3155506360837052,-0.09231835457531858,-0.4323678565017981,0.3373787347462036,-0.16355519736794122,-0.22835757812691315,-0.006446665280775088,0.08201539543420788,-0.19519287559768167,-0.12283767875442983,0.37853825477185965,0.14041695334177895,0.06232353432391658,-0.2724904777092343,-0.2001128958162106,-0.3279854209861347,0.3021314407613847,0.23486229085267463,-0.20638283717516212,0.0941630773527064,0.018021610145169425,0.05213067202028854,-0.4207065447877089,0.46270499042179497,0.3321069523729084,-0.4196049279460498,-0.26428452011268555,0.0435945633606335,0.27531262315207083,-0.015335928198599443,0.21414115595187294,-0.06032357389506959,-0.2659897197943799,-0.3810776708824819,0.4342886471384551,0.09728969764341616,0.3626576527190073,-0.4686436405401311,0.14011867604156863,0.5104066126164052,-0.4645947429628994,0.016553828460055507,-0.10826993517231358,0.26500700721799114,0.3610347109377524,0.30927047679669195,0.06602134509480845,0.30267825737051524,0.32604863344468843,-0.2826890089810784,0.28972538420214833,0.3216554777899389,-0.037681686223208805,-0.42896501385517855,-0.4841648868295266,-0.3476779064932855,0.4699188161484576,-0.06376789848681082,0.30849346742528555,0.43531005808574363,0.19958596403726303,0.10572967707605119,-0.3468200647380625,-0.07294026097284577,0.25864040099703856,0.2586511082943725,0.3179716383721767,0.0016516624214006057,-0.295767010693769,-0.3906957240651664,-0.3268991647476798,-0.25992490764510107,-0.1872842959262016,-0.03793586472192147,0.4411581245568486,-0.14483672884517154,-0.17582890098589946,-0.4387251177271967,0.014383275349774814,-0.051135171588237015,-0.045562179334681735,0.2941722719653976,-0.2268849311460601,-0.1660610070592025,-0.18268306706367896,0.30775417249170806,0.3498420598828512,-0.19453291761620864,0.0761410723843381,0.11880026740345359,0.339531494036773,-0.28828381709812123,0.4482691437892,-0.10329973777569208,-0.15213457221975846,0.38792108689036614,0.5465996362294221,0.13426253589744688,0.24802317695804402,0.5330708495569438,-0.1758945020202049,-0.41406885080541306,0.1721349250184571,0.005703716248823361,-0.47417614855767354,-0.14895364124071042,0.3827489458572017,-0.21555358501977365,-0.23478842109905604,-0.35480946287326215,0.09168908583317534,-0.2671037134106056,0.11260604685983383,-0.4048284949975238,0.3778298944142306,0.3922891416631545,0.35144995716104543,-0.433458013254531,-0.4700167118401111,-0.43092053450992535,0.15359939768718606,0.10446263855193992,-0.2637141113735244,0.523629117044773,0.4188857297333443,-0.05801433459902136,0.39648455200099714,0.014106815490930267,0.21441983534071432,0.3885380375007825,0.08566622613209207,-0.2943083925417467,0.154548752691621,-0.4703311878105504,0.1294590443986692,0.183063105644414,0.5034407581025514,-0.2627179723346858,-0.021140679763912207,-0.18060015521908981,-0.014091904887361137,0.4809162042640138,-0.12594724585924322,0.37494063701169517,0.33577214300054087,-0.03496990410142659,0.18122478806050113,-0.0009398173715666263,0.3826780846794047,-0.24579892023973796,-0.012697399000831206,-0.3752014425459131,0.2969772804999211,0.2499511326249319,0.4921177680049572,-0.26762887407825603,0.32169508226178223,-0.4965936812142035,-0.11621327188898628,-0.08210378445009128,-0.11561246346999139,0.18239001533039007,0.3867852039326822,-0.2706999210116348,0.5371958148130035,0.05637044268595525,-0.03351508751569946,0.23694259179634963,0.2555991531008303,0.26413771413126313,-0.2730901266777335,0.13549258074757842,0.02174889943577794,0.2309700205998312,0.2776436212934908,-0.4470924061275314,0.06093811443565426,-0.1215542277422886,-0.03819376210996472,0.1757090985653081,0.1228373143224305,0.16603348729541792,-0.2494903109589007,0.3928841154105744,-0.43525225553988683,-0.1361010538112224,-0.32686460695293823,0.04569294487043612,0.09801931208479153,0.46450482419888556,-0.007833144750540331,-0.3086598483837461,0.23454497343766806,0.24855232467684463,-0.1219410166866428,-0.08296027647325226,-0.1261549737412265,-0.36381246334458633,-0.26245529142288637,0.33203216061999813,-0.044121211709150614,0.19464539887653748,-0.31118344820910104,-0.2354474339463046,-0.19096976402988336,0.3508351269483571,-0.41780971281540946,-0.09004328648682448,-0.04741196121536758,0.11409022550251727,-0.3366005658499837,-0.36616292583671795,0.24985522304124785,0.007358810332832158,0.09799788324330035,-0.46397751737792603,0.32763324522785864,0.44083025104346757,-0.30211950187389863,-0.23756545221566366,-0.28961233021318084,0.13139334180644713,0.17883674842399086,-0.15419075716795475,-0.051663917799143165,0.289170797615292,0.3066321499420062,0.3157621932534907,0.23555401248018537,-0.006639341841256739,-0.07370894028416321,0.056716815073154084,0.29901762251748787,-0.07060726563552651,0.4916313675033123,-0.06808513265666641,-0.023756571589349497,-0.4910197206199708,-0.3370664575516202,-0.2498810213693856,0.06808812869338056,-0.4619930297752388,-0.32009433436822493,0.285723099542161,0.30530494933565516,-0.11814377182269512,-0.11219366442031939,0.5054202985318695,0.41436322919898105,0.02003888928735393,0.11851667007578848,0.3246053248819246,0.34002545979851057,0.44733530389777976,0.40098326375164034,0.26421468710126605,-0.4231046035120487,-0.07665436986925141,-0.47435210908646536,-0.3331815936240763,0.40748410785336947,-0.4712654823964018,-0.20298256217269015,-0.2526903254637857,-0.24818445318905683,0.22427068362805788,0.2944161990368616,-0.03867945187181217,0.20968117036396544,-0.6134343369677183,-0.32407481991819087,-0.45432763879869004,0.2968408312628529,0.2888872434749795,-0.19776294890589158,0.17731018537045465,0.294682225044949,-0.08339801452061144,-0.18783626674799314,0.24677577344357962,0.12321869587389381,-0.16312220537712313,0.4142933665799519,-0.32508209463159266,0.36041363825844086,-0.2821382846525935,-0.18321149626327818,0.2617436156944017,-0.02931441641005461,-0.3139906197187794,-0.0357930555036277,-0.11284121442748485,0.36678047969118255,0.06208250794607387,-0.48237754779728215,-0.34764897576568626,-0.22864842793846937,-0.470623802790633,-0.32305700317428104,-0.1493677794626405,-0.36515501072479456,-0.14899845118242064,0.29826801562691374,0.33322448625302836,0.09618714951520489,-0.13463920214603498,-0.19295768090980292,-0.22497680568979977,0.2758253428621204,0.3864891512274516,-0.20600426841220948,0.07852610177857455,-0.16321133946634703,0.25986444795127994,0.3976352665024288,-0.4235187341397303,0.10221925992686695,-0.06476113577273215,0.31866884305895443,-0.1698881379121124,-0.29815652622981775,0.10011533506904714,0.4468002082756479,0.2734816010435075,-0.541075661404913,-0.008480690454823164,-0.4663949882359652,-0.10357247106730721,0.38103575567471903,-0.29462359453409054,-0.167680216014487,-0.22656710903366775,0.4893164486096771,0.04295689039266552,-0.09614061745825112,0.2420436328422753,0.36351547804679346,0.043659562698688814,0.2297385941269974,0.02581016480317981,-0.25188058457605167,-0.479462106075755,-0.04428884392019699,0.1209535621999492,-0.21670724031693325,0.33318373174330107,-0.044937424576481116,0.024507201464052497,0.13986418073436663,0.49375073022956345,0.15421147152586148,0.0016982511534536114,0.09296346958981491,0.2992147336135812,0.169675694280368,0.15576455649468762,-0.21595258599399245,-0.24972494855944014,0.3081799269272136,0.4238280483461716,0.503646947485798,0.44198973537753616,-0.07010949250258817,0.19081389371948168,0.4677077765636836,0.345137800513696,0.31005097002810933,-0.3103581700119895,-0.3694281877188281,-0.25570687368789535,0.2017267136403008,0.3612877544770785,-0.00280816126150143,-0.12488812579635147,-0.2298131027203005,-0.3922020353125228,-0.19643778391017833,-0.3140202012573237,-0.3839300073375729,0.47581305479507535,0.15264681444596417,-0.38859732823017795,0.2165369739328615,0.16839363626608278,-0.5211513015531373,0.4948546017872882,0.08307410462957494,0.22042454517714521,-0.14505908704178117,-0.35406961470893034,-0.06290249315929745,-0.19788535062644358,-0.46279929794344676,0.3759019433649311,-0.26035273857432506,0.08917478490432182,0.4015827634702105,0.252865466857648,-0.08067775968697083,-0.22462341605556999,0.32713383241965077,0.10362303847185635,0.22206503749264547,0.539432523710493,0.4497416795408505,0.09126636883243917,0.13188462287201197,-0.16773386410736482,0.24857743527928436,0.46114268416283916,0.169364586341398,0.3406675031674797,-0.15470553360428665,0.03478257145663113,-0.1970815091815498,-0.019450427993349808,-0.29674588832492405,-0.14094206692041736,0.32939533031310175,-0.2881597966596462,0.39334104317303553,-0.29122748732807874,0.11695310962592602,-0.043100802842237586,-0.46479155933366445,0.3847722449518896,-0.2754490202869373,0.4741986381013261,0.49567011724860405,0.3940369952861093,-0.2459442252844605,0.3076734620056681,0.03753481422094292,0.061451332039644736,-0.028767390121574254,0.03258020221688098,0.4670953162285145,-0.37880744916562864,-0.3608209420784699,-0.34870052212170727,0.10892117406191336,0.056781095505049686,0.28695709650471185,0.547504407367867,0.23464766731802525,0.46459784874002985,0.10270033889749741,0.03752575432246815,0.3829175916293168,-0.04260496683005136,0.06757232153495386,0.293962839467192,0.25308797895278956,-0.009616528132526342,-0.21348725963845025,0.21556837595538522,-0.2017749117545477,-0.4573378870131139,-0.44946491255171744,-0.2270530014514271,0.31678627756335037,0.09160117583314929,-0.0029410248344949558,0.016293604940492347,-0.36946708638282555,-0.06299275970250932,0.11999401132704166,0.05642001230333969,0.1003216805618566,-0.09159465225903923,-0.00781094473649994,0.3184634933856171,-0.053846913015413604,0.5018717438586177,0.06942840280392429,-0.044571033401241154,0.046639568397084226,0.37641088605298006,-0.02593752000980971,-0.22448534341915072,0.48388997649514587,-0.29676991825991617,-0.4204547061550478,-0.47666776390233073,-0.14823939111421064,0.3475421505450837,0.27133394336280403,0.23038896814504292,0.09566890277799373,0.04570487342012741,0.031416895275225336,-0.10536066867160085,-0.2801280478998257,0.03839739771336082,0.26441131188810696,-0.06185703455553751,0.22718640913092056,0.3967299370535139,0.5589851315626,0.3275334286640174,0.4523272206892783,-0.40762839325031364,0.149003799278971,0.25466352091011046,0.007474525404832265,0.4611879918935356,0.19022166591008743,-0.19627719586724734,0.3165526278505195,0.3624215229651384,-0.33636774685757254,-0.2769670030220604,0.4600963186356266,-0.2793490300952929,-0.1866560757494883,-0.2506817513586664,0.06937053227683204,-0.00820542710206685,0.023805331002144537,0.09497207070093161,0.2957701746091926,0.13915859302186476,-0.12316943049063495,-0.021664900421042188,-0.43366969685285306,0.5378439721658436,0.5139365547189232,0.016710665036811106,0.45247912842341315,0.36894445051610786,0.2893629561838153,0.19358735685105788,0.1459747977956858,0.304738112787689,0.2876737910228282,0.36586464597303614,0.3411723610131925,-0.24407203452588785,-0.03950228376229008,-0.06568716115932767,-0.3295595969269503,-0.3199134161480386,0.13106745245536222,0.40128681422460966,0.4629730230409449,0.40883899802620716,0.3136122348547033,0.04319173833086422,0.41319683765544185,0.4853604670854679,0.2702730492444918,0.42785738180427985,-0.4065282168393161,-0.19583696883436622,-0.301486709684986,0.1298469647063355,0.07542876832038856,-0.06612935522353919,-0.3004653632228227,0.14738363196170046,-0.45951150820318676,-0.44437950075389376,0.2466766536351452,-0.21163671185622235,0.11649333467232825,-0.32729361686352454,-0.34853356549838876,0.3262753118447674,-0.13574693867255516,-0.10820818320373654,0.14509245985500804,0.33773009018112654,-0.2845665143226022,-0.1888878091090159,-0.26484733156943274,0.26063516022800703,-0.1895766361396122,-0.2193136320707795,0.3997799127507183,0.015432306613348894,-0.36045786312747957,0.062152597123368396,0.3044672916845452,0.33418042836833567,0.20546553737382645,-0.39747604096728084,-0.13204444227139484,-0.1826987741894655,0.0392318905384319,0.40595421443697693,0.10470370491918368,0.28316940140332525,-0.10762019757193819,0.17582061094326495,0.4603264269368921,-0.42310719554531984,0.3168941451011877,-0.3388538714967588,0.25384302165408423,0.3735502200162112,0.2374726378953947,-0.10572675902542947,0.2558885922420419,-0.41283969928828046,0.0007385745519953884,-0.3772361007168944,0.12326969478715583,0.33480718327198006,-0.33934508746713976,0.2752414062399224,-0.2139360275006398,-0.27134787926847403,-0.08933383377605518,0.019125136154343705,-0.13462374902221433,-0.45782250243514444,0.14955637096281899,0.15347368501663533,0.01912778508465518,-0.03860850448346409,-0.092019480750958,0.05322332464471624,-0.08208802211007393,-0.1535865669411347,-0.12616104429786795,0.022540307454103695,0.3153426701102065,-0.3300015757385893,-0.08505709661888863,0.32282763286483496,-0.31068317230502907,-0.14002789131554683,0.16190927295135704,-0.4006214135495976,0.3142335384311938,0.34627165636147367,0.278500902019447,0.05328479372641663,-0.1831915660211493,-0.04211999977251974,0.17238084307220128,-0.2083568576577643,0.0891832995807183,-0.3609766883717423,-0.0268694814852857,0.11652919161824049,0.3970477310461886,-0.43046360059127364,-0.477913348236098,0.2781594032577419,0.2310884139498799,-0.3111608917413804,0.39460902505943474,-0.28075963234126533,0.4313666803766175,0.10960420387642807,-0.3552171612284471,0.37511723591435203,0.4204900753207806,-0.10851833238977766,-0.31506469441708196,0.43094705161019226,0.3992043507859149,-0.3988171862289322,-0.11118087428264874,0.2962680201381783,-0.5001421168788827,-0.32684881969663276,0.39685419006273276,0.0660449827693874,-0.3150513775002737,0.3981668062043444,-0.31054085207708226,0.30505508287581473,0.36161032426967976,0.17559285574022665],[0.007315152260986002,0.2886554041860836,0.3573882943008535,-0.26346468587501093,-0.3870251501273132,0.10531458049879938,-0.4558096632673796,-0.3081916268307694,0.1985706766232349,0.3567849230933009,0.3634179285625816,0.2570970945195772,0.215584831389537,0.44239747572016985,0.06328054758659851,0.10886335368074196,0.1831955497627531,-0.11815140068298402,0.42247727724800077,-0.27510132648882357,-0.2945629795391036,0.19714851994573146,-0.493308129309981,-0.17437923210490291,0.23560338418374682,0.1932623636726567,-0.23315475477734315,-0.3736880663212614,0.15121438377235674,0.49565785764276415,0.23790950968272906,0.4201822051645234,0.3044425795738259,-0.004411593446305435,-0.2928545524188751,0.20692704379978394,0.38312854770111865,0.3533940166357531,0.029759416805853166,0.3950517905768268,-0.042672958320797906,0.2768298523590403,-0.3408950341543694,-0.21482563200705448,0.11062422920324858,0.10641524316744386,0.4393019713730078,0.025146564214462187,0.22206164925503472,-0.15101243042838086,-0.03474534034812016,0.4621061357274494,-0.2618083672439786,-0.28481448655108976,-0.48365533195064203,0.13454641832461567,-0.21789421889003324,0.2615738668069103,0.10038323262673932,-0.2617391914583975,-0.1215379547614246,0.45328993372809884,0.17486000855157313,0.1561109083128293,0.30464330849552695,0.35935991785584054,-0.4386552828304867,-0.04909078162972781,-0.3729426701505569,0.18179570788928248,-0.017474053525999275,0.33086099899442584,-0.4501897871863073,-0.11005577822000152,-0.015798916184196703,0.46024578992847476,0.007837424892247357,-0.05899618849909772,0.36476303439340163,-0.4583107921144646,-0.496666820128614,-0.24978140979186536,-0.01832374958361549,0.2570776325616295,0.29276723223731094,0.4378610815750008,0.1540258323822128,0.08063794318168949,-0.41950081778700815,-0.3182696651917735,-0.23193692817956518,0.15739708818003098,-0.23290699710961785,-0.058020973089011815,0.2227359827623156,0.13879237430088442,-0.44768534851801806,0.3422729673939728,0.2542600801055702,-0.47662788015015994,-0.30107513733942676,0.3672082336600879,0.29868955841636985,0.08471192690797286,0.4709964655395,-0.3328084435499887,-0.39032944457847984,0.4804881431226312,-0.13136132413223667,-0.3805982593950174,-0.018014152122066328,-0.16601121704090183,0.17677161660760632,-0.07339551652357379,-0.4239239031271915,-0.12354745680144802,0.49688983312212676,0.25056292749715003,-0.2546574298870453,0.36704481315187654,0.21064086414629132,-0.0447163169469524,0.4457164916040629,-0.32648505712123754,0.39304119812584704,-0.0642600426675102,0.43708202824843,-0.15434243838286854,-0.34835693280987845,0.25825873400875915,-0.5178331280026923,0.3830227024973269,0.4422083944226071,0.47801101141998154,0.06249427006084703,-0.15729287654373028,-0.2152629845661923,0.13174078209428208,-0.4444125298806631,0.08411850750145278,-0.20455440615428766,0.35711985054625306,-0.09890319612690814,0.4407776050668133,0.09407315255043297,-0.34449006072462157,-0.17759909715641659,